svm_type c_svc
kernel_type gkm_cnt
L 12
k 8
d 4
nr_class 2
total_sv 8627
rho 0.573772
label 1 -1
nr_sv 3603 5024
SV
0.01170138331899811 CTCCCATCCCCTCTGCAGAAGCGGCCTCGACCCGCGGCCACACGGTGGCGCCAGACCCTAAGCGTCGCGGAAACGCCGCTCCAGGCAAGTGATCTCATCC
0.5567747147028871 CCTCAAGCAGCACTGTCCTCGGAGCCCATTACATGCTCAGCTCCTCCCCCTGGTGGCTAGCAGTGATTCCCCATCACCCCAGCAAGACTCTGGGCAAGAG
0.4037164698903776 CCAGGTCAGAAACCTTCCAGGACGCTGAGCACCGACTGTTTGCTTCCCTGCCCACGGATGCCCCCTCGTGGCCAATCCCATCCATCTTAGAACTACGTTT
0.5593603821497303 AGCCCAGATTAAAGACTACAATGTTGCAGTGCCTTTGAGTGCTACCAGGTGGCGTGAGTGCACCACACAACTGTTCCTGAAATATTTATGATTTTTGGCA
0.4932931242321957 CAGCGGCGACTGGGCGCCCAGCGGCGTGTACTGGGATTTCTGTGAGCAGAGGCTGCCGAGAGGGGGCGCTTGGAGGGCCACCGGCGGCTTCGAAAGCTTC
0.834633356151361 AAGTGCATTATGGTCATCTGGTTTTAGAACAGAGTTCATCCTTTGCAAATGAGGAATGGAGACTCAGAACATGCTTGCCACCTGGTGTGCATGCAGCTGA
0.8127725295137742 AGGGGCGCAGGGCGCTGCGGCCCTCAGAATGCGGTGACAGCGCCGCCTCGCGTCCCTTCCCCGACCTGCCCCAGGCGGACGCGGTGACGTGTGTTGGCCT
0.02144078496174853 TATTCACCACCAGCATAAATAAAAACTCAGTTCTTTTAAATTGTCCACAAGGCGGCAGTAAAACATCTTGCTTCCCCCCAATATCTTGAATTTCCAAGTA
0.2637162067707757 TAAAAAGATGGCCAGTGAATTCATTTTGATGTAGTGTTGATTATGTCCACAAGGTGGAGACATTGAAACACTCTAACCTGAATCTTAGTGATAGCCGACT
0.5863043393706143 GGCCGGCAGCAAATGGAGAAACCCTTGGCAGCGCCCGGACGCCCTCCAGTGGCGGCTCCTGAGAACCGGGGACAGTTCAATCCGGGCCACAAACTTTTTT
0.2580873409929112 CTCTTTTGTGCCACTGGACTATCTGTCTCCTGCTCACTGTTGCCTCCTAGTGGTCCCAAGGATCAGGGCAAGGCTTTTTGAACCAGATGGGAATGTTAGG
0.6708705535344111 GCTCAGCTTTTGACGCTCAGTGTAACACCCAAGAATGACCAGGAGATGGTGTTGTGGATCAACTTTTCTCCCACATTGAGCCGTGCAGGTGGTTTTCAGA
0.321946483695284 CTCGGCCCGCCGCGGGACTGCGCTGCCGCCAGGCGCCGACAGAGGGCAGGAGCGGCCCGCGCCCAGCGGCCGAGAGCGCACGGCAGGGCTGGCAGGGGCG
0.7225774603452186 ACACTATTTTCTAACATTGGGCCAGTTTGTTTCATTTATGCGGCAATGGCGCTACCTAGTGGCTCAATGGAGAAGGGCGCAGAGGGTAAACACCAGCCCA
0.2085934639961746 CCTCTTGGAACCTCAATTTCATCATCCGTAAAATGGGAACAATAATAAAAATACCTTTTGGCCATTAGGGGGAGCTCAAGGATGACTTATACCCCAAAAG
0.8686534831326246 CGCCCTCACTTCTCTCTTCCCCCAAAAACAGGCATTGAGAGGCTCTTACTGCCCTCACGTGGCCCCTTCTGGAACTGTCTTTGAGGAGACCCGCCCAGAT
0.4269722604896776 CCATGGTGGTTTCAGTGTGTGATGAGTGAGATCATTCAGTAGAGGGCGCTGGGAGAACTGATGACTCGCACCGATCAGGAATATTGCATGCAATTTAGAT
0.2461024488009499 CTGCCATTAGATCAAAAAGGTTGCACTAAGGCCCCTGGGCGCCAGGGGGCTCTGTGGAGACTTTGGGCTTCAGGCTTTTCTGTTGGGTTCTAGACTGTTT
0.6424442796874426 TATTAATCCAGATGAGACCTGTGGGTTTTGTGCAGATCCCCACTATGGCCGGTAGGAGGCAGCATAACCTAATGCTCTGAGTCAGGATCCTGTTGCTGGA
0.7792649469639449 TCCTTCTCCTGTCTGCACTGGGTGGCCTGTTCTGTCTGTCCCTCCAGAATGCCGGCTGCCCCTCAGTCTCCCTCCAGGCTGAGATCATGACCCTGACCCC
0.6043605260580607 GAAAGCTGTCTCTGTTCCTTCAGCCTACCATGAGCTTCCCCTAGTTGGCGCTCTGTCTCCAGAAGTTTGCTATGTAACTTTAAAAAAAGAAAAAAAAATG
0.1059161242735742 CTCTGCCCTTGAGCTGGAGAGCACGTGGCATTTTAAGGTCAATATCGCCACCTAGTGAACTAAAAATCATCTCCATGAGGCGTTGTCGGTCCTTTGACAT
0.348589670038352 CAAAGCTAAGGAAGAAAATGACAACCAGAAAGCGAACACTAGGTGTCACTACCACACTCCACTCTCTGCTTAGGAGTTTACAGACTGAATTCTTGAAAAT
0.3564158026060643 ACCTGAATTGCCAAAAGGGCCCGCAGGGAAAGGAAGGAATCACCATGTTTAGGGCGCCCTCTTCTGTTCAAAGGGCTGAAGCCCGTGGAGCCAGGGCAAG
0.2856908540883447 GCCAGATCTCAGTCTGTCTTGCACTTCTGAAAGCTGCCGCCAGAGGGCAGGCCTTGACTTCACACCAAAACCACAGTAATCCCGGGGTCTGAGGGACTGC
0.4289066454311069 ATGGAGCCCCCACGGCCCTCCTCGCTGCAATTAAGCAAATGGCCAGCAGATGGCGGGGCATGCTCACAGCAGGGCCTTGCTCTCCGGACCATCTCTTTTA
0.1888170970858948 AGAGAGACCCACTTAGCTTCCCTCATCGCCTACCGTCTTAATCGCAATAGACGCCTCAACACCGCCCTCTACTGGCGCCTGTACCAAGTGCCAGGCGCTG
0.8024224552361362 GGGGGGCGCCCGGGAGGCGGCGTAGTCCGCGCCACGTTGCTGTCGCCCTCCTCCGGCTCCGCCGGGTGCAGGTGCGTGGCGAGCTCCTGCAGCACGGCCG
1 CAGTGCCAGCGCCCTGGTTCACACTTCCCCTTGAAACCGGTGCGCCCCAGAATTAGAGCGACACCTAGCCGTGATTTTAGGTAGTACATGCTAGGAAAGC
0.235194991708522 GTGCTAAACGTAATTTTATTAGAGTAGTTCAGTCGTGCTACCAGAAGAGGGTGCCATAACATAATGTTTAATTTCATGCTGTTTTAGATGAGGGCACGCA
1 AAATATGTGGTTACTTTGCTTTTGGTGCCTCACTGTGGCAAAATGGAGGACTTACACCCTTTATTTGTACACCGTGACAGCTGACTAGATCCCACACCAT
0.4895728954087092 GAAGAGACGGAAAAACCTAACTTTCTATCCTGAAAGACAGACACATGGGATTTGATGGGAAAATTCTATTTTTGTGTGGAACTGGCACCATCTTGTGGGT
0.5168609067502338 AAGTGATGTTGACAGTTGCTCAGCTCAGGTTCTGGACTGTCCAGGAGGGGGCATCAGACAACAAGAAGAGAAGTCCCTAGAAAAGACAGCTTTAATCAAA
0.5831063760658588 AGCTCACAGGTTCCTGGGGTAGGATGACGGTCACCTATCTCCCCCTGGTGTCGGCTCTTCCCATTGCAGCCCCGGGAGATAGAGGGCGATCTCCGCCTAC
0.620010534254388 GAATTTCTGTTCAATATGTATTTGACGCGAGAGCGCCGCCTGGAGATTAGCAAGACCATTAACCTTACAGACAGACAAGTCAAAATCTGGTTTCAAAATC
0.05208765743347567 TAAATTGAGGGGACTTTTTCAAGCTGGTCCTTTTGGAGTTTGCTCACAAGAGGGCAGTGCTGTTTAACAGTTGCAGCCTTCAAGTGGGCAAGGAGAAGAA
0.4769119438365869 CTCTAAAGGGCATCTTGCAAAACTCAATAGTGCCCCATTGTGGAACTGTGGGACAACTGACAGCTAATCCAGGCTTTGCTATTCTTTCTTCTGTTTTGTT
0.426844215235923 CATGCCGATGACCTCCATCGGCAAGATCCTACTAGGCCAGTAGGGGCCGCTGCAGTTCCCTGAGAAGAGCGTACCTGGGCGTATCAACCCACAGGCCCCT
1 GGCACAGTGTGAGCACTCAAGTATAATTCATAACTGGCTTTCCGTTTACAGAAGCACATCAATTAAAGAAGAATGAGTATTCCATGGCACAGTGAAACTG
0.3608773416984369 GTAAAACAGGACCAGGTGGTGAGTCTAGTTGAACTGCTCGAGCATTGGTGCTCTCTGGTGGCCAATATAGAAATTGCATTGGCAGCGGTGCAAAAGTTTT
1 ACCATGCATGAGGGACAAAGCAGCTGCCTTCTTTCCAGGCCCAGCTCCCAGACCTCCTCTGGGAAGGTCTCCAGCGCCCCCCTCCGCCCTCCCTACTCTC
0.7561466853111146 GAATGCCATTCATTACACACAGTCTCCTATAGGTGTCACTATACACCATATATTAAAAGAACTAACGCAATGCCTTTTACTCGACAAATAGATTTTTTGA
0.2526223403338139 TGCCCTAAAATTTCCACTGCAGTCCCAGACAACCTTAGACTATATCTCCACCTACTGGACACCAAGGAGGTTGACAACACTGTCTCAGTTTTTTTCTTTA
0.6899995695691761 GGCGATTCTGCTGAGTCACCGCGGGCGCCTGGTGCGCGGCGGCGGAGCCCGGGACCTTCCTTGGCTGCCCCCTAGCGAGGGCCGCAGCGCAGCCTGAGAC
0.2840711449365111 TATTAGAAAAACTGCCTACAATTCTATATAGCTACCAGCAGGGGACGCCAAAGGATCGTGGATAAGCCCGTGCGGAGCCTTAGAAGCAAGGCGAAAAATC
0.05207514297449375 GGATGGTGCTGGAATGTGAAACTCCCCTTGGAGAAATGACTGCGCCATCTTGTGGGCATTCCTGGGAGAGCAGGCTCTGATGGTGAGAGTAATTTGCAAG
0.2277765839118857 CAGACAGAGCGCCGTCTCCGTGGTCGGGCGGGGTCGCCGCCGGCCACATCGCCCTCTGCTGTTGGGGAGGAGAAGCGTCCCGCTGCGCACGGCCTCAGGG
0.3978619578425756 TGCAGTGGTTTATCCGTCAATAGCTGCAAACATCTCAAAAAGGGACCAACTGCGCCTCCTGGTGGAAAGCTGCCTCATTGCCTGTGAAGTTGCCTTGCCA
0.1969019817785036 TCCATGAGTCCATCCCTCCCCAGCCCTACAGGTGGCGCTGCAGGCTCCTCTTCCATGCAGGCCACTACCGCCTGCAAAGCAATGCAACGTGGGCCTGTGA
0.1178388337439525 TTTTTCCTAGACTTACCAACAGGGGGCGCGATCACATGTTGGGATTTTTGCATATTTTGTAGATGAGTGGTACTTGTGTAGTTTTAATTTGCATTTCTCT
1 CTTTCGGCAGGTCTATACTTTCTGCCAGCGTGGTGGCTCATTTGTCACCTGACCTCTGTCAGCACTAGTGTTTGGTTTAGCCCAGGGAAGTGACTGCAGG
0.1813864614196401 ATGGACAGAGACGTGGAAAGAGCTACAACCTCACTTAAAGCAATGCTGCCCCCATGTGGATACCAAAAATTAGAATCTGTAACTCAGTCAACAGCTCTTT
0.3795879099992463 CCCTGGGACTGGCTGCAATACTAAAGAAAACCACACGAGGGCACTAGAGCCACACTGGTGGCTTCCTGCCATCCTGGTCAGATCACAGCTTAGGAAACTG
1 CCGCACGTGGGGCGCCTCTGAGGATGCTGCGGCTGTGGTTCTGCTCTGGCTGTGGCGACATCGCGTGGCCTAATGCGGAACTGCAACTTGGTAGCGGACG
0.3309707682700312 ACAAGCATCTCTGCCCTGCGGCGCAGAGTCTCCAGGACCAGCAGATGGCGGACTTGCACAGTCCACACATTTTCCAGGTTCTCAAGGTAAATGGTACTGA
0.04347331350054126 CCTTCATTCAGCATTTTTTTTCCCCTTTTACCTGTATTTTTGGGATTTTACTCCCCCTGCTGGCCTCTGGCATGCATTAGAGTTGACTCTTTTCCAACGA
0.4422312141406212 TGCTTAAGCAATGAGAATCTGGTTCCATGCAGCTAGGGGGAGCCCAAACACAGTTGAATGTGCCCTGCTGAGCGAATGCATTTAAATTTTCTGTCCCTCA
0.2564896489156502 GCAGCGTAAATTGGTTGGAAAACGGCAGAGGGCAGTGCTGAGCTGAAGCTGGCTCTGGAAACTTGCTTCTGGCTATAAAATTGTGCCTGTTATTAGATGA
0.694868945204438 AAAACTTCTGACACAAATGTTTTAAGAATATATCACAGACGCTAGAGGGGGCACTCTCAACGGTTTCTTAAACACACACACAACAATCCAGACAAAGGTC
0.7673961737168162 CGGAGTCCTCAGCATCTCAGGAATGAGCTGCAATACCACATTGTGCCAGTAGATGACGACACCATCTAACATGTGAGGACTCCTTACCCGAAATCCCTTA
0.6779326193243577 CATGAAAGAAACCTCAGGGCTCGGAGACCAGGCTCACATCCTTTCGTGCCCTGCAGAGGGCGACCCGCTCTTGCAATCGGATTTTCTGTATTGTGAGGGA
0.03683317345770045 TAGGGCAGGATTCCGGTTAGAAAGCGCCAGTGTTAAAGGCTAAGGAGACACAGCGCCCCCTAAAGAGGGTGCGGTTTAAAAATCGCTAAATCAGTCCGAC
0.4508425170214734 GCGGCCCGGGCGCGGTTCTGGCTTCATCTGCATCGCTCTGGCGGCCCCTGCTGGGCTGGCGGTGAAAGGCGACCCGGGATGGGGCGGTGCCCCGAGCTCT
0.195019910132374 CCGTTTCTTTCTGCTCTAAAGTGTCCTCTGGAGAGGACGCTGGCGGAGCTGGTGCTCTCGTGGTGGCAGGCCACCACCCTGTGGAGGTGTCCATGCATTG
0.9892942542292265 GGTGCTTCAGTGGCTATCAGGTCAGCCAGAGGTGACTCGTTTTTGTCACCAGGGTGTGCTGTGATTCCACCAGTCTGAACTTACTGCAGCTGCTGTGAAG
0.5361228183054998 CGCTCCCCCACGCCCCGCAGCCCGCCCTCGAGGCTGATTGATTTGTGCCAGTCTCTACCGCCATCTGCCGGCAGCACTCGGTACACCCGCGCCCTGGAGG
0.003278843636118979 TGAAGCAGGTTGGCTAAATTGTCACATCTTCTGAGTAGCCACTAGGTGGTACTCATTGCTACAGCTTTTCCTCTTTTCCAATTCGGAGAATTAACATTGC
0.3419570556940357 TCAGGAAAAACAAAGAAATCTGATAAAAGAGCAATACCAGCAGAGGTCACTAGAATGCTACCAGGTTCACCTTACTCTCAAGAAATGAAGCAATTATGAA
0.2516781229552941 TCACCGGCAATGCAGTCACAGAGTTTAACCCCTAGGGGGCGGTGTGCTCCCTTGAGAACCACCAGCTTAGAAAGAAGTTTGCAAGCCGGTGGCCTGCAGA
0.9109842716297838 GGGGAAAGCGCCGTGGCCCCACGATTTTAAACGGCGGAACTGGGGTGCCTCCTGGTGGAATCAGCGGGCATCGCAACTCGCGCGGATTCTTCCCCTGCTC
0.5373078766817124 AATGCCCCAGGCCAGCAGCCATCCGCTAACAAGGACCGTGGAGAAAAGCCCATGGATGCGTGGAGAAATGGTGCCCACTAGTGGCGATCTCCAGAATGGA
0.9131189387367177 CAAACACACACGTGCACACACAGAGCGCAGTGGAGTCCTTCCCACAGCTAGGGGGTGCTAGAAGTCTTCCCAGCAGAAATTCATTGGCTGAAACCGACGG
0.3023867895839232 CATTTCGGTTTTGTTGGGAGCGGCGAGGCTCCGGGGCTGCTGAGCACATCGAGAGCGCCCCCTAGGCGCTGGCACGTGGCTCTGCAGGAGGAAGCCACCG
0.3805115642173786 ATTCCTCTCAAGTAGAGATTGGGGGTATTTGTGTAACCCATGCACCATCTAGTGGGAACAGATGGAAAATCCATCTAGAAAAATAACTTGTGATAGCCCT
0.1448968850195067 TGTGCGTGGACACAGGTGCGGCGGAGGGCACGGGCGATACTCGGGGTAGGAAAGGCCTTTCTCCGCCAGGCGGCGCCCTCTGTCCGACTGGGCGGGGCGC
0.5372568566668948 CGGCTGCCAGGCTTCCCGCGGAGGACGCGACCCCGGCGGTGCCCGAGGCTGGCGCGCCCTCTCGCGGCCACGCCGGGAACGCCGCCGGCTGAGACCCTCG
1 TAGCAGTGATGATCCTTCCTCCGGCTGTAGATGGAGCCATAACATTACTAAATACGATCCCAGCACGTGCGTTGGGGGTTTTGTGCTGTAAAAGCCAGAT
0.1916244433160705 ATAAAGCAGGAATGTCCTTAGGCTTGTGCACTTTTATAGTTCAGCCTTTCTTAGTGGGGACGTACTGCCCCCTAGGGGGAATTCTGGAAATATATGGGGG
0.1482933809954964 ACGATTTCTGGGCAGCTATGCGGTTTCGCTCGTTCCCAAAGATTGCCACTAGGCGGCACCAGTGACTTCCCCCATCACTAATCAAGTGGCCAAATTAGCA
0.08120680015138884 TATTTAATTACTCATTACATCACTGTTTTCCCTCTGAGATCCAGCTACAAAAATTATCACTAGAGGGCAGGAGAGGTCTCTTTAGCAAGAAACATGCGTC
1 GAAATTAATTTGACAACTCATAGAGTTTCGTCCTGGGAGGGAGCGAGTAGTGCGGTGCTGCACTCTATGGGCTGCTGCAGAAACATACAGGATGCATTTT
0.645976711569513 GTAATCCTCCAGGGTACTCATTTTACACAAAAACAAATTGCAGTTTTCATTTGCATCACTGGGTGGCGATTTTTCATAGCCTTATACTACTATTTAAAAA
0.4874177473123779 TTACCCGCACCCCGACCCTGGGCTGCAGGGTGGACGTCTGACGCCCTCTGCCGGGCAATCGCCTCGGCGCCGGCCGCTCCGGGCGCAGGTTGGCCCGAAA
0.1499496446764988 CCTGGGACCACTGAGAACCCAGCAGGTCTGATCTTGTCCCTCTGACGCCCTCTCCTGGTGGTCACAGTCAGCACGCATTTCCAGCCTGAGCTGGAAATTC
0.8195529878657967 GCCCGTTCCCTGGGAGCCACTGGAGGGCGCATGGCACACGGCGCCCGGCCAGGGCCTGACTGTGACTGGAGCAAGAGCCGAGGGACTGGACGGACGGCAG
0.4292960292853348 TTTTTCTAGCATAGCATGCAAGACTGATTAGTCTTAATTTTTCACGTTGGGATTTAGCACACTCTAGTGGACAGTAGCTTTTCAGTTTTCACAGTTTTTA
0.09011501815308404 GGTTAAATCATCTGCAATGTACAGTTAAGAAATGTGCTTTTACTGCCCTCAAGTGGTTTTAAAATTGTCACTGCAACATTTCTGACGACTTCAAAGTGAA
1 CGCCAGCGTCGCCACTTCCGCCCGCACGGCGCCCTCGTAGCCGAGCGCTCAGCGCCGCCCGCCGGCCGAGCGCCTAAACTGCCGGGCGCGCCGCCCCGCC
0.9084655261479432 CATTATTTGCCTAATACTTCCGCTTCCTGACCAGAAGAGGTCGGTGTTGCGTCGCTTAAGAAAAAGCAAAGCCTTTCTGATAAATTGTTTTGGGGTTTTT
0.09081841088170281 AGGTTTTCTCTCCAGACAGATTCCAGTTGCCCACGAGAGGGCGCTGCAGAATCACGGATCTCAAGCGGGTTTGTTTCCCAGGAAGTGAGACTGGTCCGTG
1 ATTTCTCGTCTAAGGTCACACAGCACAACATATTCAGTGGCACACTGACTAACACGACACAATACTGCCCCTACAGGCAGAGCCGGGCTAGAGCAGAGCA
0.6142098415007862 TATTTCCTCCAAACACCGTAGAAACTTAAAGGCCGCAAAAGACTCACACCCACCACCTAGCGGCGAAAAAAGGAAGTTTCAGGTGATACAAGATGTCCTG
0.7976698163670728 TTTTTAAAAATGCTGTTATATTAGTACATTGGTCTGGAGGGGGAGCTAGTGCCAAAGCAAAGTATAGCTTAATAGCTGTTTGAACTTTTAAAACACCCAA
0.2345529040019201 TGCAGTATTAACATCCTTAACAGTAATATGGCAAAAGGCCACAAGATGGTGATGGTATACCCTAAAGAGATCTCAATCATATGTAAAATGAGGTACACAC
0.2852493868220043 CCTGCCAGCCCAAGTTGTTTTGTCAGGACAGACAGGTCTGGCATTTCAACACCAGAGGGAGCTAGTGGTCAAGTTATGTAGACAAGTTAGTTGCCCTTCT
0.7871018835305429 ACTGTGCAGGGAGCTGAGCGACCACATGAGGGCAGTGGAGACTCGATCAGGACCGCATAGGATTTGGCCTTAGGATGGGGGTGGGATGTGAGAAAATGGG
1 AGCGAGACGCGAGAGAGCGAGGGTCCAAGAAGGGGAGATAGGGAGACGCGGGCGGAGAGACCGACCCGAGGCGGGGGCGCGGGGCAGGGGCGGCGCGAGG
0.2638975610495878 AACCAGGCCAGCCCCAGGGAACCCCAAAGGCAAGTAGCACTACTGAATATCACCACCAGGGGGAACACTTTCATATGCAAATACACCCAGGCCCCTAGCA
0.01356800974491107 GGACTTTATGCCCTGCCCAGGCCTAATTGCTAAGTTAACTGCTTGTACAGATCTCCCTCTGGTGGACATATGAAGACATTACAGAATTTTATTTTATTTT
0.5933208499987686 ATTAAAAAACAAATGGTGAACAGAGTGTGATACCAGACTATGTCCAACAGGTGGCTGTATTTCTCAAAGTTTCAAAACCAGCCCAATTGCCTGTTGCATG
0.4943788526280096 GGCCCGACATCCAAAACATTGACTAGTGTGCCCCCGTGTGGCTCTGGTGGAAGGGTTTGGAAAATGCAGCCAGGTTTTCCTAACCTTACCCACCAAGGCC
0.6004098844102134 GCTGAAGCGCAGCGATTCCCGCCGCCGTGAGGGGGCGCTCTGCGGGCCTCGGCCTCGGCCCTTCCGGACGCCCGCACAGGTCGCCGGACCCAGAGAGTCG
0.2300170673698188 CCAGAGTTACCCTTGCCGCCGGACTCAGGAAGGGTGAGCAGGGCAGTGAGTTGTGCTTTGCTGTCACCTAGTGGTGGTAGCAGGTAATATTCTAACTTAA
0.05012334127003527 TCAAGTTGAGACGATGAGAATTGCTGTAATAGATAAGGGGATCCTGACATCTAGTGGACAACATTATATACTGTCGACAGAAAAAACAGCCCATGACAAG
1 TATAAGAGGCCAGGAAACAACTTTGGAGAGAACATGGGAAGTTAGGCAATGGAGAATGTAAACTGGGTAGTTCCGAATAGGGCAACTGTAAAATTCTGTT
1 GGGTGTTTTCACCGCCGACCGCGAGCTTCCTACCGTTCATCCATCCGCCGCAGGAAGGGGGCGCACGCGTCACTCGCTTCTCTCCAATCCGGCTACATCC
0.7116355146186066 GGACGGTAGAGGGCAGTGACAATCAGGGATGTGAACTGGCCAGCTCTTTTTTGAATTTGTGAGGCGAAACTTTGCCAGCAGTAGGCAGACTTGTTATGGA
0.7329415568651038 TACATTCCATTAGTTTTGTAACTTTCATGAAGGAATGCCTATTGTCCTGTTGGTGGCAGTAAAACACCACTCCTGGATCATTTGTTACTTGAATATTTCA
0.6980204730205453 CCATCTCGCGGAGCCAAAGCCTTCGCCCCACCAAGACCGAGAGCTCCCTCAACTGGCTGCAAGGTGAAGTCCTCTTGCCACCACCCAGAGGGCAGGGATC
0.04852355216962062 ACTCATTAACAGAAGTACCTGGGGAGTCAGAACCCCTCGCCTGAGTGCTGGGAACGGCTGATGCGCGCCCCCTGCCGGCTGTTCCGAAAACAATCAAATA
0.5348383749658332 CAGGTAATTTAAAAAACATTCAGAAGTTTGCTTAACAGGTTTTGGCCTTTTTCTTTTGAGACTCTGCCCCCTACAGGAGATCAGGAAATAAAGTATTCTT
0.9475494586534833 TAACTGGATAATCAGACAGATGAGCTTTGCAAACGCTAGAGGGGGCGAGAGCAGCCAAAATGAAGCATCAGCCTGCCAAAGCTAGGATGCCATTTGGTTT
0.4915041594501626 CAGCAGCAAAAGGAAGTAGAAGACAGTGAGTCAGATAGTGACCAGTACAGGACGCTAGGTGGTGCCATTAGTCTTAGACTGCTTATTTGAAGTCTCTGGA
0.1537245229582904 CGCAGGGAAATTCGAGTGGTGGGCTTGGGCCCGTCGTTCTGGTAGCTTCCCAGTAGAGGGCGCCGTAAGCATATGCGTCTTCAGCCTGACTGGGCTGGAG
0.5096202471683806 TGGGGTGCCACGCCCGAACTGGCCACCAGGTGATGCCGCTCACCAACCTGGGCTTGGGCGCACCTTGGCTTCAAGTTCCCTCTGATCTGCAGGGAGGAGC
0.3667575452548379 TTTTTTTTCTTTCCCTGAGGAAATTCAGCATGGACCTGTCTCCCTCTTGTGGAATTAATTTTGCCTCTTGGTTGTACAGTGTTTAGTAAAATAAGAGGAA
1 GGACTCGAGGAATGCGCTGTACCGACAGGAGGCAGCACCCCTTTGCCCGAGGGGCGCAACGACAGAGACCTAAGGCTACCTGGGCCGGAGCCGGGTGAGG
0.385526048098702 CCTTTAAATATTTTTTTCCCGGGCTAGCTAGCACTGAAATCTTGCCAGTAGAGGGTGATAGAGAGACACGGGAGAAGGAGAAGAGGTTGACTTGCCTCTG
0.226713112066575 CATTGGAAAAGCTGGCTGGTGACATTGTGCAAGCCTCCCAGCAGGTGGCGCCCTGAACCAATGAATGTGAAAAAGAACGGACTCAGACACACCCACATTT
0.6088958126901535 CAGCTTGCAGGGTCGGCCCCAGTAACCTGCTCTGGCCAGTAGAGGGAATCAGAGGGCCGAGGGACCAAGCCGGTAGCACAAGCAGTCCCCACCCTAGCTG
0.3274288164580753 TTTTATAAAGGGTCTATTTTATGTGCGTGGTTCCCTTCCACCCCTAGGTGGCAGGAGAAAGCAGAAGAACCTGCATGAAAGTAAAGCAAACGTCCTGCAG
0.2190254032459551 AGTAGGGGCTGAAAAACATGGAACTCACTTCTTTTTGAGACGGAAGCTGAGCGCCATCTCGTGGTGACAGGCCTCTATGACTCTCCTAGCATTGTAACTC
0.5969535711737113 GCCATTACAGTTGAACATCTTGATGTCTTCCACCAAATTTTGCTCAGTGTTCTTGGGAGCCCTCTATTGGCCTTCTGGGTAATAGCAGGCAGCCTCTGCT
0.3504395709877435 ACGTCCTACCTTCGGGCGAGCCTTGAGTGCCCCCTGGCCGCCGGGCCAGGAAGCTGTGAGCCAGCAGCGCCTCCTTGGTGTGCTCGTCCTGCGCGCGCAG
1 GTTAATGCAAAATTGGTTGGACAGGTTTTGGTTGGAGGCCTGAGTGATTGCCTCCGGAGCACCACCTTCTGGGGAGTCATGGGTATGACATGGTGTGAAT
1 AAAAAAAGAAAAGAAAAGAAAAGCAGCAGCTACTCTTGCACCTTTCCCCCAGTACGCTGGAGCCACCAACAGGTAACTGCCTAGAAGACAAGGGATCCAG
0.751459924108105 TCCTTGTTGATGCTGGAGCTTGAGGAGCTATCCCTATGCTCTGCTGCCACCTTGGAAACTCAGAAGGATTTACAACGGAGTTCTGCACAGGGGAAGCTGG
0.6026563018159945 AGCCTACAGAGAGCTAAGATCAGGAAATACTGGCTACATGCTTTGTTCTCTAGGGGGAGCTCAAGGCTTTCTCCTTTGATATCTGAATGGAATCAGTACT
0.284172784306373 AAATCTTAACACAGTCAATGAGTTTCAAGGCAAAAGGGAACAGTAGAGGGAGCTTTATACTCATGTAGCTAAATGGCTGTATATCAGCAGCACACAGTGC
0.2595059311038177 AGAATATTCCATAAACTTAGTTGATAAATTAGTGGGATTCTTCCATTTCTCCACCAGGTGACAGCATAAGCACGTCAAAATAGCAAAAATTGTCTCAGAA
0.8364770541414986 GTTTCTTCTGGGTTAGTTGTTGGTGCTGGAGGCTGCGTGTACATGACTTAGTCTTCTACTGCCACCATGAGGGAGATGCTGGAATTGCAAGGCTCTTTTA
0.4957655402216758 AAGGTTTTACGTTGGACCCGCCTTACCGTGGACAGACACTAGAGGGTGCTCCTCGCTCAGAAAGCCGAGTGTTTCCAGGCCCGGGACCTCTGCCAGGAAG
0.4310862461910241 TGACGGCCCGGGCTGGGGCAGGAGTTTGGCGCCCACTCACTGCAGTGAAATGCTGTCACCTGCTGGCCGTGCCTCAGAACTGCAGGAGCCCTGGTGCGGG
0.2460873390786504 GGAGTATGTGAACTATGCAAGTCACACCTTTGACTCTAGGTGGCGCTCACCTTCAGTATGTTGGGAGAAACGCATATACACAGCTTAACTTCTGTGATGC
0.2482966216817462 TCTTTATATTACTGGCCAGGCTTTGCTAAGCTGTCAAATACTGCCCTCAGGTGGCATTAATGGCTCAATGCAAGATGCATTATACAGCGTTGTTAATCAT
0.3817618015893574 TTAATAGGGAAAATATGCTTTGAAAAAAAAAACCCAGGATTTAAAAAAAGTCTATTTCTCGCCACAATGTTGCCACCTTGCGACAGATTTTAAGCATTAC
0.3940961253468798 TGGTGACAAACTTTAAAACTCTATTGACTTGTATCTCTTGATGTCATTCTATTCCCCTCTAGTGGAATTAAAAGGTATCTGTCTTTCTACTCCAGCTTGG
0.7676509937489948 AGCTGTCAGGTTTCCCGGCTCACGTTTCCCTGGATGAGCAGAGAGGCAGCGTCCTCTGCTGGAAGCTTTAGGTAACTCCACTTTAGCGGCAATTGTCAGT
1 GAAAGTGGATGACTCTCATGGTGCAAGTGCAGTCTATGTCCGAAAGAGGGAGTAGTGAAATCACAGATAGCATCATGGTTTTTCTGACTTTTTGCTTCTG
0.06059718262000654 CCAGCCTCTCACCAGAAGAGATTGCTCATTGGAACGCAATGCCACCTGGTGGGGGACGAGGACAGTGCGAGCAAGCAGATGTTATTTCCTACTGACCTAA
0.0431920054233276 AGTTCCACAATACGACCAGCAGGTGGAAGCAGAGACCGCCCTTTCGGTAGCATGGTTGCCCTCACTTTGCAAAAACTTTGTTTTCCCCAGCATTGTAACT
0.981517189527378 AAGCTTCTACCTTTAACAGGGGCATGGGTGCAGTTCCAGCCTCTGCCAGCAGGCTGGGCCCTGTGCCCACTTTTGAAAGACCTTCAGGGCTGTGGGGCAT
0.7069538673781871 AAGCATCCGCCGCCGCTCCCAGTTGCACCGAATTGCGTCACCAGCGCCCCGGGACGCGCGGGCCCCGCCGGCAGGGGGCGGAATGGGGCAGGGGCAGCTC
0.6110814558913158 CTGTCTGTGCCCAGGGCTGCACCTGACTTTGGTTATCTAGCACCACCTACAGGATATATTGAGAACAACATGCCACATGGCTTCAAGCCCCAGATTCCAG
0.2048949048211731 GCTCTCATTTTTCCAGCGGGATGCAGAGAAAGTAGTTCTTGTCTGTCACCTAGTGGACAAAAATGGATTTGCGCCTTGCCACTATGCTCTGGTAGCTAAA
0.9044317111709101 CTCTGGGTGCTGGCAAGCGGAAGGGAGGAAAGGTAACACTAACATGGCGCCACCGTGTGTTCAAAAGGGAGCAGAGCTGGGTCTCTCCCCAGCAAGGCAG
0.3402077973572131 GCTCTCTGAGGAGGGACATTTGAGTGGAGCTCCAATAGAGGGCACTGTAGGCCACCATAAGGAGCTTGAACGTTATTCTGAGGGCGTCGGAAAGCCACTG
0.8956899814893934 TAACATCTGATTGGACAGCAAAAAACTAGACTCCTCCATTTCTGGAAACTATCTTGCCTGCAGAGGGCACACGTTCCCTGGCAAAGGGAGAAAGTGACTG
1 CTGGGTCTGCCCCAGTCTTTTCTCCAGAGCAGCTCTCTTTTGCCCCCACCTGGCTCATGACAGTCACTGCACCAGCCCTGTACTGCACGCCCTCTAACTT
0.08260012503813099 TAACCACCCTGCCTCCACCCTGCCCTCTACTGTGGGAAAGAGAAGGGAAGTCTCATTCTTTATAATGGGAGATTAGTGTAAGAGTGCCCCCTACTTTGAA
0.4201790597260694 TGGTAGTTCACCATTTTTACAGTAGATGGCGATGCATTCCTTCTAATGACATAATATCTTTGCAAAACTGGATTTTTCAGCCTGAAAATCGGCATGGAAT
0.1685937424859855 CTCAGTATTTCTACGAATTTGCGCAACATGGGAGGTCATCGCCTGGACACCACTGCCCCCTTGCGGCAACTCATCTAAATTTGTAGGTGGTGACAAGGAA
0.6486368002556425 CGAAGTGCATTCCCCACCGGGCTGTTGCAGTTCCACACATGGCCAGTAGATGACAGGTTTGTTCAAGAACCGCCTCCAAGATTTTACTACTGCACCGCGA
0.1893387358408732 TCCCCCTGGATGTGGGACTCAGGAGGAGCCTCCCCAGCACAAGGGCTGGGACATCAGTGCCCTCTGGCGGCTGAAGCCTTGAGTCCCAGAGTCAGGAGAA
0.469078306708397 CTCCTCCCACCCCGAGGGGATCGCGCTCGCGCCGCGCCACTCGCGCGGCCACCGCTAGAGGGAGCCGGGAGCGTCTCCGAAGTCTCCCGCTTGCGGCTTC
0.3896217721304825 TGTGGAATTGGGGGCCCCTCCCTTCCTCCAGGCCTCCTGGCGATGGAGTAAGCAGCAGGCGCCCCCTTGTGCCAAGGAAAGAGTACTGTTGCCATTGGCC
0.2812196526395062 CCTCAGCCTGGGCCTCTGCTCAGCCAAGGAAAGGCATTTGGCTCCCTCTAGAGGCTGAATGTGGCAATAGCCCACTGATTTCTGGTTTCTGAACATGCAC
0.466622213954741 TTTGCGATATCCTTCCTTTCAGTGCTAGAGTATTCAGCAATATACTGTGTTTGCCACCAGAAGGTGCTACAGGGAAATAAAACCAGCCTGTTTGAATGCT
0.3242858699158139 GGCTACACACACAGGATTAGCCAGCGACCTAATCCGCCAAGCTATGCAAAAGGAGGCCTCTGCTGACCCCTGGCGGTCACCAGCCGGAGTCTGGCTGCGC
0.4137846914164015 CCGGGCGTCCGCCGCCAGCTCCCGCGCCCGCGTTTCTTCCAGGTCTACGGAAGCAGTGCCATCGTGTGGCGGCATCTTGCGTTAGACCTGTTTTTAGTTC
0.5521466206293206 TCAGCAAGTCTGAGTAATGCCTGTCAGAGCCACTGGGTGGCACTGGCAGGCTGAGATGTGGGCAAGAGGGAGGAAGAAAGAAAGGAAAGGAGGCCAGGAG
0.4586462932316158 ACAGCTAATTGCTCCTCTAAGAGAGTGCAAAGAACATCCATTTGGTTCTTAGACCGATACTGCCACCCAATGGCCCACTCCTGGAAGGACACCAAGGTCT
1 AGGTCAGCAGGCCGCTCGCCACGGGTCTGCGAGCGGACACTGCCACCCTCCGGCCGCGCGCGGGACTGCACCGGCCCCACCGCCCGGCTCTCCCGCCCGC
0.7324332484020504 CAGCTGTTTGTAATGGGAGAGATTCAGTGACTCTTATCGGGCACTAGATGGCGATCAGGCATCAATAAGGCCCAACAACCGCCTCGGACCTGGGACCTGG
0.4463006620020938 GCCAACTCTACTTTGTAAGCCATAGGGTGCCAGGTAGCCCGGCCACCCTGAGCCTGTGCCTCCACTGCCCCCGCGTGGCCAGTCAGGTGCAGCTGCTCCC
0.2856316840739988 CGCGATCTTGTTGGGTGTGTTTCTCCTAGAGGCTCTGAAAGGTGAGGACTTTGATACTATAATGCCACCTAGTGATTCTTGTTATTACAACAACACAGGG
0.3912721297547498 ATGGCCAGCACACACTGCTACTGCCAGACCAGCAGGGGGAGGCCTCAGAACATGGTGCTGGCCACTTCACACCTTGGGCTGATCTCATGGGCTCAGGATT
1 GGTTAAAGCCACTGCGGGGCCATTTCCCTTCCCGGCCCCGAGAGGGCGCAGGAGCTCTCAGGGGCTTAAAGGACCGGGCCTGGGGGCGGGTTATGGGGGC
0.1741878881797114 TGTGAAAACTTACTTCTTTCCGCTTTCTCGAAGCGCTCCAGGACGCAGGTGGCACGCTCAACGCGGGGAGGCGCCACCTACAGGACAGAGGAAGACCTGC
0.5180304247067272 TTCTTGCCAGACACTTGCTGAGGACAGGACTTAAAACCACAGTGCTTGGCCAGTAGATGGCGCGCCCCGCCCTCAGTGTGCATGACTTATGAATGAATAT
0.6806248017300857 GGACCCTGAGCCCCAGGCGCCGTCCGCGTAGACCCCGCGCCGCGCACCGCGGCCGGCGGGGGGCGCTCGGGTCGCACCGAGAGCAGCGCGGGCAGCCAGC
0.179068109235773 TCAGGATCTTGGTGTTTATTCCTGATTGTTTTGTGTGACACCTAGTGGTAAGAGTAAGGCACAGGCGTTCCTTGATTTGTCATAGTGCCTTTTGCAAAAA
0.3980152257091687 CCAGGTTTAGATGTTTCTCTTCTGTATTCCTATAGCGCCCCCTACCAGTCACCACACTGGTTTGTGAAAGGCTGTGAGTTTGTTCTTTTTATTGTGAGTT
0.02911447143233219 AGGCTTCAGGGACAATATCCAGGAGAGTCCCAACAGTGACATCTAGAGGACAGTCTCTCCCCTCTGGATAAAATTTGGATTCAAAGTGAGTCCTTAACCT
0.6818915043613805 AATTTTCAGTCCCATGACAGGTATATATGTAAGCTCTGCCTCTCTCTGGCCACTTAGGTGCATTGCCATTTTATTATCTATAGACTGCCCTCTGAAGGTC
0.2714617665057472 ATCTGGAAAACCTCCACCACTAATCTGTTCAATCAATCTCTCCAGTAGAGGGCATGGTAGGTTCAACACAGAAAATGTATGGTTAGGTTATCAGCCACTC
0.4280880963839854 CCCACCTTCCCTCAGCTTCCCTGGTCTTTGTTCCGATTTTAGGCCAGGGTGGGAAGATAAGGAGGACGACTGCGCCATCTGCTGGGCATCTTGGGCAAGC
1 TCCCTTCGCAGAGCCACAGGAAAAGAGGAAAGTCGGCTTCGACTGCCATCTTTTGGGGATTTCGAAAAACGACTCGGTAGGAAACGGAGGGAGGCGGAGG
0.7000730474655923 GGGAGATTGGGGCGGAGCGCTGCGAGGGGCCAGGAGCTGTCGCCCCGCTCCAGAGCGCGGGGGGCGCTGTGCGGGGCCCAGGCTGCGGCTCCGCTCCCGG
0.999582941741503 AAGGAACTGGGGCTCCTAGCCTGACTCACAACTCTTGGAAGCTGCTGACCCCTAGTGTCTGAGGAAAGCATCGGCTCTAGAATCCAGAGGCATGGGTTTA
0.7651257730671854 GAAATCCAAACCTCAGCTCAGGTTAACATCTATACAGGCACTCCCTCTTGTGGTACAAAGGGAAACTGCCTGTTTACTCCAGCGCTCAAGCCCAAGAAGT
1 AGGCTTGTTAACTCAATCTCCCTCCTTACGCAGGGGCTGTGGTTGAGCTTGGGAGCCCCTGAGTGGCTAAAAGCTGGAATTGCAGTTGTGCTGGGGGAGG
0.7777682644364106 CTGAAGAGAAAAGACCAAGGGTGTCAACCTCCTCTCCTTGTCCCTGGCTGCTCTCTAGTGGCAATACCAGAAAACAACGCTCAGCCCAGAGACAGCAGAG
0.0898211701382448 TAGGTACACTCAAGGTCACTGCTGCAGTGTAACCCCAGTACCGCTAGAGGGCAGGGCACACACAGACTTGCAGACAGAAAAAGTAGTACCTGCTCAATCT
0.1736827749539406 TTAGAAACCTTAATCTCGGTCTTCGTTGTGTCTGGTGAATACATGAGTGACCAGCAGGTGGTGCCAGAGACAGTTGGTAGCCAGGGAATGCCCTAACTGT
0.09501011366287414 GACTCCCGCTACAGACGTCAGGGGGCGCCAGAGGCCGGAGCACCGGGTCCCCGGTCCCGGAGCCCCAGTTTTCCCAGCCGAAACCGAGACTGAGACCACG
0.1611719671845118 CCAGTGTGTGAGGGGCGCGCGATTTTTTGAGATGTGAGAGGGAATTGTGCTTCACGGTCACCACCAGGTGTCGCGACATCAGGTGCCGCGCCGTCCCGCT
1 AAAGTAGTGTCTGGGCGTCCTCATTACAATCTTCCTTCCTACCACTAGTCTATGCTGTTGCACTAAGTACTGAATGCTTGTTCAGTGTCCATAGGAATGT
0.3339913353245044 CCCCAGGCCCACCAGCGTGTGAGCGGCAGGTGCTGTTCGCCATCAGCCGCTAGATGGAGCCGGCGCCTCGCCGAATGCGCCGGGATCCGTCGCGTGGATG
0.2935237211895115 TCTCCTCTTTCTTCCTCTCAGTGCCTGGACGCAGCGCCCTCTTGCGACAGGGAGGAAATAATGCGTCGAGGGGGCATCCTCGGCCACCGCCCTGGTCCTC
0.1448800425376521 CCCGGGCGCCCCTTTGGCGCTGAGCTTTTCGTGCGGGGCGCGCATCCCTCTCCACTCCGGCTCTCTGGCGCCATCTTGTGTAGCTTTCTTAAACAGCCAC
0.8691162796290661 CTGCGGGGAGGGGAGGAGGGACTCGGCTGTGTGCCGCCCGGGAGCGGCTCCCGTCCGCTAGGTGGCAGCCGGAGCCAGCGATTCCTGCAAGCCCCGCCGC
1 GGCGGGACCCTGCACTACCAAGCGCGGCCACTGAGCGGCACTCACACCCGGCGGCGCGCGCTGGTTCTCCCGCTCCGGCCGCGGGACTGGTGCGCACCTG
1 CGCGCCCGGAGAGGCGCGCGGGAATGCGGGAGCCGCGGGCGCAGAGGCCGCCGCTAGGGTGCAGCTGTGGGCTGACGTGGGAGCCAGGCCTGGGGTGGAG
0.8550188006975563 TAAAGCAAGAAAGGTTTTAAAATAAAGGGCATGGGGGTAGGACGCCACCTTTTGGTGATAAAACAAATAGAAATCCCTTCTGAAAACAGATGTTCCTGAC
1 ACCTCGACTTTCAATAACAGTGGCCGCTAGGTGATGCCCGAAGACAACCGATGCCTGCAAATGTCAGTCAGCACGGAAAAGAATGTATGTATGTATGTAT
0.6220699388256529 GCGGGCGGCGCTGGGGCGTTTCCAGGCAGCGCGCGCCTCCTGCCGGCGCGCGGGGAACGCGCAGCCTGCGGTGCTCCCGGGAGCCCCCAGGAAGTCCTGG
0.4724920493207085 TTTTGAGCTACACAAGCATAGCCTTTGTATATGGCCTGCTGGTACACTCTTTCACCACTAGGGGATGTTCCAACATTAGTAAGGAGAAAAGGCTGAGTTA
0.6471700394399676 TCTCACTAGATGTCAGTCAAGAGCAAGCTACTTCATACCCTTTGTATAAGGGCACTGTAAATTGTATTAGGTTACACAGAACTTCAGTTGCTGAAGAAAA
0.1149495630951895 TTCTTTTCCAGCTAACACAATGCTCAGCTTTGTCAGTAGAGGGAGCTAGCGGGACACTGTAGGAGGCAGGGGTTTAGGAGTTTCTCTCCTTGGTTCTTGT
0.1580767813787772 GTTGAGATTCCAAGTGCAATCCACTGCGGCTCCTCGCTCGCCCTCCAGGTGGCAGCACAACCCTGCGCTTCCGAAGCCCGTTTTCTGAGCCAGACACTCT
0.1128277618130047 GGTCAACCCCCAAGAACTACCAGTACTGACTGGCTCTGACCAACAGATGGCACCAGAGAGCCAGGTGGCTGTCCCAAGGGTGCATCTTCACTGAGCCTGC
0.7126790019526388 AGGTGTCAGAGCTGGATTGAAATTCAAATCTGATTCCAGAGCCAACGCTATTTGCCACTAAGCTCTACTGCCTCCCTGTGGCGGTTTTCCAGTCAGGAGG
0.2236423155589077 GAAGATGTTTTCAGCTGACTGATGCTCTCTCTAGGTTGTGCAATGGTACCATCTTGTGGCTAACAAAAGATAATCCACAGACACATGGCTTTATAATGTG
0.6747337293743697 AAACCGAGACTCAAAGCACAGGCTGGCGGGAAGTGCGCGGCGCCGCGACTCCGGGCCGCTGGGCGGCGCTGTGGGCCTGGCGGCGGAGTGGAAACTCTAG
0.3338124720967133 TGCAATTTCCATATTAAATTTTTTTCACTGCCTTATTTTTGGCACTAGGTGGAGCCTTAAACCCAGGTTTCCCTTGGCCTTAGTAAACAAAGCAATGCCC
0.1666491253205795 CTTCTCTGGCTGACGGATTGAGGCTGCAGTATTTCAATTTGCCAGCAGGTGTCACCCCAGCTAACACGATTCAGAGAAGCCTAAAAATGTGAGGTTCTTT
0.6886481627623291 CGGCCCAGGGAGCTGACAAGACTGGTGCACTCTCAGTGGCTGACAAGTACACAGTGACACCTACTTGCCACTAAGAGGTTCTTTCCTTTGCTGTCTTCCT
1 CTTGCAAGAAATTGCGCATAGGGCTCCTGTGACCCTTGCATGATATGTAAGAAGGATTGTGCTGGGACTCCCTCTTCAGGAATTGTGGCCCAGGTGCATT
0.3703704746940661 ACAGGGGCGGGGAACGCCCGCTCTTCCCGAAGTGCCCGCTAGATGGCGCCAGATCTCCGTGCTGCAGGGGAAGGACCCGCCTCGGCGGGGCAGGTACACG
0.5341670509123981 GCCGATCTCTGCACAGCCGCTGTTCCTGCTCTTGGCCACTTGGTGTCACTGTCGAGTCTAAAACTGCGCAGCCCCACGGACACTGATCATTCTGGCGCTG
0.0005420072844625486 GAATCCAGGGATACGGAACCCCCAGATACAGAGGGCCGACTGTACTTGGATTTCTAGAGGTTACTTTTTGGTAAAGGGTGCCCTCTAGTGAGCCTGTTCT
0.05812123756489401 TTTCTAAAATGTGGGTAACAGTAAACTAGTGTGAGTGTGTATTTCCCAGATCTGACCACTAGAGAGCACAGAAGCACCAGCACCTTCTAACCGTGGGCCT
0.4141809505145198 AACCTATTACAACAGGGTGTAATAATATAGACGAACACTAGAGGGAAGCATGCAATTGCAATGAAGAAAATCGGCATCAGCACACTTGAAATTCAGACAA
1 CTCACCGCCCGATGACAGCACGAGGTGGAAAGGGCAGCGACAATGCTCGCGCGTCCCCTCCCGGCGATCCGGAGCACGGCAGCCCCGGAGCGCGCGGCCA
0.2672067435209429 AGGGAGAAAAATGATCACCCATAATCCCACCACTAGGAGGCATACTTTCTTTGGTATTTTTTCCTATACTTTTCTTGAGTCACTAACAAGTGAACAAAAA
0.5746075451786289 AGGTGGCTATCAAATCCCGGGCACCCTGGCTTTCCCGCTGACATGATGACACCTACTGGTCTTAGCAAAAACAGCAACTTCTTGATTCCACTACCTAAGA
1 CTGTTGTAACTTAGTCACAGATGATGAAAACCCTCACAGCTTTGAATGGGAACAAGGAACAAGGGCTCCCCCTCCTGGAAAATCTCTGGGCCAGTCTACT
1 TAGTTACCATGTCCCTCACTAACACAAGATCGCCGTCTAGGGGCCAATCGTAGAACTACAGGCTACACAGAGGAGAAGGGAGCCAGGCCACCTTTCCCAT
0.194844779186632 TATGTGGCTGACTCCTGCCCAGTGAGCCTGTTTGCTGTGATTTACCAGCAGGTGTCACTATTGAGACACAGTTGCTAACTGGCTGTTCTCAGTGCAGGGA
0.6227598851085847 TGTTGGTGCAAATTGTAATACTCTATTCTTATCCATAGGTGGCAGCAAGCCCCTAAAATTAGGGGGAAAATGGGCTGTGCATAGATAGGAGGATATCTAT
0.09618035452025521 TGGCTGGTGGCCTCCTCCACAGGGACCATTCTCAACTGTGGGGCAGGAGTGGCCTCTAGTGGTCATGGGGATCACAGCCATCATCACCCCAGCTCGCAGG
0.5260285435059485 ACCTCTCGCGCCCGGGCGGGCGGCCTCGTCTCTGCACCCCTAGGCGGCGCTGCGCTCCTCAACACCCGGCCGGCTCCGCTTTCCCAGACGGCTGCCCAGC
0.5495159958173262 ACTGTGAACAGTTTTCTTGTTTGCCGGCTGGCCCTGTTAGGCTCTGCCAGTAGGTGGTGCTAGAGAGAGAGAGAGAGACTGCCAGGCTGGAGCTGGGAGA
1 TGTCCCACCCTTTCCAGCTTCCCGCAGCCAAGCCAGGCTCTGGGGTGATCATTCCCATAGCAACCACCAGGGGTCAGGGCTGGCCACTTCTGCCTTCTTC
0.4419864175202145 AGCTCCTGCACTCCCTGTGTGTCAGTGGCACACTCTGGCCTCTAGAGGGATCTCCAAGAACGAGGAAGAGAAGGAGGCTCCACACGGTCACAGAATGGGG
1 TTGTAGTGTAATGGCCCTGTTCCTCCACTGTAGGGCGCCAAGGTACTGCTTCCTATCTGGGAAGAGTTTTCTGAATGTTACTGCTTTCCCCTTAACTGTC
0.7323950735202723 TCCGGCTCCGCTCGCCAGGTGCCGCCAGACTCGCGCGGGGCTCAGGCTCTCCACCGGGGGGCGCCTCTCGCCTCCCCTGCGCCGCGCGGCGTCCGGGGAG
0.03250346349188166 CAGCTTGGGGAAAGGAAGATGAAGGACAAATGGAGATTTTAGGCCCTCTGGTGGCAGAGAAATGAACCTTGAAAGCAGGCTGAAATGATGGCATCCTGGT
0.1207326528039188 AACTGAGCAGTGCCCCTAACATTTCCGTACGTTGCTCGGGGTCAGGCTAGACTCTGCTGCCCCCGTGTGTTCCAGCGCAGAACTGCATAAAGAAAGAGGA
0.5671072852518779 CTGCGGTTTTCAAAGAAATATGGTCTTGCAGTCCAGAGACAGGAGGTGGCGCTCTTTCTCCTGAAACAGATTGATGTCTGCAGCTTGGCTTGCAGACTGT
0.7434104994723911 TTTTCTGGGTCCATTGCAGTATAGTTAGATGCAGTAGGTGTCGCTTTTTCCCCAAGAATAGCCTGTTGCTAATGCTGGTGGAAGTCCCTTCTGAGCTGTG
0.8638487152154963 TTAATTTATTCAAAGCCAGCTGGTGTTGTTCCCAGTATAACCTCTAGGAGGAAACCTCAACCCATGTTGTGTCTAAAATAATCGGGTTTTCGTTCTCTCT
0.9729183640325304 AAAAAGGCTTGATCTAGTAAACTTTAGAAACTGCACTCACTGTGCCAACAGAAGAGGGTAGTATTGAGCTAAGGAACCTAGTGAGTAAGCCCTGCCTCCA
0.492094683172033 TCCTGCGAATTTAGTCAGTCATTGCTGCAGTTGACATTTTTAGCCACAAGGAGGCACCAGGAGCACAGAATGGAGAAGGCGAAGCAAAGCGCCCTGAAGG
0.152531513188274 CAAAGGGATCACTTCTGACCTTAGAGATGAGAAAATGTGAGGAAATGGTGCCCCCTAATGGACAAGAGGAGGTACAATTTTATAGTACTATTTTAATTCA
0.07056774030226036 AGAAGCCCCAACCCTGCCAGGTGACACTAGAGGGTGCTGTTTCCCCAATTCAGATGTCAGCCAGAAAGCTGAGACTTCCATCGACCCAGCCTTTTTCTGT
0.3199661192545447 AGAATCTATTTTGCCTCTTTCCCAGCAATCAGGGCTCAGATTACCCTGGGCGACAGTAGCACACTTGTGTATGCAGTGACATCTAGTGACAAAGAAAATA
1 AACCAATAGAAACTCCTTGAAGGCCTTCCTGGCACAAACGTAGTCTCCAGCACCCTCTGCCGACCAGGCCCCGCGCCCTCAGTGCTGAGACAGCCTCCAG
0.1375595162207124 ATTCTGACGTTTCAGTACGCTAGTGTGTGATGTTCAGCTATTATAGATGCTCCTAGCGCCATCTGGTGAGATATACAAGCAATAGCATCAATATTTGACT
0.6018008404977364 CGGCGGGGCCCAGGCGCGAGCGGGGGCACGGGCGGGGAGTTGGCAGCGAAGGATGCGCCCGGCGCCCCCCGGCGGCCGCCCGGAGCCCGAGGTCGGCGCG
0.4930901806751187 ATGCCTCTGGTCCCAATTAAGATGAGAAATCACCGTCCCACATTGCCACCTGCTGCTCATATTGAGAAATGCATCCTTCCTATAGCCAGCCCAGGGCTGC
0.3589527445909264 CAGTGACTCTCCCTCTGAGCACACGTGTAGTGTCGTCTCAGGCCAGCAGAGGGTGCCAAGAGCTCAGGACTTCCTTCATCAACTGGCTTTTTTTTGTCTT
0.0727631188387189 AGAGGCCACGAGCCTATAATGGGTTGCTAAAGCCGCTGTTATCACCACAGGACACTAGATGTCGCTGCTGGCAGCCCTCTGTGACCACTGGGCCTGGAAA
0.2544027946036536 AGTTCTGGGATCCATCTGCATTTCACCTTTATCATTTACCACCACCTAGTGGTACCTTGGAGCATTACCATTTCCTTGAGTCAGGAAGGTAAACAAAAAC
0.1512578276279321 CCAGCCCCAGAGGCAAGCAGATGCAAACCAACCTAATGCAAGGATGCCCTCTCCTGGTAATTGCAGGCATAGCAGCGCCAGCCCCCATGGCTGACCTCCT
0.1398523776513719 TTAACGGCTGCTGGAAGACCTCAGAATGTGCAGAACAGAGAATCCAGAGGGGGCAGCAGAGAGCAAAGCAGGGACTGTGCTTCCGAAGCCAGCTCCTCTC
1 TCACATTTTATAGTCCCTGAAGCTTAGTAAATGTAGGAGGTATACTATATGTATTAGTCATCAGAGGAGGTACTTTCTGCCCTCTCACCGCAGCAGGGAA
0.3011810986563928 CCGGACCTCGGTGCGTACCCACCTTGATGCAGTTCCCGCCGCGCGCCGCCAGGGGGTGCCGCGACCCGAGCCGACCGCCCCGAGTCTGCGGGAGGGTGGT
0.3213771255709367 TGGAAGAGCAATCTGAGAAAATACTAATACCTCAGCTGGACACCAGGTGTCACTGCTGCAGCAGAAATAATGACACAAGCCTGTCTTTCAAGAAGTTTGA
0.9647224686981458 GGGCGCGGTGGGTACCGCGCCCGCGCCCGGCCCTCGCCACTAGGCGCCGCTGCGCTCACGCCGATCGGGGCCCCGGGTCGCCGCGCCCGCCTGGCGAGAG
0.3764607026282855 GCCTCTGCTCACCCCTTCTAGCCCAGGTATGGCAACTGCTCCCTCTGCTGCTAGCCCTGGGGTACTACACCTTCCCTCGTTTTCCCCAACCCTGCCCACT
0.1195981316263706 GGGGGTAAGGGGTGGGCGCCGGCGACCCGGGCCGACGCCGCCACCTGCAGAGGGCGCGCGCGTCCCACCAAGGTCGGCCGCCGGCCCTTCGGACGGACGA
0.3707733969755059 ATGTTCTTCCAGAGAAGAGTGACATGATCACAGCCAACGCTTTAGGAAGAGCCCTCTGGTGGCAGCGAGGAAGGTGGGCAGGATTTGAGACCGGAGGCTT
0.6961714991820447 TCCTCATTCAGATGCTCCAGCCCACTCACAGTCTGGTCCTTCATCGCCCCCAAGTGGCTGTCTAGGCTCACTGCTCGCTGAGCTGACATATTTCGTTTTC
0.5374605737483326 CCGGGGGAACTGGGCAGGAGCTTTATAGTGTACATCTGGTTTCTTCTACTTTTTGGATGTTGAGCGACATCTAATGGCCAAATAGGAAAAAGTCTATGTT
0.3945134283646039 GGAACTCCTACTCTCTGTGCACACTGGAGAGGAAAATCCTGCCAGCAGAGGTCACTGCCGTACCAGCTGGGAGTCAGCAGCGGGACAGCATCATCCCAAT
0.3911507093779198 TCAGGTCTCCTCAATTTCAGGGACTCATCTTCTTTTATTTAGCTCCCTCTGCTGATGGGTTTTGTGAGTGGCACTGACTTGAGGTAGTGCTCACAGAGTA
0.7715519247108877 AATTTCTAATGCACTTGGCTGGCAGTTTCAGAATGCAGCACACAGTATTCTCCATTAGGGGGTTCTGTAAGACTAAGAAATAGGACACTCTTGTGCTCTT
0.05814731408031874 TCCCGCCCGCGCGCCGCCCGACGGAGCCGCGGATCCCGGGCCTAGCGTGGGGCCAGGGCGCCATCTACGGGCGCCGCGCGGCTCCGGGCGGCCGCCGCCT
0.3049785389207696 TGAGCTGTGGGCCACTCAGGTTGGCCTCATCCCACCACAGGCTGAAGCTGAGTGTCTGTGGGAGGCGGCTGCCCTCTGCTGACTGCAAAGGCAAACCACA
0.4631155172163917 GTGCCCTCCCCTTGCACCCCCCTCCTCTCCCATTCCCGTGTCACCACTGCCACCTACAGGTAAACAGCCATCCACAAGCTACACCCATCAGATTCAAAAC
0.05268377576788163 CAGATCTACCAGCTAGCCTCCCTGAGACCACGAGGTGGCGCCGCAGCACCGGCTGTGGCCGATGCCAGCCAGGTAGCCGGTTTCCCACGTCCCCCGCACG
0.475689468980634 TCGCTGCAAAAGAGCTGCTAGAGGCTTGCAGGCTACACATGGTAGCAACCAGAATTCCTACCACCAGAAGGCGACTCTAAACAGAAAGGGCGCCGCTGCT
0.7084483390895476 TTAGACAGGGCTTACTTTACTGCGCTATCCTCTTTGTCCACAAGAGGATGCTCTCTCCCCTTACATAAAAGCTCTAAGTTTTTGCAGCCCATATAGATTG
0.8120652656813717 AACCTTTTCATCCAGGCATCTACTGGGTGCCAGTGTTGTGTCATCCAATGAGATGTTGGTCCCGGGAGGTGGCCATTCTGCCTGTAAGTAGGACAGCTCT
0.1803385843386737 CAGATGGGACGCAGGCCGATCTAGGCTGTCCCGCTCGTGCCCCCGTGTGGCCAAACGCTAAACACCAGGAGGGTGCAAATGGACCTGGGCAGCTTTTGAG
0.4837432337048642 TGTCAGAATTTTCTGCTCACCTGGGTCTATGCTATTTCTAATGGGAGTGTGTCTCCCCCTGGAGGGCAAGTAGAGCATTTGCTCCTTCTTGCTTCTTGCC
0.8751951805722559 ATTTCTTCAGCAGTGGAGCCTAGGATGTAGAGCTGCATACTACCATTAGGAGGCGCACCCTCAGGCCTCGGCTCCGCGTTCTTTATGTCTCTGGACCGCT
0.7108051091521144 TGTTTGGAAAACTGCTACCAGGCTAAGCTTCCGAAAGGCTAAGCAGCGCCCCCATCTGTGAAGGTTGTTTACTGCAAGTAGAAAGGAAAGGGAGTCTGAA
0.7462766583113871 GGGCGCGCGCGCCGGGAGAGTGGAGCGCGGAGGCCCGACGGCGCCCCCTCCCGGCGGGCCCGAGCCACGGCCGCGGGCTCTGGCGGGTGCCGGGGAGGCC
0.37983577948972 ACAAGAATTCCAAGTAAAAGATGAATGAGCTGCTCTACCATATTTATGGTGACTGAGAGCCATCTGCTGGTTACAGTTTAGTTACAACAGTCCAGGAGGG
1 CCCGATGTCCCAGCCCCACGACTCGCTGTTGCTGCCCAGCAGCGCCGCGTAGTGGTCAGTCTGCAGCGGGGCGAGGGCCGTGGCCACGCCCACCACGGCA
0.1074066159070901 GCCGCGTCCTCCCCGGCTCATCAGGCTCAACCATGCCGGGAGTCAGGAGCGCAGCAGGCCGGAATGGGCCATCCGTGAGGAGAGCGCGCCCCCTAGCGGC
0.160702168471973 GCTTGCTCGTCGCCGCTAGTGCCGCCGCGCCCCCTGGCGGCCGTCGGTTGCCATGTCAACGGAGGGTGGCGGGGACCGGGGGAGGCGGAGGCGGGGGCCG
1 CGCCAGGACCAGAGCCGCGCCGCGGTGGAGTCCTGAGCGCCCCCGAGCGGTCACGTGTGCGGCGGCGACCCAAGAATTTGAAAGAGTCGCGGAAAACTGC
0.02485613093815987 GCGTATATTTGGCACTAGGGGGCGATATAGCATTGCTTTCAGCCCTTCACTGTCAGCGCACACGCAAAATAAATGAATTCCCGCTAAGGAAAATCATTCC
0.07850732846870745 GAAGGGAAAGATTGCTTTCCAAAATAAAGATGTCTGACATCGGCCAGCAGATGTCGCTCTTGCTGCGTGGCAGAAGAGGGGATTTTTTTAACAGGCCCCA
0.2586698789554082 GATCAGGCCTCTGTTCCCGTGGCTGTAATCCTTGTTAATTCCACTGGGTGGCAGCAAAGTCCGCCAGTCACAGCCCTCCCAGGAGCGCAGCTTCCAGGCT
0.2096783051468599 ATTGTAGGAAGCTTGGCAGCATCCCTGGCCTCTGCCGCTAGGTGTCAGTAGCAGCTGTTCCCCAGTTGTGGCAACCCAAAATGTCTCCAGACATTGCCAA
0.1731789597954689 ACAAAACAAGCCTCTTCGGTGGACTGAGTTTATTTCTATCATTTGGCTCCCCCTACTGGGGATTCTACTGAAAGCCAGTTTTAGAAACGAGCTTGGAAAT
0.4955383145902446 CATCCACTTTCCCGGCCACAGTTGAAATTCTTGTCTGTAGGTTGCTGGCGCCACCTGATGCCCAGCAAGAAAACTGCCTCTTTATTCCCGAGTAGGGAAG
0.2033086698174424 AGTACAAAATCTCTTTTTCTAATTAAGAATGTTTGACCACAAGAGGGAGTTCCTTGCCAACTGTTTACTTAGCCTCAGCAGATATGATGGGCCAGAATTT
0.2576419983442314 CGAGCCGGGAGACGCCGGACGGCCGAGCGGCAGGGCGCTCGCGCGCGCCCACTAGTGGCCGGAGGAGAAGGCTCCCGCGGAGGCCGCGCTGCCCGCCCCC
1 CCTGGCCTACGACATCCTCCTGCCCGCATGGACTGCGCGCAGCGCCGCCAAGCGGGGAGCCCAGCTCGGTGCTAGCGCCCGCGAAGCGGAGGAGGCCGGC
0.0650663808957752 TTCAAACCCCGGTACTGTGTGAAGATGCGCCAGACGCCCGGGTTCCCTCCTTAAGCAATTGATTTACAGTGACATCTAGTGGAGAAAGGGACACACATGA
0.4622005621737023 AGGTGTTTAATTTTAAACCAACCACTAGAGGTCTCTACAGACATACTGGAAATAACAACAACAACAACAAAAATTGAAGACTTAACTTGATAATGTGAAC
1 GATAAATGAATGAACGAACTGGCTCCGGAGGGCTGCAGTTCCTCCCCGGGGCAGCAGGCGACGCCAGCGTTACGCCCGCCTGGCCGCCGGCAGTTCTTGG
1 TCACTCCCACAACAAACGCCTCCTCCCCTACCCTGGAGAATGGGCTCCCTCTTGAGGTTCACCTTGGTAATGCAGCCTCCATGGACGCCCTTAGAAACCC
1 ACTAAATTCATCTTGAAAGTCAAGCTTTTTGCTCTCTGCTATTGCACATGCTAGGCGCTGGGAGGCGATGAGCGACTGAGCACAAAGCCTGTTGTTGACC
0.04902833393015815 CTTATGGCTCAAAGCAGTCTAGCATGGGCTTTCCAACCCGCCACTTGGTGGCACTCTGTACCGGCTGCAAATTTTCATTCCAGCTGTGCCGAACTAAACC
0.4175759788090627 CTTACTTCTGAATCTTCAGATAGGCCATAGCTCTGTTAGCTGGAAGAAGGGCATTAGCACCATCTGCTGCTATCCCTCGAGTATAGCATTCAATTGCTCT
0.5169001549162541 CTAGGTTGCACTACCAGATTTTACCAAGAGGTGGCAAACTACAAACACAAATCTGAAAATTCCTAAATTTGTATGTTCCAAGTAATGTAAAAAGTAACTA
0.03849500603596247 TCAGCTCCCTTCAGCCAGCCCCGTCCCTGCTCCAGCACTGCTCTCAGACACCACCTAGTGGCTTCTGGGGACAGTGCTGGTGGCCCCAAGCCTCCTGACA
0.8124744592059674 TCGGGGCAGCGACCGGCGCCTCCGCAGGGGCTGATTTCTGACGGAAGTGGGCCCTCTGGCGGGCGGCGGGGGTAACGTCCCTGCCCAGGGCTCTGGCCCC
1 CACAAGGCTTACCACGCCCCCGTCCATTGGCTACCAAGCCCGTTAGCGCTACCTCGTGGTCAAACTAAGCAACTACTCTTAGACAAAAAAAAAAAAATTT
0.02267864600480539 ACCGAGCTGGTGAGTTGGAGTCGCGCCTTTGAGGTCTTAGGGCCGAGCGCGCCACCTCGTGGCCAAGAGGGAGACCGCGTGCCTTTCCTGCAGCCGACCC
0.5499962984842908 ACAGTAGCTCTTGATTCCCATAAGAGGAGCTTAGCTAGTGCGGCTCGCTGGCGCCACCTAGAGCTCCGAGGCGGAAAGGCCGTCGCCTGCCCGGCTCGCG
0.4616635065728203 CCAGAGGACCTGTTCCCTACTCCCTAAGCCATTCCTAGAGTTGCACTGACCCCTTTGCACCAGCAGAGGGTGCCAGAACCCACCCCCACCCCCGCTCCAC
0.1766923161033498 AAAACTGTGTTGGGCGGGAGGCATCAGAGGGACGGTCAGAAAGGAAGCCGACGGCTGCAGGATTCACTATTCGACACTAGGGGGCACAATAAGCTCGGGA
1 TGTGTAAATGAGATAATTCCAACCTTAACGGGAGAGACTATGAGAGACATGACTGATGGTGTGTACTGTGCTGCTATCTAATGGCAGCCTATGGAACTAC
0.1844441022186636 GATATACTTTTTAATTTTCTTCTCAGCAGGGGGAGCTAGCACTCTCATCTTGAAGGTCTAAGTACACATTACGGAAATCTAAATTTTAATTCCAACTATC
0.6601955342478901 AAACAGGACCTCAAGCTGCCGGCTGTTGCTTCTACCAACTGCCCCATTATTAACGCCAGACGGCGCTGTGTCCTCACTGGCTCTTTAACCACCACGTCGG
0.01409158242337791 CAAGGAGGGATCTGCATGCACTTGTCTGCTTCCGCCAGCAGAGGGAGCAGGTGCTGTGTCTGGGAACCAGGGAGGCTCCAGGTGAGGTGGCTGCCTGGCA
0.4397086895909953 CCTTCCCTCCTGCCTCACCCGAGCGCCTGCGGGTCCCGGGAGCTCGCCACCAGGCGGCGACGGAGAACAGGATGCGGCGCAGCTGGAAGGCAGAGGGTGG
1 CACTAGGTGTCGGGCAACGCTAAGCAATGGGGCCGGGGCGGGGCCGACCTCACCGGCCCGACTACCTCTTTAAGAGGCTTGGGCTGCCCCATCCCTGGCT
0.5531057371045011 TCTAACTGGGGACTAGAACAAACTGTGAATTCACTTTCAGCAACCAGAGGGCGCTAATCCACACCCACATCGCTCTGCCCTGTTCCACCCAGCAGGGGCA
0.3172075959493107 CATTCCTGGTCTTTCTGTGTCTTTGGTTGCCATCCAGTGGCAGCAGCCATATACTGCAGTTGAGTAACAGAAAAGAGAAACCCTCTACTTTCCAAGATGA
0.2322105596641431 TGTTTGAGCCATACCAATTTGCAGCCCCTACCTCCATACCAGTAACCACCAGAGGTCACTATCCCTCCACTGTTTCTGGCCTAGTCCAGCTTTCCACAGT
0.519410585000477 CAAGCAGCAGATAAGATACCAGACTGTCTGCCTTGCTCCGCTGCATGCGGACTGAGAGCTCCCCCTTCTGGACAAATGACATTGCCACTCTAAAAGAAAA
0.1718487441150744 ATACTTCTTCACTGGAGTTTTGCCTGCCAACACTTTCTACAGGGCTCCATCTGCTGGTCAGTTCTCCTGTTTCTCTGAGCAGGCCTTTGTATAGACTTAG
0.487281403205409 AGATTATATTTCTCAACTGAACATTTTCTTTAAATATTACAAGAGAGCCCCCTATTGACCAAAACTGTTAGCAGTTCTGCAGAATCAGCTAATTATCACT
0.2641042673938587 TTGGTTCCAGTTAAGGCTTAAACAAGAGATGAAACGGTCTTCGATGCCACCTAGTGTTTCTAGAGAGTTTAACATTTTATAGACTTCTGCTCTAGCTGCT
0.816981733274306 TTCAGTCTAGAAAGAGTCATAAAGGAGCAATTTCTGCTGATAGACTGTCACCTAGCGGTGGGTTTTTACCTTATTCATAATATAAGTGGCTGCTGAGCTT
0.0300443999229566 GTCTCTCCCTCAGTCCGTCCCGCTAGGTGCAAAGCAGCCTCTTATCCACCAGAGGGCGGACTAAGCCCCGCTTCAGCTTCCTTAGCCAGGATCCCCTTCT
1 GCAAGCCGGCCCAGCCCACCTGGCTAAATTCACAGTCGCGCTCGCTCCTTCCGCCCGCCAGAGGTCGCAGGCTGCGAGAGCAGGTTCCTGGTTTGGCAAG
0.2038386972575024 ACACTTCCCTCGGTCCCTGCCCGTTTCCTCAAATTCGGGCCGTGCGCGCCCTCTGGTGTCGCCTCTCACACTTTGCAGTCATTTACCAGGATTCCCGTAG
0.1298641046763319 GATGAATTCGGTTTGATGCCCCCTTCACCAATAGATAGAGCAATATACGGTGGACCCCTAGTGTCCAGAATAAATTACTGCATCCTCAGGGGTTTGGAGG
0.8819604140491029 GCTGGCTCAGTCTGGCTGGGAGCAGTGGTACTGGAGTGGCCTTTGTCGCCATCTTCTGGAAGCTTCCGCATGTTGCACTGTGAGTCAGTCATTACAGAGA
0.3335517982733671 CCGGGCGCTTCCGCCAGGAGGCGACAGCGCCATGTTCCTCCAGGTTCCCGGCGCCCCGAGACCCCTGGGCAGATGGGGACGCATCCTTTAGAAACTGAGT
1 AGCCTGGAACCCACTCCAGACTGGTCTGCAGTTCTGCATGTGACCACACAGTGTCGCTATCTTCTCAGTTCTAGCCGAATAGCTCTGGCCCGCACCTTGG
0.1777135281379474 CGGGCCTCGCGCCTACTTGCGGCGCCCTGAGTCCGCCGGCCGCTCGGGGGCGCCCGAGGCGGAAGGGGGCGTTGCGGCACCGCCCGACGTCGCGTCCTCG
1 TAATTTCCTCCCTGTAAAGACAGCAACTCCACTTCCATACGGCAGGTGGCATCATTGCCGGCCGCAATCCCTGCTCAGCCATGGCCGGCTGCGTTTTGTG
0.9182291909546453 TCGTGGTCGCGGCGGCCTCACGTAAAATGAATCCGCGGCCGGCGCGCGGCCCGCGGGCTCCCTCTAGAGCGCGGTGGGGACGTGGACCGCGAAGGCACAG
0.2887402288137546 CTTCAGGTTAACTGATCAGGTTAGCTGTCCTACACTACAGTGACATCTACTGGCACAATCAGGACTGAGCACCCAGAAGTAATCAGAATGACAGGGCAGC
0.6145132872372508 AGACCACGACGATTGGAGACTGGGTGGTCAACAGGGGGAGCCAAAGGACCGGTAGTGGCAGCCCAAGGCTGGCCCGGTCTCCTGCCACGTGGAGGAAAAG
0.135087229596091 GGGGCCTCTGGAGCGGGGAGGGGCCGAGGGTGGCGTTCGGGCGCCCCCTGCGGGTCTCCGCCACTGCTACGTTTTGACCTCGTAGGGCAGCTCCGGAGCT
0.1326395323125611 CATGTAACCCCCCCACCACGCCCCCATTTTCCTAAAACCCAGACATAAATTCATGCTTCGTGCTCCCTCTGCTGGCTCAAAAGCTACAGTTAATTCCCAT
0.009458157931683739 CTGGGTTGTGGTTTAGGGCTGATGCTGACCTGCTTGGCCCAGTAGGTGGCGCCAGTGACCCATGCTAGCCACAGCTCCTGGTTTCCACACCCTGGGTAGC
0.6157806673818021 GCCTGATTGGTCAGAAGGTATGACATATTGCTTGGTGTCCACTAGGGAGCGATAAACACATTTAATTAAGGAATAGTGCTTCTCCAAGGTATATGCACTT
0.4508275349731662 GTGAGCACCAAAGCCTGCCCTTTTCGGGCTGAGTCACTACTTGTAACCACCAGGTGTCAGTAGCGAGTACGGAGACTCCCATCCGGAGTGCTCCGGGAAC
0.2864730937657907 GTCCAGAGGGATCAGCCCCAGAACACACCCTCCTCCCCGGGACGCCGCAGCTTTCTGGAGGCTGAGGAAGGCATGAAGAGTGGGCTCCACCTGCTGGCCG
0.4295146310041161 ACAGGAGCGGCTTAGCCTCGGGCTTAGACTCCTTTTCCGGGTCGTTGGCGCCGCCTTGTGGAGTTGTGGCAAATTCTCAACAGCTGCAGCTGCAGTCCCA
0.1404747948356648 ATCGGCTCCCTTTCAACTCTCCCTCCTACCCCACCAACACCAAGCTGGCCACTAGGCGGTGCTGCTCCCATTCTAATATTACTGCCCAGGCACCAATAAT
0.4947292174897968 GGCATCACGCCTTGCTGGGTGAAAGCAATTGCTCTCAGTAGCCTCCAGGTGGCATCAATGAGCTCATATCGGGAAAGTTGGGTTTTGGGGATTTTTTTTT
0.2510306875084195 GGCAGTGCGGAGCCCACGTGCCGGGGAGCACCGGCCATGCCCGGCCCAGCCAGGCGTCGGCGCCCTCGGGCTTCTTCCCCCAGAGGGCGCAGGAGCTGGC
0.6047155403585641 TTCTCTCCTTTTGCGAAGCAGCTGTCAGCAAGGCCCACCACTGCCCCCTGCTAGCGGCAATTGGAAGCACAGCCTCATTGGCAAACCAGGCACCAGGCAG
0.9656346910222368 CACCGGAGGTCAGCGCTCCGCCGCGGACTCCCGGCTGACTCTGCCACTCTCCCAGGAGGAGGCGCTGTGCACCTCTGGGTGGTTTCCAGGGCTCGGCTGG
0.1850557630309106 TCTGTCAGTGATGAAAGCCACTCTTCTTTATAATTGCTGCCACACGGTGTCGCTGTTGAAACACAGGGAACATAGCCACCCAGGTATGGTCCCTGCTGTA
0.1876802736911472 AAGCCCGGATGGTGCGCCCAATGTCAGCCCGAAGCCACCAGATGGCGCGCGGAACCCGCAATGCACGTGCGCCAGCCTCGCGTTTGTCCCCGCACTGGCC
0.6101146227061714 AGCTGGCGCTCAAAGCGCGCATACCAGCGCCGCTGCTGCAGGCGCACGCGGCGGCCCAGGCGCTACTGCGCCCGCTGGTGGCCGGGACCCGGGCGGCGGC
0.2610600178398294 GCCCTTCAAAAACATGCATTTCTGACTTAAATTCTGCACACCATCACCATATCCCCAGCAGATGTCGCTAACGTCTCACATTTTGGTCATGCCAGCAGCA
0.6476833190220973 TTCCTGCCTGAGAGGTGAGTGAGACTCCTTCTGTGGCACAAATGCTCCTCCTGGTGGCCGCACCAGGCTATGGCAGGGAAGAGGAAACGAAGGAGGCGGG
1 CACACCCAGGCCAGGTCCTGGCCGTCATTCTCCCGCCGGCCTCTGGGGGAGCTGCGCGGTCCGCGCTCTCTCTCCGCTGCCGGAATTCGTCTTGCCTGAC
0.7170846567224481 TAGAATGTCAGCTCGGTGCTGCAGTGCTGAAAAGAGTTATCCCGTGGCAAGAGTGGCACCTACAGGGCACAGTAAGAATCTTATGTTTCTTTTTTTATTT
1 CCCCACTACTTTTCACCTTTCAAGGGCTCCAGCCTCAAGCTCTGCCCAGTTCCTCAGGGATGTCACAGAGCAGCTGCCCTGATCAGTTTCCGGGTCTCCG
0.0310793516313636 AGCAGTGGGGAAACCTAAGAGATGCCCTCCACCTAGTGGTGAAGGAACGCAAGGCTGGCCAGAATGGATGTAGTTAACCAATGCCATTTCCAGGGAGGAG
1 TCTGCTCGCCCCGGCGGCCGACGCATAGCTCGGGTACCTCCTAGCGGTCGCCTATTCTATTTGCTTAAGCATCTCGTCAAGCATAAAGTGTGCAAGGACA
0.1244730088379068 TAGACTTTTAAATGTTCAGCCAATTTTAACTGGTGAGTTTTCCCTTAAAAACCCTGAAGAGGGCAGCATATCCTGGTAATTGCTGCATCTTATACCTGCA
0.5685114840844914 ACTGGGACAGCAAGATGGGCTTCTGGGCGCCGTTGGTGCTGAGCCACAGCCGCCGCCAGGGGGTGGTGCGCCTGCGTCTGCGGGACTTGCAGGAGGCCTT
0.1171534071366005 AATAACCATAAAAACATCCCAAAACAGCACACTCCCTAGGTGAACACATGGCTCCCTCTTGTGGTCAACGCGAACCTCACGGGCACAGCCCCGGGGCTTT
1 AAAGTTAAACGCTAGGTGGTGTTCTTAGCACGGTTTGCTATCTTTGACGTCTTAGAAACAGTGAGGGTTCACTCCTTTCCAGGAAAAAGAAAGCAAAATG
0.07844736644281475 TTTATTTTAAAGTTCATTTCTTGAGACTCCAGAAGATGGCACTCTTACAAAGCCTAAAGAAATAAAGCTTTGGCTTTGTTTTTCTACGTGGTTGTTTTTC
0.1343754536501048 TACAGCCAGGTCTTCTAAAACCTGCCTCCAAATTTCCTCCCCTTGACCATCCTCCACTAGGTGGCCATAGTGAGCCACTTGAAACACCAAATCCCATCAT
0.432803017866776 CATTAGGGGCTAGGAACGTCCACAGTCACGACTGAGGCTTGCTGCTCTGGCGCCCCCTTGGGCATGAGAGTGGAACTGTATACAAAGTTGCCTAAATCCC
0.562009426536194 TCCTCACCTTCAGTCTGGGATTTAGAGAGAATTCCTAGATCAGCCATGAGGGGGCAGTGGTGTGCAGAGAGTGCCCAGATTCTAAAATGATGACACAGCC
0.3612369706588961 ATGTAACCACAAGTGCCATCCCAGCCACTGGTGAGGCTCTACTGCCCCCGGGTGGCTGAAGTCCTTCTCTGACAAAGCTGCCGGTGCTCTCATGCTGATA
0.2207355535281591 TTCTCATTTGAAAAGATCATCAGCAGCAGGGAGCTCTGAAAGATGCTATGTCCTCCATCGCCACCTTGTGTGCATCACAGGCCTTGCTGCACTGGGATTT
0.9341154929125286 ACCACCTTGTGCTGCCTTGCCCGCGTCCGCGCACGTCCTGGCGCCCCCGTGTGTTACTTTGGGGGATCGCAGTCTCCGCCAATCCAGAGCAGGCTTCGCG
0.487828634323944 AACCAGTGGGATTGTTAGTGCTATTTCTCTCTCCCATTGCTAGAGGGCAGCATTGGATCACATGAATAGTTGAAGGCAAGGCTTTTGGAGCTTTTTGCTG
0.8975739979375496 GCATAAAGGGTAAATAAACTTTAGATGCCTTGAGAGCAATTGAATCATAGTTGAGAAGGCAGCACACCCTAGAGGTGGAAAGAGAATTTGGATGGTGTCC
1 GGGTGGCGGCGCTCGCGCCGAGCGAACGGAGGGCTCAGGCGGCCGGTGATCAGGGACGGGCTGCGGCCGCCGTCTGGGGTGAGAGGCCCACCCAGAGCTC
0.1438526995897631 AAGGATGAGTTCGGGTTTATGTTGCCCTATAGCCAGCAGGGGGTGTTCGTGGCCTTCCTATTCCAAAAGGCCGCAGCACCCTCTCCCAGGCTCCGGGTGA
0.0709190209188485 GTACTAACAAGGCTGAGTGTTTGTGTATTGCCTGCTGCTAGGCAGCCAACAGGGGGCGCTCACTGCATATTTTGATGAGGGGAAAAACGATTGGATTCAA
0.6051915859146306 TCTTTTCTAGGTGAGGTAGACCTGGAAATGTTAGCGATTCCACAAGGCGGCACTAGAGTTCCACCTGTCTCCCTCCGCCGAGAAAAGCCGGAGCCAACTA
0.132017984095178 CCTCCCTCCGGCGGCCACCGCCAGGGGCCGCTGTGGCACCCGCCCCTCCCGCTTCCTTGGGCCCTTCCCGCTGCCCCACTCTTGTCCAAGATGGCGACCG
0.390074910247406 GGAGCCAGCCTAGCTCAGTGCTCGGGCTGCGGGCGCCCCCTTCAGCATCTAGGGTGCAATGCATGTTGCTTTCCTGTTAGATACTAACAAGACGGCTGGG
0.8199160910917908 GCCACGCGCGGAGCAGCCATCACGGCCGTGGGCCACGTCCCTGGGTCCGGCTCCGCGGACTCGCGCGCCCCCCTGCGGCCGCTCTCAGGCACCGCTGCGC
0.1199688958379943 AGAACGCCCAGGCAGCCATGGCCCTCAAGGGACATCAGGCAATGTCTGGAAACCACTCAGATGGCCTGGGCTTGGGGTACTACTGACATCTAGTGGGCAG
0.8793073701794102 CGCCCTTCACTGTTGATCTTGACCGTGCGGCTGCGCCCCGATAGGCATGGAGCGCGCTCGCCATCTCCTGGGCATTGGGCGGCATTGGCAGAGCTCTCTA
0.07345236538203972 CGTTTCTGGGAGTTGCAGTTTCCCAGCCAAATGGTACCTGCTGCCCTCTGATGGCAGCTCTGAGTCAAAAAGTAAAAATTTCAGTCGAGCCCCTTGGCCT
0.5381891133575506 TGGGGACATGTGGTCGCTAGGTGGCGCGGCTGACCCACTACTTGGCAGCCAGCACTCAGCAACTCCACCCTCTCCACTCCCTAGAGCCTGGGCACCTGCC
0.2119127734366349 GCAGAGCGGCTTCTGGGTTCAGGAGCCTGCGGCAGCCGCGACGCTCCTGCGCCCCCTGCCGTCCCATCGCGGCGGCGCAATCCGGCCTCAGTTGCCGGCT
0.5599517566618759 GAAATGACTACAGTAGTTTTGCAAAACTGTTAGCTTACGTTAACCACAGGAGGGCAGTGTTTATCAAACAAACCTCATTCCACTGAACTGCTCATGGAAA
0.07440666339713189 AAAATTCAGAATGCTAATTATTTTAATGATAAAAATGAGTAGCGTCTTTGCCCGTGTGATTTGGGGCCACTAGGTGTCATTGTAACCAGCGTGGATCCTC
0.1915882604547322 TGGGGCCCAGCTCTGGTCCCACCAAACTTGCCATGGGAAAATATGTGAGGCAGTCCTGCCCTCTGGTGGCTCACAGCAAGAAGTGCCCTTGGCCCGACCC
0.07342591894637795 TGGCGTTTTTCAAGTGCAAGGTGAGATTGCAAGCAGGCCAGCCAATGTTTAACTAGTACTCCACCTAGTGGCCAAAGCTTGAATGAACGACTGTGGAATG
0.2787553408118142 TGTAGCCAAATGCTGAACTGTTGTGACACTGATGAGCACTAGAGGGCAGAGCTTAACAGCAAATGATTCTAAAGCTAGCAATCCAGGCCTCTCGTTTTGG
0.3743853756837999 CTGTCCGGTCTTCATGCAGCCCTGGCCTTGCCCACTAGGTGGGGCTGCTCATGCTTACTGGCACCTACCCCCCAGGTTACTAACCTGTTCTCCTCTGCTG
1 TATGGGAAAGTTTTAAAATAACCTTGGCATTCTATATATAAACCTCTCCTAGGTTATAGCTCCCCTCAGTGGTGAATGATGAAATTGACTTTTGCTGATC
0.9801044421398384 TTTGTCAATGTTAAAGGGCAACATTGCAGTAACATAACATTTCCAGTGGGTGGAGCCCACGTTGCATTTTGTAAAGTGAAAATTTTTGATGCATGCTTTC
0.1761885423524211 AGTCGTCCTGGGCATTGCAGGCGACAGAGGCGAGGTCTGGCCCGATGCTGCCCTCTTCTGGTCACAATGGCTCAGTTCCATGGGCCGGACTGGGCCTGGG
0.1669867865740486 TGCTTTGATGAAAACTGCATCAGATAGCAGAGGAAACACTTATTTGTATGGAAGTGGCGTCCTCTGCTGGTAGAAGTATGTAATGACTGGAACTTTTCCC
0.3042525432495271 TATTTCTCAATACTGAAGGATTGGGGAAAAAAATGTCATAAATGAGTCGTGCTGCCCTCTCCTGGAAAGGAAAGCCATAAAAAGCCAGTTCAGCGCAGCC
0.03375811536870392 ACTTTCTCTAAACCCAAGCCTGCGGCGGTAACAAGAGATACAGCGCTCACAAAGCCCTCGGGATGTTGCCCTCTTGTGGGCACGGAGGGCATTACCGCCT
0.08233332376785238 ACCTTGGAAAAGCCCAGTGCTGATGTTTTACAGCAGGTGGCAGCCTTTCCCTGGGAGAGAAGACAGAGCTAGTCTGATCTAATGCAAAATTGTTTAGGGT
0.459034619152965 CTCCCACACGGCCCCTCTACCCTCCGACTGAAGGGCACAGGGGCTCCCCCAGGTGGCCAAATGCACGAAGGCCAGAAACGGGGGAGTCCGGCAAAGACTC
0.04693900182145141 GATGTGCTTCTTATGTCACTAGCCAGGTTTCATTGGATCAAGGGTGACACCTAGTGGGGAGACTGTGCTAAACTCTTATTTTCTGTCAAAAAATTCAAAT
0.2590036751251386 TTTTGATACATTTTAAGTTGTCACAATTGGAGGGACGGGATGCTACTGACATCTAGTGGGGAGAGGCCAGGGATGTGGCTAAACATCCTGTAATTCACAG
0.1038261696744214 CTCCAGCAGGGTATAGCGGTTTTTGTGGCTGCAATATTCATAGTTAGCCACTAGATGACAGTTAAGAGCAACAGCTTCCAGCTGCGCAGCCCAAAGGGCT
0.5060352774783767 ATATTATAAATCTCTCAGATGTATAGTCTCCAGTCTACCAGCAGGGGTCAGGGCAATGTGGGCCAAAGAGAAGGGATTACTGTCACTTTCAAGAAAATGC
0.7441126499198034 CTCTTAGACTGGCTCAGTTCCAGGAAGAGGTTTTAGAAAATACCAGAGAGGCAGTGCTGCCACCCTGTGACCATCGTCAGTAAATGCGCTTAACTCTGAC
0.1809686013907562 TAGGCTTTGTCAATAGAGGGCGCTGGAGAGCCACTGAGGAGCCAGGGCCCCTCTGCCTCACTCCAGGGCTTTGTGTTCTTCCTACTGCGCTGTGACCAGC
1 GAAAAACCAAAGCCACCAATATCAAAGAAGCGTGGGCCCTTCCGCCCCCTACTGTCTATCTTCAGTAACTGTCCAGTGAGTCTCCGCCTTTTGTTAGCAG
0.394821070912084 AACTCAACCCCTCTTCAAACGAAGGGCAGACTTCTTTTTCCCTACGTCTGAGTTGAAAAAGGGCTCCCTCTTGTGTTCCTTTAGTGTAATGCAGACTTCT
0.8128492696998934 CTCAGTAAGCACCTTGGATTCTCTCTGAGGGCTGTAGGGGGCATCATTGTTCCAATGTTTTATAAAGTATCTTCCCGCTGTGATCTAAAGAAGCACAGCA
0.2893788463465905 ACCCACACAGTCCTCTTCTCCCACGGCCAGGAAAGCAGCTGGACAGCAGAGGGCGATGAAGAGCCAGGGACCTTGCCTGTAATCAGCTTGTAATGGGCTC
0.6898604231078673 GGAAAAATCAGCGCTGAGACCTAGGAGCAAGTAGGTCAGTAGATGGCACTCCTCGCCAACTCAGATACTGGGCTGGGCATGCAGAGACAATCCGCTGAGA
0.3000925765451153 AATCTCAGTAATTTCCTTGCAGTACATATGTGCTGCCAGAAGGTGGCGAAAATACTCAGAGCAGAGAATTTCAAGCTTCAGAGGCAATGGATGCTAAGAA
0.9416107911780338 CTCCCGTCCCCATCGCCGCTCCCATTCCTTCCTTGCCCAGAAGGTGGCACAGTCTCGCCACGGGTCATGCCGGGAAATCCCTCCAGGTTGGTCCAAACAG
0.564836435259307 GCGCCATTGAGGACACTCTCCTCGAGGTGGCAGTAGAGAGCCGTTCACTGCCCAGTCCGCTGACGTCACCTTGTTTACCCGGCTCCGGGTCATTTTTAGA
1 CCCAGGAGCGGCCGTCTCCCCGGCTCCAAGGGGGCGGGTGGCTCGACTGCCCTCCCCCCGCACCCCGCCAGGAGGCGCCTCGGCCTCCCGGGCTTCCGAG
0.1476849347610909 AAAAACATTTAGTAGCAATATTCTGAAAGGCCACAAGATGGGGATATGACTCCACAAAAGTGGGTCTCGGTAAAAAGTGGTTTTTTTAAGAAGGATGGTT
0.4092700330533595 AACTGCCGGCCTCTGAGAACCAGACTTGGAATTTATTAAGAGTAAAGGGCCAAGAGCTCCCCCTACGGGTAGAAAAAAAAATGGATGCCTTGAACCTGCC
1 ACTAAACTCGACTGGATGCTGAGGGCCATTTCTGCTTTGAGTGAACAGTGCAGCCTGCTGGGTGGCCAAGGGAACGTGTACAAATCCACTTTGTTTAAAG
0.7175855799588855 GAGGCCGTTTGGATCCCTGTGTGAGCTGTAGGGGGCGCCCTGGGCGTCGGGCCCAGGTCAAGTGCGAGATAGGAACGGGGTGCGGGGGCCGATGAGAGCT
0.01106412308830469 CAAACCTCTCATCTCAGTTTTGCCCAATGTTATTTGGTTCTTTAGAGGTGTCACACCGCCCTCTGGTGTTCAACAAGCTAAAATGTAGTATCTCAAATGG
0.9089733129197177 GTGTTTAGGAGACAGCGTGGTGCAGTACCGTACTAAACCACAGAGAGACACTGTTCCCACACATTTTTTCCTGGCGTCCCCTGAAGTCACAGACTCCTAG
0.3059095924168077 ATTATTTCAGTTCTGATTCCCTTTCTTCTTCTTTTGGCTTATGGTTTGTGACCATTAGATGGCACTGTGCATCTCAAATATGGAAAGCACTTGGCATTCA
0.4045368942493549 AGGGCTCCCTTCCCACCCTCATCCTCTTTCCTGCATCCCTCGCCTTCCCCCTTGTGGCCAATTCTGGAGATGCAGCAGCGTATTCCAGCCCCTCTCAGGC
0.3396952131942934 ACCTGGGGAGAGGAGCTACTTCCCTGTTCTGTGTGGAACTCATTCCAACAGCGCCACCGTGTGATTATAAGAAGCAGACACAACAGTGAACCGAGAAGAT
1 CCCACCGGATCAGGTGTCTCCTCTGCGCAGACTCCTCCACGACGCCAGTCGGCGCTGGCGTAGCTCGGCTCAGCCCGGCGGAGTCTGACTTCCGGAGGGC
0.2233484099676435 AGCTGGGGAGACGGGAAAAAGCCTCAGAGTTGTCCCCACAGCACCACCTGGTGCCAGGTTGGGGTCTTCCTGGACTGCTGTTTAGGAGTTTTGTCCTGTT
0.08675023282495227 TCCCACAGGTACACCCGTGCCAGGAGGAAACATGATATCGCCCTCTAGTGAGCATAAGGTAGCACTGCAAGGGCGTGTAAGTGCAGATGCACTTGTGGAA
0.6546137205232671 AAGCATCTCTGATCTTTCCACCACTAGATGTCACTAGCACACCCCCACTCCCCACCCCCAGTCAAGACAATCAAAAAACGTCTCCTGAGGTTGACAAATG
0.1779050337670181 GCTCAGTTCAGCCTGGCAAGGAGGAAACACCTGCTCTTTGCTGCCATCTTTTGGGCACAATGGATAAACAGAGGAGCTTCTGTGGCAACACTTGGTTTTG
0.5888298342780964 CCTGGACCCTTAATCAGAGCTGAGACCAACCCAAGCCGCAAGGTGGCAGTGCTGTTCGCTGAGGCTGCCCTTGGGCTGAGCACTCTTGGGCCACACCCGT
0.3701128906178697 AGGCAGTGCTTCTAGGAGTCTGCAGCAGTTGCAGCGTTACTGGGCTTAAGGCGCCTCCTAGTGCTGATATGGCTTCAGTGACCACAGGCTTAGATCACAA
0.07846570037877604 GGTTGGGGTGAGCCCAGGCCCGCTGCATCCCTGATGTTGAGCGCTGCTGCCACCTTCTGGGCAGGGCCGGTATTGCCTTGCCTTGCCTTGTACCTGTGTG
0.2130431372272287 CAGAGCATCCAGTAGGTGTCGCTGTCCCACGGCCGCCGCGCGCCCCCGGGGTGGGGAGCCGGGGCGTGTCTGCCTCACCTGGGGCTCCCGGCGCGAGCGC
0.237022696385238 GGGGGCGCGGCTCCCGCGTGCGTGTGCGAGTGTGCCTGTCACTAGCGGCCTCCTGGGGGCAGCAGCGGAAAGGGGGACGCAGAGAAAGGCAGCCTCGGCG
0.5883124401035384 GAAATATCCAGTCAACAAACTTAAGTACTTCATAAATAATCCAGCAGATGGGGCTAAAGGCATAGATCAGGCCAGGCTACCTTCCATTCTACTGGTGTCT
0.924717276489704 ATTCCCACAGAGTAGTAAACGATTCTGGATCTGGCCACAGTGTGGCGATGTTGCAGCACAGATTCACCTTGCCCTGCTGAAGGACTGCTGAGTTCTCACA
0.02532102421372695 GCGCGGGGAGCCGGGGCAGAGCGAACTGCTGTAACTTTCGCACGCCGCCACCAGAGGGCGGCGGCTCCGCGGAGGAGGGCCCCAGCCTCTGCGCCGGCTC
0.0758510425228677 ATAGTTAAGCGCTAAAAAGAAACGGTAAAGCCAATAGCTGTCACAGCAGCACCACCTAGAGGCCTGTGAGGAGTAACACAGGTCATTTCCCCAAACTTGC
0.1767088428317947 AGCTTAATGGAGCTGCATTGGACAGTTGTAGCCAGCAGAGGTCTCCATCCACTTTTAATTAACTCATTTTCCCTCTGAGTATTTAAATCTTTCCAAGAAA
0.1901906554374539 TTTAAAGGCAGAGAAAAAGGATGAAAGGTAAATTGTTGCCAGATTGTAGCGTCCTCTAGTGGCAGTCTAAATTCGGACTTTATTCTGTGTCGGAATCTTC
0.5210361876249986 TCAGAACTGTATGGCAGTAGTTTTGAGATGTGTAGAACTTTAGCCCCATCATGTGGTAAAAATTTAAACTGCATGTGGCTGAGTATAAATCTCTTATTTA
0.3614788455503362 AAAGTATCCTTGTACCCTATGGTTATGGGAATGTGTCAGCCAAACTCTAGGTGGCGCTCCACATCGAATTTAGGAGGCAGGGGAAGGAGTGTGGCAGTGG
0.04418894765793842 GGCGGCGGGTGGCGGGCGGCGCGGGCGCCCTTGCGGGGATTCCCGGTCTCTCAGCGCGCCCTAGTGGACGCCCTGCCTTTCGCTGGCTCCCCGTGCTCGT
0.4686343909726394 CCAGGACCCTGCGCTGTCCGCCGTGGCCGGCGCGTCCACACGGTGGCGCGCCGCACAGCCTGTCCGCTCTGGCCCGCCCGGCTCGCTGGTGCGGCTGTGC
1 GCGCAGAGACCGAGAGAGGGCGACAGAGACCCACAGAGAGGGGGAGAGAGACGCAGAGAGAGGGGGTACAGAGACCCAGCGAGAGGGGGACAGGACCTGG
1 GGGTCGGCGCCCAGCGGCCCGCCCGAGCACTCCGGCCGCAGAACCAGAGTGCCGCCCTGAGGCCTGCTGAGAACACAACACCCTCCCGACCGCGCCACCG
0.9495882286742385 TTAAGTCAAAACAAGCCAACAACTGAATTGTACCTATGGCCAGTGGGTGGCACTAAAATACATTTGAGGCTTGTTTTAACTGTTTGTTTTCTCAAGGCAG
0.2252950934656418 TGGACCTGGGACTTGGTCACAGAAACCCAGAACGAGTGAGTTCTGGGCGCCCTCTAGGGGCCGCGCGTAGCAAGGCACTTCGAGCCGAGGCTCTGGGAGC
0.1365707198177569 TACTCTGAGATTACTGCCTCTTTTTTGGCACTAGATGGTGCTGTAAGCCCAGATTTGCTGCAGCTCTTGCAACGGCTTGGATTACTGCCTATTCCCGATT
1 TGCACCCCACAATGCGCCGCGCGCGCAGCGGCTAAGCGATGCGTTGCTGCCTCCACGTGGTGGCTGAGTGATCATGCTCCGGTTTGGGAATGGGGCCCAG
0.8828324854431423 CAAAAAACTACACAATGGAGACCTTAATGCTCAAAGATTCCATTAGGTGGCAGTCAGGATACAGGAATCTTTCAATGTCTGATTTCTCCGCCCCCTCCCC
0.4823117697613862 CAGGGCCAGCCGCGGTTTCCGGCCTCAAGGGCAGGCTCGGTTCTGGAGCTCCCTCCAGTGGCCGTCGGGGTGCCGTCACTTTCAGGGCCCCACCAGGAGA
0.3179495049685472 GCCCAGGAGTCCCTAGCGGTGGTCTGTGGCTGTTTCTGCCCTTGCTCTTAACCACCACAAGGTGTCACTCTTCGCTGCTCCTGCGCGTTCCCACCAAGGC
0.7401120947495029 GCTGGTGGAACACTTCTCTCGCTGACCAGCAGGTGTCTCCACTGAGGCATCCACCTCATCGGCGGGCCTCCCTGTCCTCCTAGAACAGGGACTGGACCGT
0.4992757571160565 AAAAAAGTATTTATTTATCTATTGTGTGTCTTCTCCACTAGGGGGTGAGCTCTCCTAGGATAAGAATTTGGTGTGTCTTCCTGCCTGTGTCCTCAGTGCC
0.05467703835188525 ATCTTGGGTGAGGAAAAGCTCACTGACACCAGGTACCACCAGGGGGAAGCATTGAACAAGGATTTTGAAATTTTGCTTTTACTAAGACATTTGAGTCTTA
0.06083566982578909 CCAACCAGCAGAACATAGCCCTACACAACCCCAAGCAGCAATATTCACGGCGTCCTCTAGGTGGAGCTCTGCAGTGCACAGCCTGGGCAGCTGGAGGCAG
0.6970578600012128 CCCACACCCCATCCTTTTTAGTGAGCCAAGCAAGCTCACACTGACGCCTAGTGGCCACAGTGGGTCATTAGTCCATTGAGTTATTTGTCCCTTTGGTGCC
0.8830395651135821 CCAACTAATTATGATTAAATACGTAAATAGAGAACCTATCTCCCAGCACCACCTGCAGGGGATGAGGAAGTCTGCAACAGGATTCAACACTTCCTTTTCT
0.3239137924651621 ATGAAAGGCGTCTGAAGCTAGGGGGCGCTAGATAAACACTGATTTCCCCTTTAGGGAAAAAGAATGCAGGCTTTTTGTTTACATAGAGTTGGCAGGCATG
0.1065502346864991 GATGGAGGTGTCTGCGCAGGGTGGTTTCCTGCCAGTTGGGGGCAGCAGAGGGTAGCAAGTGGACTTCTGGGTGGCTCCTCCCAGTGAGTGTTGAAGTCCC
1 TCCTGCGCATGCGCAGTTCACAATAGGGTTCGCACTCCTGTGAGAATTTAATGCAGCAGATCTGACGCTAGGCGGAGCTCAGCCAGTAATGCTCGCTTGC
0.03978099948270677 CTTAGTTCTATGGGTCCCAATTCACTTTGAAAAAAGCGGGATGCGCAGAAGTAGGTTATTTGTTGAGTCAGTCTGCCCCCTGGTGGAACAGGGTGAAAAC
0.2064319855274473 GCGAAGACTGGGGCATGGCAATCCCTGTTCACTGCCCAAATCTACATGCTGTCACCAGATGGCAGCATTCCCCACTTTTCCTGGATGCCTGAGCAACTCC
0.601366736106364 TGTCCAGAATCACTGGAGCCAGTCCCATCCCCTCCTCATACGCCAGGGGGCGCACACGCACTGTTTGTGAATTCAAGTTCAGGACAAAAACAGGCAGTGA
0.2682054384936078 GACTTTCATTCCCTTGCCCTTGTTCTTGGGTAATAAATTATGTTGTCTGCTCCACCTACTGGTGGATATATGCAAAGGCCTATTGTTGGATTTATTAAAA
0.3591995326900329 AAAAAAAAAAAAAACTCTAGAGCAAAAGCGCATCAACTCTACCGGCTACCAACAGAGGGCGAAAGCGGTCACATGCAGCCACTCCAACACTTCCTGCTAC
0.1627559284045142 TTTCATAAGTTCACTTCCCAATATTTTTCAAAAATTGACTTTTGCCAATAGTTTCACCCACCGAGGGGTGGCGCTGCTGCACCGCCTCCTCTATATCTCT
0.1577268555174385 CTCCTCAGCCCTGCGGTCGGCAATACCCATTCCTGAGCCGGTAGCGGCCCCTGGTGGCTACTGCGGGAATGCTGCCTCCTCCCCGCTCTGGGGCCTGGCG
1 GCAATGAAGTGTGTGTTCAACATCCGAGATAGCAATATTCTCGTTATTCTTGTAGAAAGAGCGTCAGCCTGTGGTGACATTTTGTATTGCTTAAAAAAAG
0.9293158902647651 GTGCCTTTTACCCAGCGACTCAGGTGTGTGCAGACGCCATATGTGGCCACACAGGGGCAGTAGGACACTGGGCAGAGGCTGTGCCCGTGCCACCTCGCAT
0.5198575713741473 ACTCTGCGGAAGCCACGTTCATCCTGCCCTGCCAGGCGTGGCCACTAGAGGCTCCCCAAAGACAGAACTGGCCCCAGGGCTCCAGAGCCGCCGAGTGCAA
0.03151879638288112 CACGTTCCTCAGCCCTTGGAGGCTTTTCTGGTCCCAGGCATGAGAACACACTGCCACCCAGTGGTCACTGCTTGTCACACCCCAACGGAGGTCACTGGGC
0.1885667337357673 CTGAAATTGTCAATGCGGCTTTGGCTACATTATCTGACAACCAGTAGAGGTCGCCACCTACCACATTGTAGCAAGTCAGGGAGAGGAAAAAAAATTATGA
1 TGGTGAAGTTCAGGATCTGGTCGCCAGGGGTCCTCAGCTGCATGGAAGACTGGTCTCGGCCCACCAGGGTTAAGCCCACACTTTCCGTCCACTGTACCAG
0.3243085793042222 AGATTGGAAGGAGTGTGGGATTAGCAGGAAGAAGTGCATGTTTCCTCCAGCAGGTGTCAGTGTTTCTTTTAGAAAGATGCAGGCCTTTGCGAGCCTACAG
0.1417155990366632 TTCAAAATAGTTTTATTTTTAAATGGTTAATGAGACATGCCTCTAGAGGGCAATATTTTCTCATTGTAATCAAGGCAACCCTGGCATGAACCTGAGGTAC
1 TTAAACTCAACCAAAATGCCATGCCTTGGCTTTCCAAAAGAGGGAGATATAACTTCACTGCCACAAACATATCAATGTGACACATAAATGATCTACTCAA
1 CTCGGGCGGTGGCGGGCCGTGGTCCGGCGCAGTTTCCCCGCGGCCCGCTGGGTCGCACTGTGGCCTTAGGAATGTGGGCCGGGGCGGGGCGGCTTGGGAG
0.7993878099384666 GGTCTAGCTCCTAGCGCTGGGTCACCTCGGCTTCACTCTCTGCCCTGGAACCCCACCTGGTGGGCAGTTATAGTACTACAGATTCGGGGAAACAATTCCC
1 CGGAGGCGCAGCCCGGGAGAGGGGCTGAAGGGGGGCAGGCAGTCCTCGGGCGCGAGTGTGCAGCGCCCTCTGGGCGTGGACGCGGAGCGCGCTCCAGGTG
0.7133219738003291 AGAAGCCACGTGTGCTGCGTAACTGGAGGAAAAACCGTTTTTTCCTGAGATGTCTCTCTGACGCCATCTACTGACAAAGCTGAACATCATGCCAGCTGGC
1 GGCTAGACAGACTTCCGCCATCCTGACTCCCGCCCTGGCAGCCTTGGAGCGGCAGCGCCCCTTGTGTGGAGCAGGGGAATAACAACAACAAAACGGCCTT
0.3034177055844408 CCCCTCTCCCGAGCACTCCCGAACTTTGAGAGAGACCTGATACTGCCACTTGGTGGCCAATAGAAACTATGCAAGACCCGCTGTTTCGCCCTTTCTTCTT
0.1951509575001699 AAGAAAACAAAGAGAAAGAAAAAAAAGAACCCCATACACTAAATGTACAGTTTCCATTTGTCCACCAGAGGGGGTATGTTAACTGGTGGGAATAGAGGCC
0.1650453350441966 TGCAGGGCGCTCATGCTGCCCGCAGGTGGCGCCACGTGATCGCGAGCCGCAGAGAGCCCGTACCCTAGGAGTCTCGAGGCGCGAGGACTGCTGGTCCGCA
0.5572208769466351 AGATTGATGAGATGATGTGTTCGTATTTGGCCACAGGAGGGAGCCAGACCCTTTGGGAAGCAGCAACAACCAACCAGAGCGGCGCCACACTGTCCCACCC
1 GGTCGCCCGGGCAGGGTTCTGGCTCATCCCGGAGGGACGCTAGGGGGCGCGGCCTCTCTTCGCGATGGCCAATCCGCGGCCACCCCTCTCCTCCCACAAA
0.91688639254256 AGTAACAGCAAAAACAACACTTGCTTCTACAAATCCGTGGCGCACTGGTGACATCCACTGGCTGTTCCTTAGCATTATTCTGATACTTTGGATTTTTAGT
0.09160728743143014 GCACCCGGAAGCCGCTTGCGGGCTCCCGGAAGCGGCGCCCTCTAGCGTTCTCGAGTCGCATGAGGCGGCTGCTGCCCTCGCGGTGCGGGAGGGCGAGCTG
0.3089861399345999 TTAATGGGAACTTCGTAAGAAATGCGGGTTTACCATGCAGAAATCATTCTGACCACCAGGGGTCTCTTTCTACACACCACTGGGACTGAAAGCTCGCTAG
0.4824888950560327 GCTTTGCACTTCCGCCCCAACTGCTCCATGACCTCGAGGGGGCAGCAGACACCGTCTTTCCCTCACCCTGGCAACTGCTCATTCCAGTTTTCAGAGTCCC
0.09093300296070719 GCCGGCCGCCCAGACACCACAGACGCCACCTGGCGGCCCTAAGCCACTCCCGCCACACGCTCACTCCAGGTTCGTATAGAAAAAGCACAGCTCTCACTGG
0.8095278392308405 AGAGCTATCTGTAAGTGCACTTCTTCTCTTGAACAGCAGAGGGTACTCCAACTCCGCGAGAGACAGACCATCTCAGCCCCTCAGTCCGCTGTGTCTTCCT
0.0638695420514438 TGCTGAAATGTCCCTGCTTCCCACTAGGGGGAGCTTGTCATGCAGCACCAGAAACAGGATCGCGGGAGCGGGTATCGGTGAGGCTGAGCTGGAACGCGAT
0.6502531364439944 ATCGTCAGGGAGTACAGGGCGGCCACCACTGGAGGGAGCTGAGGCCCTGGAAAAGGAGTCTGATTCTCTGCAATTCTCTCTCTGCTTTTCTTCCCAGCCC
0.1389772469211605 CGGTAAATGGGCCCCCTCCCATAAGTCCATGTATCAGCAATCTATCTCTTGAATCCAGCAGAGGGCAGGACAGTCACAGAAAAACTACCATTGTAAACCT
0.2538864029033814 GGAGGCAGGGTCCCCGCTCGCCCGCCCCGATGGGCAGAGCGAGGCTTGCGCCGGCGCCCCCTGCCGGGGGAACGCGCGGGCGGCGGGCGGGACCCAAGGA
1 CTGAAGCTCCCTAGGCTCCAGTTCTTAACCCTCTGAGTGCAGTCCCAGCTATGACCAGCAGGGTGGGCGAGTGGAATTCGGTGGAATTAGTGGATTTCCA
0.8665538873252459 CGGGGATTCTCCTGAGGTCACGCCCGCTCTGGCCGCCAGAGGACGCCCGAGGATCACGAATGGGCCCGAGGAGCTGGCTGCCCCTTCCCACGCTCAAGGT
0.3714916866991361 GCGGCAATAACTCCTAATGGGAGATAGCAAAAGGAGAGGTGACTCTGCCATCTGCTGCTCACTGATGGTATGTACCTACAGGCCTTCAGTAGGATTTAGG
0.5278727304891285 GGGCGGCAGGAAGTCCTTCTTCCTGGGCCTGGCGCCCTCCAGCGGTGGGCGCAGAGCACTAGGCTCCAAAACTAGGAAGCCGGCTCAGCCTGCAGCAGGG
1 CAGGGCGGGCCGGGCGGTCTTTTTCTTTTTCCTTTTCTCGTAGTAGTTCCCTGGTTGGCCTCAAGATGACGCCAACACCCACGGAGTCCGCCCAGCCGCT
0.2010934005606884 CAGATGAAATTCCCTACTCTGAAGTCTTAGAACCGTGGGGATGCTACCCCCTAGTGGCGTAGCACAGTAACAAACAATAAGCATTTGGCTTCACAGTTTA
0.8882621270738964 CGAGGGCGGGGCCTGGATCCCCGGCGCCCCCTATCGCCCACCTCCTGCTTTGCCGTGGCGGCGCTAAACGCACCCCCAAAGCTGCCCCATAGGAACTTGG
0.160405725358377 CCCAGCACTCCCGGAGCTGGGCCGGGCGCCGCCTTCCCTCGGGCGGCCGGCAGGGGTCAGTGTTTGGCCGCAGGTGAACAGACAGCGGCCGGGGCTGAAT
0.01512645657358786 ATAAAGCTCAAAATATGGGAAATACTTTAGTTTTGTTTTGTCTCCACCTGGTGGTTGTAAGTCAGAACACAAGCCCTTAATGGAACTGGAAAAATAATCA
1 TTCAATGGGTCTTGAGTTGTTATCAGTGATGATTTAGCACCACCGTGAGGCTGTATCCAGTCACTGCATATGGCTGTTGGCCTCTGCAATATATACGGAA
1 TCATCTCCCCGAGTCCCAGCCCAGTGCCTGGCCGCCCACCCCTTGCTCCGCCCAGGGCCTGCTCCCTCCGGTGATCCCAGTCCAGTGCAGCCCTCTGCTG
0.1640158868070036 ATGAAGACCCAGAGAAAATAGAAGGGAATTGGACACCTACAACCACTAGAGGTCGCAAGAGGAATATCCTTTAGTGCCCTGAGCCCAGACCTGAACCAAG
1 TGCTTCCCACGCCAGCCGCTAGAGGCCTCCCTGTCCTCGCGGACGCAGGAACTCCCCGGGGGCTGGAAAGATGGGGCCCACCTCACTCACCCCTTTCCCG
0.428076767703365 TTAAGGAATTAGTTTTACGCTATTTTTTTGGTAGAACACACACGCCACCCAGTGGAAAAGGCATAAAATACAGTTTACATTTACATTTCCATGTATGTTT
0.9697745864897306 CCCCCTCCAGCGAGAGCGCGGGGCTGAGGGAGGCGAGGCGGGGCCGACAGGGGGCGCGCTGGGCCCGCCCGGTTCTGCGGCTTAGGGCCACTCTTACGGG
0.7209250827001379 CGATAGCCACCCTGCGATCTCTCGCGCGGCCAGCAGGGGCCAGCATCCCCCGCGGAAAGGGTCGCTGGGCTGGGCTGGCCGAGAGCCGGGGATCGGCGAC
0.3905591157996959 GGGCAGGGCTCGCTGCTGGGCAGTGCTCGCTGCTGCCCCCATGCGCCTGCCGCCGCGGATTGGGCCGGCCTCTTTTTTTCCTTTTACTAAAATTATTAAA
0.8752058285034585 GCATAAATGAACCCTTTAATCCTCAGGAGGGCACTGTGGAACTACGTTCTTAGGGTTGTCTGCTGTAGGAAGGTTCTTTTGTTACTCAGATGTGAGGGGT
0.4447270491786465 ATGGTCTGGTAAATTGCCAACCAAATACAGAAACCTATCCGGTAGAGGGCGCCTGATTTCCTATGTAAAGCATGGAGAGTAAAATGTAGCTTAGAATCAG
0.03459217756534769 AGCCCTACAGAGCTGGCCTGGAAAAGCGGGCGGCGGGGCCGACTGCAGCATAGCACCACCTCGTGGCCGCTGGTCCACATTGCAGCTGTGATGTGAGGCC
0.4203208701644814 CCTTCCCTCCCGGGACCCAGCTCGCATTCCTCTAGGTCAGCCCGCCCCCTGCTGGCCCAAGCCTCGTACTGCAGGAACCGTCGGCTAGAGCCCAGAAGAG
0.2447978675984974 CACCACGCAAGGGTTAAGATTGCACAAGGGAAGAGTTCTTGCGCCATCTACTGGCCGTCTCCGAGCCGCCCGTTCTTCCTTCGCATGTATAAGGGACCCT
0.5267430819260787 GGGGCGGTGTTGGGGGGAAGTCCGGAGTTTCCTCACAGCTCCGGAAGGTGGCGCCACAGGGTGATACTGGGGGAATGAAATCGGTTCCCCAAGTTTCATG
0.4265823612575617 TTTCTTGGAGCTGTGTATATGCGGTACTTCAATGACCTAACACTAGGTGTCGCTACCACATTGAGCTAAGAAAAGTGCGGCTGCTCCTTGAAAGGAAATT
0.5244411105386345 ATGGGGCACGGGGCTCGGGGCTGAGTCCCTGGAGCAGCGGTAATCCTGGAGGTCCACGTGGTGGCGCTGCACCACGCTGTAGCGAGGCTCGGTGGGGGCG
0.2312248947454552 TTCCCGGAGGCACCGTGAGGCACCGTGTGGCACAGCTCTTTACCGGTAGAGGGCAGAAGAATATCATTTATCCTATTTAGGGAGTCAGCCATAGAATTCT
0.3819485849046317 GGGCGCAGAGGAGCTTGCACTCGCCACGCCCTCCCCTAGGGGGCGGGCTCCCCCTGGCCGGTCCGGCAGCCCCTCCGCGCCTCTCCCGCAGGGGGGAAGG
0.6830365413422015 ATTTCTACAAATCCATTGTTGCTTTGTGGTACTTACTGAACAGTCCAGCAGGTGGTAGTCTAGGAGAGGAACAGTTCTCATCCTCCCCCAGCCATCCCTG
0.5027613983903392 GCATCCTCCAGACCCTGCTTTGATTCCAGCAATGATGAGTGGTCCATGGCTGCCGCCTTGTGGCCTAGTGCAGGACTGCAGCCAGCACGCTGAGCTGGGG
0.6199303297572525 ACTGTTTCCAGCTTTCTGATGCTTGGGGAAGCAGTACTGTTCCTGAACTTCCCAGCAGAGGGGGTCATAGAGCCCTGTGGGTTAATTTACCGTCTTTGAA
0.5368938380169678 TGGAATATTCCAGGACTTAGAGAATGCTGGACATTTTATGGGCTGCAGCCAGCAGATGGTGATAGCGTACCACAAAAAAGCCAATGAAGCGGGCTTGGTG
0.3883187967752169 CATCAGGTAGCTTTATAAGGAAAAACATCTCCCCACAGCTCCACCAAGTGGCTGGGTCTGCCCACTGAAAACTTCTCCAAGAAATGGAGAAGAAATCTAG
0.7245639414173275 AGGAAAAGGTTTGGGACTAATCTCTACCTTAAGGGTAGGACAGTTAGAGGGATAGACACCCCCTGGTGTTGGGAAATGAGATTTTTCTCATTTCAGGTGA
0.03132033123512076 ATGCCTCTGCGTGTGAGTGTGGAACCTGGTCGACTGCTGTGACACTCTTTGGGAAGACAGTCGGCATTTTCCACTTCCAGCAGCAGGTGGCAGTATGGGC
0.3713320417623108 ATCAAAGGTACCATGCACATTTTAGAGACAAAAGCTGGCATTGCCATCCAGTGGCGACATCCGGTATTGCATGTTCAACCAAACCCCGTTTGTTTTGCTT
0.8577908333967031 ACTGCCCTAAATTGTCTTAAGCCTGTGGCATTGGCTTTCAGAAGAACATTTAAACACTGCCACATGCTGTTCATCTGTGTGTCCTGCAGTCTGAGAGTTC
0.06953173838131058 CCCCACAGACGTAACCTTTATCTCCCACCAGAGGGCACCAGTAACCTATAAAAATCTAAGGGGGCGGGCGGTCCCTCTTGCCCTTAACATCGTTGAATCT
1 ATGCCGCGCAGGCGCAGTGCTCTTCTCTCCGCGGGCCGGGCCGGGTCAGGGTCAGGATCTGACCCGAGTCTGGGTCAAGCCATGGCGGGCGGCAGGCAGC
0.4361460756456643 GTCCGGAGCCGTCCTGTGCCGGGCCGTCCGGTGGGGGGCACTGCAGACCGCGCGGGCGCTGCGCCCGCCTCTAGCTCCGGGCGCAGAGGGGTGGCCACGC
0.9801501857554763 TACGGTATTTCCTAGAGAAGACATTAGTAACATTCCTATCCACCACTGCCACCTAACGACTCTTTTAGGTACTAGCAGCTCTGGTTCCGTTTCCTGATTT
0.8015393987231643 CTGGCTGTGGCCTCGCAGGACCAGGAATGCGTTTGTGTGTAATTATGTCACCCTCTAGCGGTGACTTCCCTACTAGCCCTTTATCCTTGAAAAGCCCACT
1 TTTTTTTTTTTTTTTTGCTTTGGGTAAGTCAGAGCAACCCCTGGTGGCAGGAATTTTCATGCCTGGGGCATGGAAGTGGGTGGCTTGGGCTATGTGGCTT
0.02458926817996548 TTTTTGGAGACGGCTCCCACCGGGTGTGCTGCCCTTGCCGTCCAGCAGGTGGCGCGCCCGGGCAGGTTCCAAAGGTCGTCAGGCGTCCCGCCCACCCCCT
0.4622766622721804 TGAAGCTTGGTCAGTGGTATACTGCCCATATCCACAAGGTGTCATTATAACATTGTATTTGGTTTGAAACCTTTCTTGCATTTTTCACTCATTTGTTTTC
0.4906394966061665 AGGACCTCAGGCTTTCTTCCCTCTGTGAGCTTCAGTCACCAGATGGCGCACTAAACACACACACCAGAGAGGACCTAACACTCCACCGCCGCCGTTAGTC
0.5954754156523221 AAAACCCTCAAGCAGTACTAGTTTTCTTGATGGCTGTCTGGCCTCTTGTGGCTGGCATCAGGTATTGCAGTTTCTGGTAACTGAAAGGAAGACTTCCATG
0.6907950734381554 AAGTGGTTATTTTGCATTACTAGGTAGTTCTGGCTTTTCATGTTCCAGTGCATAACACTAGCACCATGTGGAGGCCAGGACTGGTACTACATGTTTTCAG
0.1497301424053728 GTAATATATAAAAGCATGTCACATTGTGAACAGCAGGGGGCAATGTTGTATTCCCAACAGGCTGCAAAGCCCAGCACTAACAATTCCTCCTTTCCCTCAA
0.5828456959377974 CGGCGGCGGCAGCCAAGAGAGCACTTCCTCCGCGCGGCGGTCGCGGGGCTTCGCAGCGCCCCCTCCCGCCGCCGCCCCGCAACTCACCCCGGCGGCCCCG
0.6660416467350561 TGCAGGTCCTCCAGTGATTCCCCTTAAGAATGCCCCTTTCAAAGCCACCCCCCCATCGCAGCGGCACAGCTCCCTCTAGAGTTCCTTCACACTCACATCC
0.2399147329496689 GCCAAAATGTCTGACTTCCAAACTTTTCTCTCTGATTCAGATTTCCCCCTAGTGGCGGTTATTAGGAACGGAAATAGGAAACAAATGGCAGAAAATCTAT
0.5169304770202501 TCTTCTCAGACCCTGACACCCAGCAAACATAGACAAGAGTGACACCCAGTGGCCAGTCGGACGGCAGCGTGCAGAGACTTCAGCGGCTTGCTTGCGTGGA
0.7325353673002144 CCAGAGCCGCGGGCCGCGAGGTGGTGCCCACAACCAGCACGCCGTCAGCCCCCGCGCCGCAGCCCCCGTCCAGGCAGGCCAGGAGCGGCACCTGCAGCGC
0.05530706325901848 GGAAGGCTCAGACGCAAGGCTAGGGCGCCATCTCCTGGTCGATTTTGAATATGACAAAATTGAACTTGGATTGAGACTCGTGTTAATAGAGGTGAAAATC
0.7216720970363357 CCATGATTAAAAGCTTTTATATTAACGGGGGAACCTCTGACCAGAAAGAGCCGACAGGGGGCGTTCCTGGATGATCTGGGGCTGTCAATTGCGAGACGCG
0.4745181218596349 AGGGACTTTCCAAGGGGCCTGTTACATGGCAAATGATCACCTTGGAATAGTGAGTTGGGCTCCCCCTGCTGTTAAGAAACAGACTAGCGTAAGTGCGCAG
0.3481250825756169 TTTGTGGTCTCGGCCCGCGGGCGACTCACCCCACCCACCAGGATCCCACGAAGCCGGGCCGGCTCAGCCCGCTGGCGCCATCTAGTGTCGAATGAGGAGG
1 AGACAAACACTCCAGGACCACCCTTCAGCTTTGGTGTAGAGACCGTTTTGGACGATAGAGGGCAGTCCGGGTGCACAAATGCTGTAGGAAGTGGCTGAAC
0.9884692027725774 GCCCTGCAGTTATTGCCTAAGCCTTCCTGGATCCTTTTGACGCAGCGTGACTGCCCTCTTCAGGCTGCATAAGTATATATTAGAATTTATGGCGTTCACT
0.4044357214566768 GTCAACAGTTAGATACGGGAAAGTGGAATTTGCAGGTTTTAAATATAGAATTGTTGTGTGAGATCAGCCCCTGGTGGTCACCTTAACTATTACAATTGTT
1 GGACGCGGTCCCGGCTCGCGTAGCCCCGCAGGCGGCGCCAGAGCGCAAGCCCGCCTCGTGACTCCGGTCCACAGTCCGGCCGGGCGGAGCTAGGGGCGGG
0.5468164753196196 CAAAACTTTTGCCCGGTTCCAACACCCTATAGATGCAGTATGAGTGCATCACCAGTAGATGACACTATTGTATATTTAATAACAAACTAGATTCTTGTTT
0.4261265210022985 AAATGATGAGGATTTCAGACCAGGACAGAAGGGGAAGGGGACGCCAGGGGGAGCTAAAGCGGAGAGAAAAAGGGACTGGGCCGCTCCGCTGAAATCTTAT
0.4383468501854743 AAACCTCCCTACGAGGGGAAACTACAGGCGCGCTGCCGGAGGGCGCCGCCAGTGGGCACTCACGCACAGCTGCTTTGGCCACCACAGGCGCCCCGGGCCA
1 AGGTTATAGTCCTCAGTCAATTAATGTTTCCTCGGTGTATAGCGACCCCTGTCTGCAGGAATGCTGTGTGGAGTACACTCTCAAGAAGGAGGTGATGTAA
0.1837323521974309 TTCACCTCATTTCAGCTTTTTCTAAAACTAATGCAGAACTGTAGTCTATCCCTAGGTGGCGCATTAAGCTAAATTTTTGAGAACCTGCTGCCCCGCACCG
0.4145601371879583 CACTAGCTAGGTGCGCCGCCCACCCGCGGCCTCACGGGGGCGCCCGAGTCCACTGAATGAGCCCGGCGGGGCCGACAGCAGCAGTCGAGCGCGGGTGCGC
0.1144348914796791 CTTCCCAGAGGGTGGCTCTGGGGCCACTCCTGAGTGTCACTCCCAGTGTGACCAGCAGGTGGGGCAATGACCACGGAAGACCCTGAAGAGCTGCAACTCC
0.8312985744080099 AAAAAGCTTCCACGCCCTAGCCTTATAGAACAAGTCACCTTCCATTTGTCACCAGTAGAAGGCGACAACACGATGGATTAAAGCTGGTCCTTAGCGAAGG
0.01360542252815159 CCTCCCCGGCCTTGGAGCCCAACCTGGACTCTGCAGTTGGTCCTTTGGCGCCATCTGATGGTAGACATATGAAACTACAGCAAATGGGGGGACTGGTGAA
0.01831389092550493 CCCTTTCGAGTGTCATAGATGTTAAACATTTCACTTGATTCATGGGTGCCATCTGGTGGAGGAAAGGCTAACTACAGATGCATGCTTCACCAAAACATGT
0.7931134331355181 ATTTTTTCAGATTTCTAAAACATTACAACAAATGCACACATGAGGGCGCTCTAATCAGACAGATACGGAGAGGGTAGGCATTTGTTGACTGTTAAGTTCA
1 GGGCACTGAGGTCTGGGCCAGGCCGCTTGGAGGCACCAGAGCCTCAGAGGAGGGGTGGGGTAGAGGAACGGATCCAGCATGGTGTCCCCCTTGGCCACCA
0.2330223770800194 TTCAGCCTGAGAGGCTGTTCCAAGAATGTTGCTTTACTAGGAGCTCATGCCGCCTGGTGGTAAATATGAAGTACAGCAGTGCAACAGACCAGTTTTACTC
0.318125825811637 GCCTCCCAGGTTCGTGAGGCAAGTCCCTTTCCTGGCTTTTTGGCGTCCTCTTGTGCGGTACTGACACCTACTGCTCTTACTAAGTAGTGCAGCCTCCTCA
0.6169351376501968 AATCGCTGGTCCGAGCTCCCCAGCCTCCCTTTTGCAAAAAGCAAAAATACGTTATCGTCACTAGGGGGCGGAAGTAGGCCAGCAATCGGTCTCTAGTACT
0.4026554548021283 TCACAGCAGTCTGACAACTTTGTCTGAGAAAAAATGCAGAAGAGCTCCCTCCAGTGGAGTACTTCTATTTCGGGCATTGAAAGTTAGCAATTTAATCCTA
0.8540114558930036 TAGAGCGGTAGGAACCGACGCGAGCAGTCCTGCAGCGTCCCCTGGCGGAGCGGAGGCTCAACGCCAGACTCTGGAGGACTTGGGATAATTTTCGAAAACT
0.3599511832169566 GAGCAGCCCCTGTTGGCTCCGAAGGTAATAACAGCTTTTCGCAGAGACGTTTTGAATATGCGCCGGTAGGGGGCAGCGATGAGGCGGTTGCAAATCCCCA
1 ATCCATGTTTGCCCTGCATGCCACTACCCTGTGCCACCACCAGACAGCAGCACATGCCTACCTGAAACCAAGCCATCCCACAGCAGCTGGGAGGGAGGCT
0.5577539673828213 TGCGGCGCCGAAGCCGCGTGTCTCCGAACGGACGGTAGATGGCAGCAGACCGCATAATTTGGGTCACAGCGAACTGTCTAAGGGAGGATTTATAACCCTC
0.3707916702246757 AAGGGATAATTGTGCTTACACCAGTTAGCTTTTCACACTTCTCTCTCTCCCGGTGCAGCACTGCCGGTAGGGGGAGCAGTGAGCTCCAAGTTTCCAGGAA
0.7869649424103795 AGCTGCAGGGGAGACCGTACCGCGAGCCACTCAGAAGGAGGCGCTGCAGGACCATGCAAGGCCCAGCAGTGTGGGAGGGGCCAGGTTGGCCTGCGGTGCC
0.5522221182271786 CTGTGCAGTATGACAAACCCTGCCTAAGAGATCCGGGTCTGCATACACGTGTCTCTACTGCCATCTTCTGACGAGCCATCCAGCACAGCCATCCATTAGC
0.1443632966223758 GGGAAACTGTGAGCAGCCAACTAACTGTGACACCTCATGACCAGAAGAGGGCGCAGTGGGCCCAGCTTGGAATGGCAGTGAGGGTGGCTCAGACTGAGGG
0.03617591473532279 TAACTGAAAGAGCCAACGAGCCCATCTCGATCTTTTTTCCTCAACTTTTATTGGGCCGCTGTGGCACCAGAATCTACGAATGGCGCCCTCTAGAGTTGTG
0.1777132799520888 CAGGTTTGAGAAACACCCTTTGGTTGGGGAAGTAAGCACCAGACACCCCCTGCTGGCTGAAAGTGGAATTCAGGTTCGTGGTCCCGCTGCAGCCTGGGAG
0.1265219408862488 GCAGAAATTCAAGGTGACTGGCAATGACACTTTCTATCACTGCGCCCCCTGCAGGCCAGGAAATCTACGCTCGTTTTCTCAAGGCCCCACTCGCAGCAGC
0.8016265820108391 GGTTGCAGTGAGCCGAGACAGCACTCCACCTAAGCAGCAGAGGGCGACTCAGTCTCAAAAAAAAACAATGCTCGTGTGTGATAATGGGACAGAACCAGTC
0.008156948182880045 CACGCGGCCCTGGAGCGCGGTGGCTGGGCCCGTAGCGCCACCTGGCGGCGGATCAGGGCCCCCGCGCCCTTGCGTCCTCGGAAGGGGGAGGGGAAGGGAC
0.2015184714145636 TGTTCTGAAACCTTCCTGCAGCATCAAACACCTGTCCTATGTCACATTACCACTGGGACTCTGCCCTCTTCTGGTCAATATGGGAACTGATCTTTTTTTT
0.5958589501874169 CAGTCGGTCAGCAGCTCCTCCCGGCGCGGGACCCAGCGGCCTCGAGCGCTTCCCCGGGGCCGAAGCGACACCTGGCGGACGGTGCGGGACGTGCGTTCCC
0.5384128275525527 GGAGTCAACACAGGCGCTGCCAAGGCGCAGAGGAGCGGGCGCTGCCAGGACTCGAGCGCCATCTACAGCCCGCGGAGGCGCCGCACGGACCCCACAGGCA
0.6460995222693972 ACCCACAGTCAGAGGGAAGAGCCTTCCCTCCCCAGCTGCCGAGGCCTGTGAAAATGGCGCCACCTGTCGGCCAGGCTCAGGATGGCGTCTGAGTCCCGGA
0.6199303310387633 GAAAGATTCCCTTATTCTCAAAGGGAACAATATGAAGTTTTCCTATTTCAGCAGCAGGGGGAGCCTGAACACCGCATAGGAAAGGCTTGGGAGGTCAGAC
0.5912262527056231 GGAGGAGGGGATTTGACTGGTCCTCACCCTCTGCATTTATAGTCTGGGCACACCTTGGGCAGTGCCGCAGGAGGGCGCTGTGGAGTACAGGCACATGCAG
0.1257986284021055 GGTCCAGAGAGAGAAGGTGAGGTGGGAGGAGGAAGATGCAGGGGTGTTGGCGCCCCCTGCCGGGGAACATCCTCCATGACTGTTTTAAATCTCAAAGAGA
0.7576243105753422 TGTAGCAATGTGGACTCGTGAGTGAGGCTTGCCACCGACCGCCAGGGGGAACCATGCACTCGCCTGCGTGCTGCAAGGGACACTATCCGAGTTTGATGTT
1 TTCTTGATGGATATTCTCTGCTCTAATTAAAACACTGGGCTTCTGCGTGAAGAAGGAAGAACCGGGAGCAACGAGGGCGGGAGGAGCCTTGTAACCAGGC
0.663415437145629 GGGATGTGGGTCCCCTCATCGGCCATTACAAAGAGGCACACTAGGCGGCGCCCATGGCACATCCAAGCAGTCACCTGTTGCTCCCGGGGTCTCACTGGAG
0.1894677278324776 TTGCGGGGTGGCGGCGTCGGGGCTGCGGGCGCCTTGGCTGGACCCGCATTGCCCCCTAGTGCCGCGCGGAGTCAGGGCGCCGGGCTCCCCCGCCTGATGT
0.8171897647935273 CCTCCGTGGACGCCCCTGGGAAGCCAGGCTCCCACGCCCCCTGTCGGCCGGCTGACCGCGGCGGGCTTCAGGCGTCAGACGCGCTGCTCCCTGCGGGGCC
1 CTCACTTTTTTTTTTTTTTTTTTTTTAAAGAGATGCCCAGGAAGGCAGCCAGATGGCAGCATCGTTCCTACACTGTCTCTGCACTCCCAAAGGCAGTTTC
0.4884175014464451 AATCCTTGCTTCTACGTTCGCCGTAAACGTTTCACAAATCCTACCACCAGGAGGTGCTGTCATGCCACTGCTGTGCAGGCTCTCCAAAGAGGCCCGAAAC
0.3834966695854982 CCTCAGGAAAGGAGTCTTGTACTGCATAATTGCTCCCGTGTAAACAGCGGCATCTAGTGGTCTTTGGGGAGAATAAATCAGAGGATGTGATTTAAACCCT
0.2454546388863542 TGGGAAGCCGCGTCAGGAGGGCATGTTTCCAGTGAACGCCTCTGGGGGGCAGCAGAGGCCACAGAACGCTCCTGTGCAGCGCTGGGGCTGGGCTGGGGCT
0.8240550805551925 TGGCTGAAGTGCACCCATTAGGTTGTCACGGGTTCCCTCCTGTGGCCACAGCCGGCACAGCACTCTGCGGCACAGTTTGTGGGTGGAGATTCTGAGTTCT
0.6724625818899976 TGGGGACCAGTCCAACCGCTCAGCCATAAGCCATGGAGCCAGAAGAGGGAGCTAACGGCTCAGAGCTGGAGACCCAGTCCACGCGGCGCTTACCTGATGG
0.3382585412665903 GGCCCTACCTGAGGCTGTAGCTGTCCACCATTGTCATTGTATCTTATAGCCACATGGTGTCGCTGTTGACAACTTGTCTTTTCAAATCAGTCAAATGATG
1 AGCTGGCCCAAGCGGGTGAATTGACTGTGAACTTGTACTAAAGCGTGCTCTGCTGGCGATTCCTAGGGTGTGCAGATTTATCTTCTCTGCATTTACTTAA
0.9468803764911566 CAGTGTGCCTAATGGCTGCCGCGCAACGCATGCAGAGCGTGGTGTCGGTCGACCCCTGCTGGAGATGCCGGGACTTGCGTGCGTCAGTCCACTCAAACCT
0.5676897086368415 AGCTTCCGGGACACCGAGAAACCCATGTGGGCGTTTTCCAGGTACCACGCGCGCCCTCCAGTGGTGGTTGCGGGAATGACGGCTGGTCGGGACCAGAAGA
1 TCAGGCAGTGGTGTGGGGCTGCAATTCACACAAATGGCCACTGGATGATGCCAGAGGACCGGCTCTGGATGCTTAAGTCCTCACTGCCTCCCTGGAGGGA
0.6191829964967457 CGCATGTACTCTGGAGTGTTGCTCTCACCTCTGCCAGCAGGAGGAGCTCTTGCACTCATGTGAGAACTGAAGTCAGCCATGCCTCCATGCTCAAGCAAAT
0.6573497016728296 AGTTATCATCCAAGGCTGCAGTAGACGACAATGGCCACTAAGGGGAGCCACACAACCTGTCAAAGAGCAGCATTCGACAGAAAAAAACACACCCAGTATG
0.5488456299969995 AGACCTCAGTCACAGTCCCACACTAATAGCTGCCTTTTAGTAAAATAGTGACATCCAGTGGACAAATGAAATATTTCTCAAATTCCCATATTTGAATCAT
0.04866275109027264 ATGGGCCCTGGGCAGCCAGCCCTGGATACAGAGCCGTGGTGAGATTGCCCCCTGCTGGATACTGCCGGCTCCTCCAGGCACCCCGGCCCTGGGGATCAAT
0.1390707070680627 TCCTGAGAGGAGGCACATGCAATGACCAGCCATAGCCACTAGGGGGAAGCATTTGCTTGTGAAACCAACGACCTAACCGACCAGTAGCCAACTCAGATTC
0.05386530064731271 ATGAATGACTAGCACTTCCAGCTCTACAGGTCTCCTGCAAGGAGAACAGTGACATCTAGTGACCACTTTCACACTCTTGGGATTCTCTGATCACACACCA
0.4706253349818833 GTTGTCACCGAGCGCCCCGCCCACCGCGTTCTCCGACCCGCGGCCGGCAGGGGGCTCGCGGCCTCCGCCAGGCGTCCTTCGGCTCCGTCAGTTCCCACAG
0.548266881868257 TAACAACCCAACGTAGTTACTCCCAATCTCCAAATACTGGACATTTAGATTCCGTCAGTAGATGGCGCACGGAGCTCTTCCACGGACGTCCTTACGTGAC
1 CGCGGGGGCGGGGCCGCAGGGCCGGGAGGTCGCCGAGCAGCGGCCGCAGGAGGGCGCCTCAGGACTGGGCGCAGCGCTGGGCCCGGGACCGGCGCGGCGC
0.5298537418693959 GTTATCGTCTAATAATGAAAAGTGAACTTCTGAGGGCCCACCAATAGGTGGCGCAACACATTCACCGAACCAAGTAACACTGCAGACGAGTTTGGAACAA
0.2147511293539774 GGCGGAGGAAGGCGGGGCAGGGCGCGGCCGGAGCTCCGCGGCCAGCCGCCAGGGGGCAGCCGCGCGTCTGCGTCCCGCGGGCGGCTAGAACCAGTCCTGC
1 CTAGGATCCCACTCTACTTGCAGTTCACAACGTCTGTCACGTGAGGGCAGCATAATCACATACAGGCCAGCTGTCTGGTTTGACCTTAAGTCAGAAGAAC
0.9310871865073953 GCTGGGGGCCAGGGGTGCCCAGCGGTTTCAAGGCTCACGGCGCACTCTAGTGGCAGAAGCTAGGCGCCTCTTCTACGTCTTCCCTCCGCCCTCGCCTCCT
0.07797395389456618 CTCACAGAATTACAAGTACAAATCTTGACGCTAGGTGGCAGAATTAGGCTGCATTAATCTTGACCTCTTTTGCTTCCTTATTTCTTTCTCTACATAGCAT
0.8697345492199865 GGCCTGTGGCTGCTTCCAGCCTGGGAAAGGGATGGGCCACAAGATGGCGCCGCGCGTGCGGCGGTGAAGGCCGAGGCCGCCAGTGCCAGGTGGATGCCCG
0.09839375138304943 TGGAGGTCAAGCCCTTCCCTTCACTGCTCCTGCCTTTTGGCACCATCTGCTGGCCATTTCGAAATTGTTACCTCCTCATTGCGCCCTTTAAGAAAAACAT
0.165835514844479 GTGAGAGGGCTCCCCATTCTAACACTGTTTCTGATAGGGAAGTTAACGGTGAAACGACCCCTGCTGGCTGAGAACTGCAAATTCAGCAGGGCATACTTGA
0.05331788528058324 TCTAGGAAGGCTCTACTCCACACAAGCTGTGCCACATGAAGGACGCCCTCTGGTGCCAGAATTATTCTCGGGGGGGCCCAGAACCAGTTACTATACCTTG
0.3748002528692478 CACGTTTCACCAGTTTATTTTAGGAACCAGTGAGCTACACTAGAGGGCAGACTAACCTAGACCTTTTTATTCCCTTCCAATGAGAGTCTAATCCATTGTG
0.03843685228710772 ATCCATCTTAGCAACCAAGTGGAGAATCTGGCCCCTCGCCACTAGAGGGGGGTGTTTCTTTTATTGGTTTCTCTTTCCCCCTAATTCGGCTGACCAGAAT
0.8291286597233596 GCCGCCGGGTAGCGCACGGAGCTTAGGTAGCTCGAGCGGCCCCTGGTGGACGCGCGCGGAGCAGCAACCCGACCCCGGCGAGCAAGCGCGCACGAAGAAT
0.3271604132182676 CAGAAGTTAGGGAGAGCTGCCACACGGCGGCGCTGTGGTGCAGGAAAAAAGCCCGAGGGCTGGTCCAGAGTCAGAGACCTGCATTCGGCTTGGGCTCTAT
0.1273854974341556 AAAGCCTGCAAAAGGATCGAAGAGTGGAAACTATTGTTGGAGCGAGTTGGTTTTTACCTCAACAGCGCCACCTTTCGGCAAAGGTCAGTTGAAATTGATC
0.3144413574654529 TTGGCGCTGCAATGCCGTCAATAACCCCCGATGACCATTAGAGGGCACACTGATTCCACAGCAGTCTGCACCGGGGGCCCAGCTGTCAAGTGCTCCAAAA
0.1388806399858872 AGGTGCTCAACCATTAAGTTTTGAACGAATGTAGTTGAACTCTCATGGAGAAGCAGCACCATCTTCTGGCTGAAGTGGGTAATGCTGCACAGGGCCAGAG
0.1220941385416474 TTTTTTAAAAGGTATTGCTGGTGACACAGATCTACACATCTAAACACTAGGGGGCAACCTTGCCTTTTGTGTCACCAATCAAAGCCATTTTACAGAACCA
0.1089921774618914 AAAGTGCATTTTAGCAATCCGCCACCAGGTGGAAGAGTCGAATTAAGAATAGAGTCGCTCCACTGCCGTCCTCCGACAGCAATAGTCGGGACCGCAAAAA
0.3292823616241882 ACTCCCTATACTTAAAAACCTAGATGCCTCTGAGGAGTCAGATTTCAATAGTGTGATAAGGGCTCCTCCTGGTGGATCTACATAAAATGAGAAAAGAATC
0.1658855861413456 AGCTTTGGTACTAAATGAAAACAGACTTGAGAGCTGTGTAGACACAACAGCCTTTGCCAGGAGAGGGCACTCTCCGGCTCAAGTCAAATCCGCAGCAAGA
0.2139408984427614 ACCTTAGTCCCCGCAAATACATCTCCAGGGCTTCCCAGGCCTCCCATCTTTCCCTCGGCACAGGCTCGGGGCGCCCTCTTGTGTTACAAATGAATTACTG
0.1737810533982591 AGTGCTACTTATTAGCTATAAGACAGGGAGCTACTTTGTGATGGCTTGCTACTGCCTTCTAGTGGTTAATTTTGACATTTTCTTTATATTTACATACTCC
0.8902910703447706 CCGCGCCTGAGCCCTCTAAGAGCCCCCGCCTGGCGTCGCTGTAGGCAAATCCCAAAGAACGTGTCCCTTCAGCAGCCGGCTGGGGCGCCACAAACACTAT
1 TAAGCAGTTCCGCCTTTTGCCTCTAGATGTCTCACCTGGAATTCCCATTGTATAATAGAAGATCTTCTGATGCAACACCCCACTATAGGGCTTGGCTGAA
0.1601688109383073 GGCACTTTGATTTTCGACATTTTCAACAATTTATTAATCCCCAGGATGGCCAATAGAGGGCAGACGATCTCTTCTTCTAGACCTCCATCAGAAATACTTC
0.2944436052883677 CCGCTGAGTCTGGCCTGCTGTTTTTCTGGCATTTTTTCATCTGTGCTGCCATCTAGAGAGGAGAATTGGAAACACGCAAAAATAAAGTCCCAAGATGGAG
0.6747623874934856 CAGGAATTTTATGATTCAAACGATCCATGGTCTCTGAAAATAATCATGCATGAGTAAGCTGCTCCATCTACTGGGCATCTCTTAAATTACAAATAAGATT
0.5833407399908102 CTCCAACTTCACCAGCAGCAGCAAAGAACCTTTGTTGAGCAATACTGTCCCCTTGTGTCCAATCTTCACTTAATGCTTTCCTAAGTTAAGTACAGCTGCT
0.7648290842852329 AGGCCAGAGATAGTTGCAATTAAACTCGACCCCACCAGGTGCCGCTGTTGTTGCTGCCAAACAGAGATGCCCACAGCTTCCTCGTCCGTGCTTTCTGCCT
1 GTTCTTTCGCTCTCCCCCCTCCCTCAGCTCCTCTACTCCCTCTACTGAGCCACAGCTAAACTGCATCCAATTCGATCCCGAGTACCTTTCTCTGGGTAAG
0.3949582050882285 TACACAATGACTAGGAGGAGTTGTGTAAGAAGACATGGTACAAAAAGTGCTATACTTCCACCTGGTGGAGAGAAGAAAGAGCGTGGGCCATTGAACAAAG
0.8694390895043707 CAGCAAGGCTGCAGCTCAGACTAATTCCAGGTACATTCTATAGGTGGCATCATGCTACTGGAAATGGCCTCCTTGGAGAAAGAGGCTCTCTTGTCAGCAT
0.0910592909702455 TTTCTTGGCTTTGTCAATAAATTACAGTTACTGTGAACAACCAGCAGAGGGTGCAGCTAAATAACTGGGAATTTTGTTTGAAGTTTTTGTTTTTTTCCTT
0.6556397759929663 AGATGGGAAGCAAGTATGCTATTTTAGCCAGGTCTGTGGTGACACCTAATGGTAAAATGGGGAACTGCCTGATCTTACTAAACTTCCATCAACCTATTAA
0.6462538256977051 GAAATGACTATGGTTAACAGTGATGATTCTGTAATGTGAGAAGTTCGCCACTGGAGGGAGCCCATGTGCAGTCATCGACCTGGGGCCACCAATGAGCTTA
1 GCATGTCACTGGAGAGACACCAACTGCAGAAAGCTGATACATAATTGTGTATGAGTGGAATACAAAATGAAACCATCAAAGTGTCCTTAGCAAATAGCAA
0.5986849466240993 CAGCCCTCAAATGCATCCGTCTCATTCATCCTCATACACCGCCAGGTGGAGCCACTGAATGCTCTCCCCATTTTACAAGTGAGAAAGCTGTGATCAGAAA
0.3557123179106171 TTTCCCTACCTCTTGGTTGACACCTGGTGGAAATTCTAGGTAAAGTACCTGGGGCCTTGTACTAGCTTTGATTACAGATACTACTTGTGTTTTTTCTCCA
0.0827145652497937 GAGCTGACGAGTTCTCTTGAGCGCTAATTTAAAACCTGTTGAAGTCACATGGCTGGCACTGACCCCTGGTGGTGATGTATTTTCATTTCTATACAAAATA
0.6837542625670324 ATTGCCTGTTACTAGGGACTGAGTGCTGTGGGCACAGCCTGCCTCTAGGTGTCTCTATCTGGATCCACAGGTCTGCAGTTGTGGATTCCCGGACCTGCAA
0.645486522983006 CAATGCTGCCGAAGGCTGAAAACAGCAGTGGCTCCATGCTGCTATCTGGTGGTATACTGCTGCATTGCCTCCCCCAGTAAGTCCTAATCTCCAGCTCATG
0.3608333768875006 AGTAACTTCCCTTTAGAAAAGAATCCCTGTGTTATACATGAAAGTTGTGCTCCCCCTGGAGGAGAAATTGGGGTACAACATTGGTTGAAAACAGCACCTG
0.6380764676950572 AGAAATGAGAAAGCCTCGGAGAACTGCTAAGCCGGCGCTGCAGTAAGCCCGGAATCCGCTAGGTGTCAGGGCAGAACTCTGCTGCCTGAGTTCTGCGAGG
0.6137765872746468 AGGGGAAGAAAGTTAACTGGCAGAGGGGACAGGGGTGAGAAAGGAGGGACCTGCCGCTAGAGGGAGCGAAGAGCAGGGAGGCAGTTTGGGACACTTGGCA
0.1472017889657887 AGAGAATCAGTTTTCATTCAAATAAATTTCCACTTATTTTTAACCCCTGGGAGCCCTCTAGTGTCCTGTTCGCAAACAGACTCAGAAATGTCAGTCTCAT
0.2530604715567124 TTCCTTTTTCTGAACTTGGAACTACTCCCTCTGGTGGTGGATTTTTTCAGGGTATTTCTTTTCCTGAAATCTCCACCCGTCCTCCTTTGGGCAGTACCGA
0.1003109838058501 GCATTTCCCTGCTGCCCTGCACTCCGTGCCCTTCTTTCCCTAGTACTTCTAGCGCCCCCCAGTGGAATGATTGCAGGGACAAATTGGGATGTTTTTTACT
1 TTTCAGAGTGTTGAACTTAGTGTGCGCACGAATTCATAGACTGCTTGCAATACCTCTTAGTGCCACAAGGCGCCGCTAGTGACCTCGTTGAGTCTTCCCA
0.1652870224957389 GAGCGAGCGGGCCCTGCCCGGGTGGGGACCCTGCGCCCCCTACCGCCAGGTCGGGCCGCAGGGCGCGGTACTGCTCGCGGGCCAGGAAGCCGCGGCGTTG
0.3740727926342112 GTTCAGTTAAAAACTGTTTGAAGTTTTGCTTCCTGTGAATTCAAAACCCATGGAGTGCTGCCCTCTTTTGGCTAAGATAGCACAGAGTCCAAAGCACCAC
0.0321731676013543 CTGTGGAGCGAGTAATCCTCAAAATGACCACAAGATGGCATCACCGCCCCATGCTCCAAATAAGGAAACTGAGGCCTGGAGCTGGTCCCATAGTCCCTGC
0.4571214166442041 AAAGGAATCTGTTAGCACCATCTTGTGACTATTTTGGTACCGCTTAAAGAACAAAATTTTCAGCCTGAGGCTTGCTTGTGTTCAAAAAGGCGTCTTCTCG
0.3363335987797106 CGCGCTTGGAAAATGAGATCTCTCAGTTCTCCATGAGGTGGCAGCAGCTCCTCAGTAACATGAGAGACCCTGTGGTGAAGGTCAAGTTCAAAGACGCCTT
0.8805398118221857 GCCTCTCTGCCTTCAGTGCCCTCACAGCACAAATATCCCCAGGCTGGCCAGAGGAGGGCCCCCTCTCCACTCCACACAAAGACCTGCTCTTGATTTGTGG
1 GCGCTGTGGAAGATAGATACCAAAGCAGTCCTGCATGATTCTTTCCCGCTTGGACAAAAATAAATGAATAAGAATGAAAACAAACCCCGACAGTTAGAAA
0.9539096467923091 CTGGTGGCTGTTAAGAGCGCTGGCCACCAGATGTCGCTGCGGCCACACCAGCCTCCCCGCCCTGACTCAGCCCACCTCCCACCTGTCTGACTTGCTCACC
0.511040319188044 CCCTCACCTGCGGCAGTAGCGCTGACACTTCCTCCTCCAGACACTAGAGGCCGCTGTTGGCCCCATCGCCTCCACCGCCGCCGCAGAAATGAATTCCTAA
0.4714164321579272 CACTAATTTTTAATAGACATTTTGATGGGTAAAAGGCTTTTTGAGACCCCTGCTGACAGCAGAGGAGAACTGCATCCAGATGTTCATTACTTACTAGAAA
0.4507642067885624 AGTCTTTTTCCAGACCTTTTTTCAACTGTCAGCACAGTTGAATTCCCAGTGGCCTCTGGAGGGCACTATTCAGTTAAGTTTATTCCACGGTAGTGAGCAC
0.4480221647189352 TGAGTTCCTGGCCATCTGTTAAATGTGTGCCATGACAGACGATGGACAGTAGAGGGCAGACAATCCCCGCACAGCAGCAAAGGCTGGACTTCGGAGGAGT
1 CTACAGCGGAGGCAGCTGGGATTCCGGCCTCGCACGCCCGAGCTTTAGCCACTGTGCGGCGCTGTCGGGGCAGCAGCCCAGGCATCCGCTCAGTTCCTGC
0.1687218000539346 TAGGAAAATGTCCCAAGACTATCTCAACAGGCCGCCGCAGGGCGCCATCTCGTGTTCTCAAATGGAACTGCAGCGGAGGAACCTTTGTAGTCCTGAGCCC
0.07272261276503926 AGCAGGTCCATTCACACACATGTCCCCTAGGGGGCGATAAAAGACAAACGAGAACTCTGGCCACAGGGCAGCTTGTTCTGGCCTGCAGGCTTGCAATTTT
1 GGAGTAAGTGCGGATCTGCGAAACCTAAGCAAGCATATTTCACCAGCACCTCCTAGGGGCCACGTGTGGATATGAGGATGGGAGGTGGGGACTCGCACAG
0.2716556474275684 TCCCTCTCCGCCAGCCCTTCCCAGGCTCCCCCTTCCATCCATTAAGAAACACTGGCATCTAGTGGTTGTGTGAGGGACCTGCAGCGCAGACCCGGCTTCC
0.0199406516924341 ACGACCAGGCTCACTAGCGTTTTTGAAAGAGAAGCGTTTGCTTGCTATGTACACTAGGGGGCGATGTAGGGCAAGCCATGCGTGCTGTATCTCTACTACC
0.3098964593359834 CAGCTTGGGCCCAGGGCCCCTGCAGGGCCAGGGCCCACTTGGGACAATCCTCAGTCCTGGGGTGCCCCCTCCTGGTTACTCTGGGAAATCATGCAAGTCA
0.4751615295592175 TTTGCATTCTTCAAAATGTGATCCAGGCTTTTCCCTGTGGCGAGGGTGTCCCCTAGTGTTGACTTACATTATTTCCACTTGTTTTAAATGAACTTTGATT
0.6219735108602333 CCAGGGTTGGACCCATCAGTTAGTACCGCTGCAGCTGAAGTCACATGGATCACAATTGCCATCTAGTGATGACTTTGAATTACTGCATCAAGAGACTACA
0.7985326525024601 CAAGGTTATTTACAGAAGTGGTTCTAGGAAGAGTCATCTTTAGTCAGATGCTGACACCCACTGGTGAAAGATACAAACCTTTCCTAATAGAGGATCTCTA
0.08495245177425577 GTCCCTCGGCAATTTCCGGAAGTGTTCGGGATAGGCCCGAGCGTGGCGCCCTCTGGCGGCGGCCAGAGGTGGCGGGGGGCGGGGGGAGGTTAGTGGGCCA
0.6780857169054414 TTCTAAAAAAGGGAGTGTACTTGGTGGCTGCATCAGGCAGGTGGCGATGTTGTACTGAGATAACACCTCTGAGTACTTCAGCAGCCATTAAGTCTTTACC
0.6051379367560467 TGGGTGGGACCCCCCGGGGCGGACACCGCCGCTCCCCTTGGCCGCGGTGGCGGGCGCCCCCTCCCGACGCTCTTGGGTAGTGCAACCCGGACCGCACAGC
0.2979263289461113 ATGGCCCCAAGAAAGAAAAGTGTTGCCCCGAGTGGCCACGAGGAGGCAGAGCAGTGCTATGGGAAGGTCACCGGCTTTAGCAAGCAGCTACACCAAAGAT
0.0624484178801035 TGAGTTTTTCCTAAATAGAAGTGTTTCCTATATAGAGGTATTTGCGCCCTCTACTGCCTTCAGCTGCTACTTCTCAGCAAATTATCCCCTGAATATAAAG
0.8196480663981386 CGCAGCCGACCCAGGGCTGCGGCTGCCTCGGCCCCGCCGCCAGGGGCCGCCCGACTGCCCGCTTCCCCAACGCCCAGGCTAGCCCGGGACCGCGGCGTCA
0.1307675503532008 ACAGCCTATCTTCCCCGAAGTGTCTTTCTTCCAAAGCAGAAGCTTGGGGGTTGATGGGGGCAGCTGCGCCACCTGTTGGCCTTTTAAGTTAATGGCGTCC
0.182939844342281 TGGGGGATGGAACAGTGCAGAGCAGGCCAAACTTTTCTCATGGAGTAACACCTCCATCTTGTGGCCTTTCAGGGTATTCCAAGTGGATCCAACTACCTGC
0.1917984853377651 TCTGCAGATTACAGATTGGATCCACAGAAAGCAGTTTGGATGGTTGAAATTCCCTCCACCAGAGGGCGACTCAGAGCTTTCCCCTGTAGCTCAGAGCTTT
0.3307457604348823 AGCGCAGGCAGAGACGGCGAGACTTCCGGGTCGGCGTTGCACACGGCGGCCGGCAGGCGGCGCTGGAGCCCCGCGTTTGGGCAGCCAGGACGCCCTTGCG
0.4157506136634143 TGTTTGAAAAGGAGACGTAGACTTTTGAGCTGTGAGGTGCTTTGTTGGAGCGTCCTCTTGTGGTCAAATGTCATCAATACAACTTTAGAGTCACTTTTTT
0.5498347910036906 CACTGATTGAGGTTCCCGATGCTGGTGAGACAAATATGAGACTCTGCTTCCCTCTGGTGTCATTCTGTGGGAAATACACTCGTTCCAAAGCATGACTGCG
0.2176273796319899 CTGATCAAAGGAGATGTTTGTGTTTGGCTAGGTTTTTACTAAAGCCCTTACTCCCTCTAGTGGGAAGACGGAGCTGTGCAGCATCCGTAGCAAGGTGTGT
0.5068309376031042 TGGAGATGACCTTACTTTGGAACAAAATGAACAGTGGATAAGGAGTGCCACCTTTTGGCTATTGCATGCTTTGACAGTTTCCAAGTTCAAGTGGATTTTG
0.3632030075396701 CCTTTTCCATTCCTTGATTCCTGGACCCTCGAATCCTGGCTAGAAGCAGCAGCGCCATCTATCGGACGCTAATTCGGAGCTTATGCCGCCTTCTGAACAA
0.1479727190473884 GCAAATTCTCCAAAAAGGCCAACGTGCTGCGTGGCTCCTGGCCACGAGGGGGCATGGTCTCCCTAGTCCTAGGCTAAGGAACCAACGATGGGGACCCTAG
0.3739267922523358 GTGCCACTGCACTGAAACCTCTGCAGTGTACGCTTCTGTCCCTAGATGGCACTGCTGTACTGTGCCCCTTCCCACCTGGTCCAGGTGTTCTGGGAAAAAG
0.02547295761251351 AGGATCCCGGCGTCCCAGCCCCGCCCGGTCTTGGCGCGGCCCTCGCCAGGGGGCGCCGCGCAGCCCGCCCGCCGCCCGCCAGTCTAGCACACACCCCCTC
0.2088048977406406 CCTCTTTCCCATGGGCCAAGTGCCATGGTGCAGTTCCCCTTTTGTCCAGCAGATGGAGCCCACCGCACAGTCACAGCTGGACACGGCACAGGCCTTAGAG
0.8009824785662987 TGCGGGGCCCACGCTGCTGGCGAGAGTCAAGAAGGAACGAAAAGAAGGAGCTCCATCTAGCGTTGTTACGAAACAAGACCAGCGGCATCCTGAACAGTTA
1 TGGACTTTGGCTAATTACTTATTCAAAGAGTGCCATCCTGTGTCTAAACAGAGTAATGAAATTTTTCCAACAGATTCTGTCTCCAAGTTGATTGGGTCAA
0.6213205898644176 TAAACTTCTCTCATTCTTGTTCCCTTTGCTACAGCAATACTGCCATCTTGCTGTGAAATGTGCACACCGATTTTATTTCCAACACTGTATTTTTGTGCTC
0.01906765318708577 GGATTTCCAGGCGCTTCAGAGCTGTTTAGAAGCGTCCAGACGCCCTCCAGTGGTGGGCCTGCAATCCGCACCCAGCAGGGGCATTGCCTGCCGCTCAGGC
0.5967257853707417 AGGACAACGAAGTCTTTACTCACCCCTCTGCCTCTGCGTCTTTTTGCTGGACTTTGCTGCCGCCTAGTGGCTCAGTTGTCATCACTTCCTTCTCTGAGAG
0.1261464968973936 GAAGAGCCAGCTGCGGTTAGTGGCTACCATATTGGCCAGCAGAGGTCTCCACTATCTAATTACCTATCATGGAAGTTGGAGAAAAACAATAAGCTCCTTT
0.8610440165592657 CTCCCCACCAATAAGCCCTGAAACAGATGACTCTTGTGCCAATCCTGCCCTCCAGTGGCTGAGTTTCCAGGTCACTTTGCCCTGGCTCTCCTCTCCCTTT
0.2960903552568871 AAATAAGAGCATCTTGATCTCTGTTAGTACCCTAGTTTAGCCACAAGATGGAGTAGTTTACAACCGAATAAGCAACTAGGCGCACAGAGACCAGGAGGAA
0.02707803602043425 AACTGACACTCTTGCAACTAAAGATTTGTCTCAGGAAGTAACAGTCAGTTACTGCCACCTAGAGGCATAATGTATAAGTATTTACATGCTTAAACTTAAT
0.3868897228110903 AACTGGCTGACAGACCAGCAGCTCAGAGATCAGTGACTTAGACAATGCTGCCACCTATCGACCAAAAATGGAAGTACGGCTGGTCTTAACAAATTTAGAG
0.3166147670881957 GAATAGCTTTCACTTCATTTTTGTGTACACAAAGGCACGATAGAAAATCTCCTATGTTCTTTTGCTGCCATCCAGTGGTTCTGATTGATAAATGCAATGA
1 TGAGATTATTTTCTTCTTGCATTCCTAGCCCTCTCAAGTTATGCCTTCGGCAAACTGCTTCTCTAAGTGCTAACCCAAGCTGGCCCTTAGATGCATTTGT
1 CTTCTGACACCAAGCTATTGGTGAAAGTGTAGTTCCCAAACACTGCCACAGAGTGGTGCCTGGTCTACACCCTGGGACTGGTAATTTACTGGAAATTCTA
0.03275347209709287 GATGCCCCGGCGCCTGCTGCGGCGTGAAGCAGCCCTGCCCCCTGCTGGCGACGCTGGGACAGCGCGGGTCCTCCAGTCCCTTCTTGCTCCTCCAGGCCTG
0.1221613672766803 GCCACTATACAACCGAAGGCACCTCCTCCCGCCTCCCTCCAGGTGGCGCTGTAGGACCGGCCCACCTTCCACAGCGCAGACGCCTCAGTTTGGCCTCCCT
1 CCTTCCCGAGTGATACCCATGAACTGCCAGTAGAGGCTGCTATCGTTCCATGTGTAAGGAATGAACTGGTTCAAGGCGCGTCCTACCCAGTCATTTTCTT
0.981943988273849 AGTAGCCAGTCCCCGAGGGCCCATCTTCCAGCCCTGAAGCGGTAAACGCCTCACCTCTAGTGGCGAGTGCGAGGAACCGCACCCTAGCCCGCCTGACTGT
0.1623197797316969 AGGGATGTGAGGAGCGGAGAAGCCGTGGCCCAAACAGGACCTGCTGGCTCCCTCTTGTGGAGAATAGGGAGAAAACATGCGGGAAGAAAAGGGGCTCTGT
0.219820712367286 CCAATGATGCCCAAGTAACCAGAAAAAAGTAGGACTACCGTAAAGCTAAGCTCAAGAGCACCACCTAGAGGTTTAGGTACCTAAATTACCTCTGGCTTAA
0.788235027478286 ATTTTTCCTTTGCCAGCTGCTGTGATGTTGAAACCTTGTCAGCAGAGAGCACTGGAGAGACATTGTGGGAGGAAAGAGTTTTGCTTCCTGGTTCAGGGTT
0.3682222629985097 CAACAAAATCTGGCACAAAGCCACAAAACCCATTCCTGCCGGATATGATGTTGCCACACTTCACCACTAGGGGACGACGAAGGTCACCCAGCGAATTTGG
0.2039660754893724 ATCAAACTTTGCAGTGAGCTGTTTATCCTTTATATTGCCACCAGGGGTCTCCAACAACTTCTGCAATGCCTGACAGAACTCAAAGTATCTTATAGCTGTC
0.2278393430267245 GCCAAAGCACGCTGTGCTGCACGCTGCCACTTTTGGTCACACAGCGCCCTCTGTCTGTAGCATCTCACCCCTCCTTCTCTGATCTCTATCTCTAGAAACT
0.04946319653233931 TCGCTTAGTGAGCTAATGGAAGTGACCCAGCTCTTCCAGGAGCTACCAGCAGAGGGAGCCCGCGTCTCACAAGTAAAAAGGGCAGGCTCAGTAGGGAGGG
1 GTCCCTTGTTTCACTTTGTGTTTCCTCAGTTGCCAGTAGGCTGTGCTGTGATGCTTTGCATTTATTTGGTTATATCATGTATACATTTATTCTGTGTCCT
0.6516816548851705 GTACAGAGTGGTGTGACCTGACCTAGGATATCGCGTGTAAGTGCGACAGCTCCTGTAGATGGCAGTGGAGCACTTCCGCAAATGCTTTGGCCTGGCGTTC
0.8138232640653051 CAGACTCAGCAACTCCTGCCTGCATTAACCCAGATAGGCCTCTAGGTGTCCTCATTGACCAAGCTCCAGAATTCTAGGCCAGAGAAAAACTACTTTTAGA
0.3388670838580106 GTGAGGTCTTACTGAGTGCTGTGATGTCAGCTTTTGCTGTCACATGGTGGCGCTGTGGAGCCCTGCGTGGCTTTCGGCTCCCCACCTCCTCGCTCCGGCT
0.3050778425859544 ATTTGTATTTTCAAGATTCTGCTGGTGTAGCTAAGCAATGCCATCATAATGTGAAGTGTTGCTGCCATCTGCAGCATGAAAGACTTATTAAACATATATA
0.1185769551642092 ACGTACGTCAGCTTTTGCCGGCCTTGTCACTTACATGCCGGTCAGTGTTTCACTGCCACCTTCTGGTAGGCCTTGGCATAGCACCTCTTGCTTTTGAGTG
0.6769659560771354 GTCCTGCGCGGGAGCTCCGAGATGCGTGAGCGCCTGTAACCAGGGATGCTGCCGCCCCCTCCTGGAAAGATTGGGAAAGTACAGCCAGAGTCTTTCTGGG
1 GCGCACGAGTCTCTGATCCCGATTGGCTGGGCAGGGCAGGCGGCGGGACGCAGGGCGCGCCCGGGCGGTGCTGATTGGCCGGAGGAGGCCAGCCGGGGGA
0.5249303105799151 TGCAACCCGCGGGCAGGAGCAGTTCCCTCGCCCGCCGCCAGGGTGCGCCCCGCTCCGAGCAGCCGGACGCCGTCCTCCCGCCGCGACGGGGCACCAGCCC
0.4368144555682168 CCTGGGGCTTGTAACCCCACTCAGCTGCGCTCACTCCTCCCCACCCCCACCCTGCCACCTGCTGGCCGGAGTTGGTATAACTGCCTGCGGTGCCTTTCTT
1 CGGTGTAGTCCGGGAAGGTGCAGTTCCCAGGTGTGACCGCGGGGTGGCGCGGTGCGCCGGCGCCGGCGCTTGCAGACTTCCCGGGAGAGAAACCTCCGTG
0.8115464033794878 AGGCCGAAGAAAGATCCATGGGAAAACCTTGAGCTGACACTGCTCTCTGCTGGGAATCTAGCGCCATGCACCGCTTTGGTTTGCATCTGGGCTCCGCGGT
0.6501957696100683 GACACAGCAGACTATTTTAGAGAATTTGCGAAGGAAACACAGTGACATCTGTTGGACACCTTGCAAACTACCAGCTCAGGATAGTTAAATTTGAATGTTA
0.6385553555906733 AATAATGCATGTTAATTAATTTATAACTCTTCTTGTTTTAGAAAAAGTTTTCAAAAGGAAAATACTGAATAAGCTGGGGTTTACTGACCTCTGATGGCCG
0.01156489704058897 CAGAAAGTGTCCCTCTTTCCTTTGCTGTATCTCTTAGTACCCTCTAGTGGTGTCAGCCTAACATTTTCTTACATGTAACGTGATCCTGACAGACATGTTC
1 CCAAAGTGCAAAGGGAAAGTCACTGCTAGAGGCGCCAGTACCAGCATAGCGCCCCCACGCGCCGAGTCGGGGAACTGCCGCGGGGGCCGGCCCCGCCCAC
1 CGGCGCCCGCGCCGACCCCGGCGCAGCGCTAGGACAGCGCCCCTGCGCGGCCGCCAGCTCCGGCGCAGCGCCTCCCTACACGCGCGCCAACCGGGGCGCC
0.1330011892697709 CCATTTCGTAGATGTGTGGTGGCTTACAAAATTTTTAGTTCAATGGTGCCCTCTTCTGTCAGTGTAGCAGAGTCTAGTTTCTTTAATGGATATTTTGGGG
0.173208719477598 GATTCCAGCTGGGGTCGCTGGGTGCCTGGGCTCAGCAGGGGCGAGGCTGCCCTCTCATGGCCAGGAGAGGCACTGCCTGGGAGGCCAGTGGGAAGGCCCC
0.2871812542920029 TGAGGCTGTTTTCACATTTCTCAAAAGTAGTTTATTCCACAAACATCAGAGGGCAGCATTTGATAGGGATTCCAAAAAGACAGAAAAGCTTGTCCACATC
0.2319351437055157 AGAAACACTCGCCCCCTAGGAAGCTGCCTGATGCGCACCTCTCCAACAGCTCTCTGCTGCCCCCGTCTGTCCACAGACCGCACTCACGGTTCCCCAGCCC
0.2657930068436965 TTTTTTTTTTTTTGTTTCCTCGGGCTGCTGGAGCTGTGTTGGGCCATGAGCGCCATCTATCGGCCTCTTTGGGTCCTAGCTCCGACTCTGCTCACTTGGG
0.4458433208733097 GCACCCAGGACTGCAGGCCCTGTGTGATTCCAATGTCAAGAGCACCACCTGCTGCCCAGGCTGTGCAAAGCCTGGTTTGTCTTTCCTTTCTCTTCAACAT
0.7538250263264991 GCCCGCCGGCGGAGCGCATCCTCCGGCAGGGGGCGAGCTCCGCACCCCGCTTTCCTCATGGGCCGGCGCGGCCCGCCGTTCAAGTGGGGAGCCCAGAGGT
0.2297778961726688 AACTGCAAATATGAAATCTTGGCATTCTTATGACATTCCAGCCAGTAGAGGGCAACAGTTCCTACCTGCTAAGTACAATGTCTTTAAACATCAAGTTGAA
0.1221678198382182 CATTGTAAATTACAGAAAGGGACTTTAGGTCTTACCAGCAGATGTCACTGCTCCTTACATTTTGCCAGAAACATTAAAACTGGAAAAGACCAATCAATGC
1 TTCGAGCGTTTTCCCGCTTTATTAACTGAAATGACTCGCAGCAGAGTCTCAGAGCGCTCCCTGGAGGGCAACTGATGACACTCTAATTTCTAACCAAAAT
0.6312207928966427 GGCGCGGGCTTTCCTCTGCTCTCTCAAAGGCCGCCTCCTGCTGGCCGAGTCGGTGAGTGCGGCGGGACCCTCGGCCGCCCCGCTAGGACTGCGCGGCTCC
0.04832036458122708 TCTCCTCAAGTCAGAGCACATCTACACATCGTCCACCAGATGGCGGTGGAAGCCCACCGACATTGTAGACTACGTAGGAAGAGCGTCCAGATGGAAAAGC
0.4181777210710499 ACTTTTCCATCTCATCACGTCTACATTGAGTTAGTTTGCCCACTAGGAGGCACTCTTTCCAAGCTCTGTTTCCCAGGGTGTCCCGCTGACTTTCCCCAAT
0.2931063666051378 TGGATCTTGTGGGATGGCCCGTGGCCACTGTACTACCTGTAAAGGCCTCCAGATGGCGCTTTCAGCTCATCAGTGGTCGCTGCTTTGGCTTACGATGTGA
0.8836899814401545 GCCTGAGCTCCTGCCTGAGATGCTCCTCTCGGAGGAGCGCCCTCCGCAGGAGGGTCTTTCCAGGAAGGACCTGTTTGAGGGGCGCCCTCCCATGGAGCAG
0.1721887606456665 CCCCGGCCGCGGGTTCCGGGGAAGCGAAGGCGCCGCCAGCCCGGGCTGTGGGCAGAGCGCGCCCTCTGCCGGGCATGATCGGAAACGGCGCGGCGGCGAC
0.4373623848680049 TCACCCGTGGCCTGCTCGGGGCCTGCAGCAGCCCGTGGCAGCCGGCAGGGGGCGGTGCCCGACCGGCTTTGGGAGACTCCCCTCCCCTACCCCAGGCGGG
0.942210333290159 CCGATTAGGACCATAAGAAATCGGCGTGTCGTGGCGAGCGCCCTCTTTCGGCGGAGGGGAGAAAGCGCAGAAGGGCTGGAGGACTTATTTGCAAGTGTTA
0.6404313866364194 TTGATAACTGCTGTTTTAGAGAACAAGCAAGTCAATACCACCTTCCGCCAGGAGATGCCGCCACTAACACATGTTGCACACTGACGGCTTAAATTTGAGG
0.1395824315348905 TGGACTAACTTGCCTTTCGTTTCATCCATTTCCACCTCCAGTGACACTCTACACCCTTATGCTGCCCCCTAGTTGCTCGAAGAGTATTTTGGGGATAGGC
1 GTAGCACCCTCTCCTGGGCTAAATGCAAACGATCTCTGTGTGTCCTGAAATCATCTGGGATAATAGCAGGCATCTCCTTTTCTCTGGCAAGCTCTGCCCC
0.8152442560338647 AGGTTCGGTTAAGTCCTAATACCGTCGGAAATTCTATTTATGTGGAAAACACACAGGGAAAGACAGACATCTTGTGGGCATATGGTAGCATTACATCACA
0.9531453247996811 GAGAGGAGGTTTGTACTTTTTCTCAGGATGTTAGTGAAGCTACACTTCCCAGGCATTACCACAAGGTGATGCAGTGACTTTGCATATTATTTCTCCACTC
0.002187527527641138 TTCCCACAGTGGCTACCAGGGGGCAGCACAAACCCCCAAATCACCTCAGGCTGCCTAAAGGGGCTAGAAGAAAGGACCCTTCTGGACTTCCCTCTGAGTA
0.4370264649143624 CTGCAGCGCAGAAGCTGGTTTCCACCCTGGACCAGAAGATGGTGCTACTCGCTCACAGGTCAATGCAGGTGTCAGCTGCTGCCTCACTGGAGTTTTTTTT
0.1723941590401925 CTGTGCACTTCGGTCAAAAGGTTTTGTATTGGGTTGTGCAGTTCCGTCTCTAGACCAGCAGGTGGCGAATACGGGTAAGAGCCAGATGCCCAGGGTGTGT
0.1300691711149648 GACAGGCGGGCGGCATGCGTCAGCGTGGACGACCTGGGCAGGAAGAGCGGCATGTGGGGCCCCCTGGTGGGCAAACGTGAGGGGCACAGGGAGGTACAGG
0.6198279277258447 TCCTCGCGGCCGCGCAACTCGAAGCGCCGCGCCCAGCCGGGCCGCGCCCGCCACAGCTCCTGCACCAGCAGCGGGCGCTCGGAGTCGCCCAGCACGCGCA
0.7810336651964576 TCGGGACGGTCTCCTCGGGCGCTTGCGGCTCCGTGGCTCAAGGGCGCCACCTGAAGGCTGCAAGAAAGAATCCGACGATCCCCCTCCCCCTTTTCTCTGC
0.1129357634106566 CCTGTCTCACACTGGATAAGACAACATGTATGGGTCACTAGTGCCCTCTCCTGGCCGCCGCAGGGACCTGCTTGGCTGTGCTGGAGACTGGGGCAGAAAC
0.5637487961262947 GTCTTACATTTCCAATAAATCAAGGAGCAAAGTTTGCAAAGCCGAGCTATTATGCACAAAAGCACCATCTAGTGACGAGAATGAGTAACTGCATGCACAC
0.1022991521393259 GAGACCTGCCCCAGGAAGGGCATGGCTAACTGCTGCCCCCAGGTGGAGACAGAGTGAGGACTTCTTTTTCCCTGTTCAGGCCCTCCCCAGGCTGTTTTCC
0.2787068570539726 GACGGCCATCCCAAGATACCAGAATGGCCTCTAGGTGGCATCTCTTTCCTCAGCTGTTTTGAATTGTCTCAAGACAATGTTTTACCTATGTAGGGGATTC
1 GAGGCGCCGCGCGGCGGGAGCCACTATAAGCGGCCAGAGGCGGAGCGACCCCTGGTGCCCAGAGTGGGAAGTGCGGGGGCGGGGCAGGCAGCGGCCCCCA
1 CATTTGCATCAGTCATCTTGCATCCAGCACAAGAAACCTGCCCGTGGGTAAGGCCGCCCTCTTGCGTCGCTGCCTTGTAATGTCAACTCGTCTTAGCCGC
0.8067039916744205 TGAAATACTAAATATTATGGTTCTTGCGTGCTGTTGCTAGGGGGCAGTGTTTACTTAGCTGACTCTGCAAACTAGCATTAAGCGGAACCAAGCTTGCATC
0.1078103995751201 CTCTCCCCAGGAGATACAATAAGGGAGGGCGACGCTTCCCAGACACCGGTAGATGGCAGCACAGGACACTTGCAGAACTGAGACAGCCCAGCTCAGCGCC
0.2008018664074864 CAGAATGAATTGCTGTGGCTGCAACTTACACCAGAGTCACACTATAGTGCCCTCCTGTGGAGGTTTGGTTAAAACTTCATTTTTGTGCCCATGAGAATGA
0.6347533888603087 GCCCTGGGCTGGGCTGGGCTGAGCAGCAGGGAGGCTGAGCAGCCTGTAGAGGGCAGCACACGCGCGGCTTCCCAGCCAGCCGCCCTGGAGGACGTGGAGG
0.344112502732339 GAAGTTTTCAGTCTTTCCACTAGAGGTCATGCCTTCCTAATTTTTCTTTAGTTGCTGGACTGGCTGCAACCCAAAAAGTAAGGCCTGAGGTTGAACATAA
0.2940692133157998 GAAGATGGATGAGGGGAAGGAAGGTAGAAACTAGCAAAACTCTTTGTCAGACATTGCCATCTGCTGGTATATTCCCAAAATGCAACCCTGGACTCATTTC
0.743020119338317 CACAATAAAGGGTACTTGAGGTTTGAGAATTTCTTCCTAAAAATGTGGTGTTAAACATTAGGTGCTGGCGCCCCTTAGCGTACACATGGATTATTACAGC
0.4985688106581911 AGGCCTCAACGTGGATTTCTAATGCGTTCATTCCTTTTTTGCCACTGGGGGTCACTGTAAAGACGCTGCTTGAAGAAGTTAAAAATTTCCCTGATGCTCT
0.6163448833160919 CAGTGACCACCCCAGCCTCCCACTGTCCCGAGGACCAGTCTGGCTGATGTCAGTGACGCTCCACTGCCCCCATGTGGCCACTCCAGGCCCCAACATCATC
0.5521746976713303 AGGGTATCTTGTTAACCAATGGGCTGACATTCTCTTTGCAGGAGCTCCACCAAGTGGTCATCCAGCTTGTGGGCGAAAGTCAGAAAAACAAATTAGGAAT
0.8244564577668332 TGTGCTTTCCAATGATGTCAAATCCCATTATTCCTCAGCTCCCTTGTTAACCGCTAGAGGGCGGATCCATTTCCAAGGGTTTCCTGGGCAAGAGGGAAAA
0.9055940199059985 GTCAGGCTTGGCCGAGCTTTGTTTACGTGCCTAAGTCGCCACCTTGAGGTCGAGGGGAAGACTGCGCCCAGCTAGGGGCTGTAGAGACGAACCCAGCTGA
1 GCCGCGAGGCCGGGCGGCGCCGGCGCGGGACGCGGGGTGCGTCCCAGGCCGGGGCTGGACTCCCCCTGCCGGCCGCTCCCGCAGCTCCGCGCAACGGGCC
0.06170255537612095 ACATAAACAACTCTTCTTTCACATGCCAACGTGTGTCTTGGATGACCACTAGAGGTCGTCTAACAAATTAAATATTTCACTTGTGGCTCACATTTTTCAG
0.1133815774163816 CTGCAAACTGAGCCACCACCTCCACCAGAGGGAGCCCATGAGTAATCAATGCAATAGCTCCAGAAAAGTTATGCCTAAAGCATTTACATACATATACACT
0.862561794585085 GGCCCTGGTGGTGCTGCGCGCAGCGGGATATAACGAGCGACAGAGGTCGCTGTTGGACCACTTTTCCACGCCAGCCTAGACGCCGAGGTTTGCTGGAGCG
0.543163224607603 AAACCAAGTCCTAAAACCAGTTTAATTTCTGTATGTATTCTACTGCCATCTCCAGGAAGCCAGGGGAAAAAAAAGGCCTGAACATTTCATCTTTCCTTAG
0.1832554366288205 AGGAGGCTAGGTCTCCACCCCAAACGGGCAGTGATTCTGCTTGTCCACTAGAGGCCGCCTTAGACCCAGTTTTAGAGAGCCGGAGAGCTACCAGATTACT
0.1482900046404046 GGTGTTATCAGGGCTTGGGATGCACCTTCATGGCCACCAGATGTCACTGTTGAGTCACAGAAGCACAGCCATAGGGGCTGAGAATCTTTGGTGGGGAGGA
0.5476840189329883 CGCTCCCGCAGTCCGCGCTTGGCTCGTGGGAGGCCTCGGGCGCCCCCTCCAGGATTCCGTGCTAACTGCAAACGATCGCGCTCGCAGGGAGGCCCCCAGT
0.2971589955853132 CTCCAGCAGAGTTCAGACAGGAGCCAAGATCTGGGTCCAAACAGTGGGTGGAAAACGCCCCCTAGAGGTGTGATGTGTTGGCTGCAAGCCTGGTGGCTGG
0.08770716713896072 CTAGCTTTCCAGTAATCCCTAAAATTTCCACAAGAGGGAGACCTTTCCCCATCAGTGCTGGGCTGCTGTCTGGAATTTCGAATTCAATTTGCAGTTTCAC
0.3852961236228725 GCTGGAGCCCGGAGGTGTAATTTTCCATCTCCACACCAGGGGGCAGCCTGGCACCTTCCACGACAGATGGAAAATTTTCCGGGCCTTGGCCCATCCGAGC
0.7910979906012875 CCACAGCCCCGGCCCCAGGCCCGCGCCCCTTCCCCCGCCGGCGGCTCGGATGGGTCGCTAGGGGTCGCTGCGCGCCGCGCGGGCGAGGACCGGCCTCTTT
0.07138822761085606 TTTTGCACTTAAACGGTTGGCTACGAGGCCTGGATGAAAAGCCACCACGAGAGGGCAGTATTTCCCCACCCTTGATCTGAGCCTAACAATCTGGACTCCA
0.2401695763246772 GCTTTGGGTTATATCCCATCGGGATGGGATATAACCAGCTGCCTCTAGATGGCAACAGTGAATTAACCTGTGGCTTACCCATGTAGTAAAATACAATACC
0.8507313198258322 ATTACATGAATAGAGGGAAAAGTCTCCCAAGGCCTATTAAGAGTAACTGGAATCCAAACGCCCTCTCGTGCTCGGACCAGCAAAATGCTATTCCTCATAT
0.2788131778703145 AGGGCCTCCCAGTGCAAATCCTCCTGCCCATACCGTGCACCCTTAGAAGCCTGCGTGTGCATAGAGCGCCCCCTACTTCCCAGTTAACTCCCAGTTCTTC
0.08907348302012956 ATTTCATAAACCACCAAAAGGTGGCATCAAAATCTTAAAAAGCAAAGACCAAGTAGACTGGGTCCATTCACAAATCCACTAGAAGAGTCCTACTGGGGGC
0.906731734466965 GTGCTCGAAGGTCTCCAGGTGCCTCAGCACCGCCACCTCGCGGATGGTGGAGAGCGGCATGCCCTCCTCGCCGGTCTGCACCCGCACGCGCTTCAACGCC
0.8541748298556912 CACAGGTGTGAGGCCATCGCACCGCGAGGGAACGGTCACTAGGTGTCGCCGTCTTCCTCGGAATGGAAGCCACGTTTCTCCTGCACCGTTGAAATGGACT
0.04555353995350108 GCCCCCAGAAGCCTCAGACCCTGAACATTGCACTGCGCTCTGCCCCTAGCTCTCCAGTAGGTGGCGGTGGGTAGGCGCAGAAGCGGCCTGTGTTAGGTTG
1 TGGCGCGCGCGCCCCGGGCGCGTGCCCGCCGCCAGTTGCCGCCGTTCAGCCGGACTCGAGCGCCACCCGCTGGAGGCAGGGCTCATCGCCCAGCTTCCGA
0.6746412230657645 GCGCGCTCTCGGCCGGCGGGGAAACAATGGAAGCCGCGCGGACTGTAGGTGGCGCCGCAGCCTCGGCGTCCGCCTGGGCTTTGCGCTCCTGGCCCCGCGC
0.03566616981551259 GAGGAGAAGCAGTTCCCCCACATAACCTGCAGGTGGCACTAGAGCAGCGCGGGAGCCGAGGGTTCCGCTCCAGCCTTCCTGGAGACCCGGGTAGGGCTGG
0.5578901512889592 ACAAATTGACCACGTTGCTGTAGTTGGTTGTTATGACCACCAGAGTGCGCAGTATGCACAGTTTTGGGAGAGCCAGTTAAGAAGGGTGGCATTTTAAACC
0.6257417401422826 TCTGTCTCCTGATCCTCACTGGTGCACCTGCACACCCTCCCCTTGCCACCAGAGGGGAGTCTAGGCTTGCCTCCAACTCCCTGGTCTCCAGCTCTCCCTA
0.3253606985856577 ATTCGCCGCCCGGCGCGCTGACGGTGCGGGGCGCCACGCCGTGGCGGATGCGGACAGCGCGCGGCCGGTTCGCCCGTCTGCCCCCTAGCGCCCTGCTCTT
0.02340884951230688 AGAAAGGGAACTGGGTAAAGAGGCGTGTCGCCTTATGCCACCTTGTGGCAGAATTGGGTAGTTAATGAAGACCGGCTGGAGGTCGAATGACTTGGGTCCT
0.4854471701980525 GGGCCAGTGATCCGCGTCAGGGACAGCGCGGGCCAGCCCGGCTGCGCCACAGCGGCCCCTGGCGGCCCGGAGCCGTCCGCGCCCGGCGGGAGTGCGCCTG
0.6416278670769052 AGGTCTAGGTGTCCCGAGCAGGCCTGCAATCCCGCAGCCGCGCCGCTCCAGCCACTGGGGAGCAGTAGAGGGCCTAGAAAGAAGCTCAGCCACCGAAGGC
0.7103207464936576 TAACAAAAAAACCCTAAAAACATTTTTGCCTAGTATGTGTAGCAACAGCTACACCCAGTGGCCAGAGATGAGTGGTGACGGTTTCTAGCTATATTATTAT
1 AAATAAACATTATGTAAGCATGTGACAAATAGGCTTGTAATGTGGCTCTCACACAACTAGATGACAGCATACTCCAAGGAACATACAGCGCTGGGCGACA
0.4764981600259229 GGAACCGCGAGCAAAGACACCTAGTAGAGCCGGCCGATTCCTAGGTCCTCCGGCCAGGAGGCGCTGCGGGCCAGTCTCCGGGGGCCACCGCAGCCCGCGC
0.4940297571631391 GTGGTAATTTTTTCTTCCATAAGAAGCAATCCCAACCCCTACCACTAGGGGGTGGCCTTGCCCTGTAGGCCTCAACATGACAATTACATCACTGCATATC
0.5188365449753457 GCTTCACCTGTGGCCTCCCGCGGCGGCTGCGGCTCCTTCGCAGGACCGGTAGGGGGCGCGCGCGGTTGAGTCCAGCAATTGCGAGGACCTCCGCAGGCGC
1 TTCCCTGGTTTCACTTAAAAACATGATCCTTTCCAGTGAAAATTCCAGAATCATGCATTTCTTTACCTAATATGTGGCAGTGTTGTATACTTACCAGCAG
0.5161194471376639 ACGCTGCCATCACCACCATTGCAGTGCTCTTTGTAGCCACTGGGTGTCAGTGTGCCCTGAGAAGTCAACGCGGCTTTTAGGAGCTCTGTTGAATTGACCC
0.1884523851118491 GGCAGAAGGCGCGGGGATTGGACGGTTTCTTTCTAGAAGATGGAGCACTGTCGCTCTCTAGTGGCCACGGTGAGAAGTGGCAAAGACCTGAGCAGAAAGA
1 ATCTATCTCTATGTGATATAATAGGTGCAAAGCTCAACTGCTCCACTCAGCGGTTATGTGTGGGGGCCTCATTTTCTCCAGCTGTGGGATTGGGAAGCAA
0.08593506364141329 GAGACCACGTCTGCATTTATTGGTGTCCTGAAACCCGGCTGAATGAAACCTGGTCTGACCACAAGGGGGAGCATGTGGATCTCGCAAAGATCCCCGGGCC
0.941857560343363 CAGGTGGGGCTTGGGATGAGACTAAATTGGTTCTTTCAAGAGCCCGGGGTGCCCTCTTGAGGATGCCTGGAGAATCTCACCACCTTCGTCCTAGACAGAC
1 CAGTAACTTAGTAAGGACTCACAGCGCCGCTGTTCACCAACCAGGGAAAAATGGTGCGAGAGATCCCACAGAAACCACCGAGTTTTACAGCACAGAGAAA
0.5292024254370943 GCAGATATTCTAAATGAGTCCATATGATGTCCAACACTGCTCTCTACTGGCAAAGAAGCAAGTTATAAAACAACTATTCAGCCTTTCAAGTGAAAAAATC
0.3559476305273866 CAAATTACCTGCATTCTCACTAGCATCCACTAGAGGGTCGTAGCTGCACTATGTAAAGAGATGGCCTTTGCCTCTTTTTCTTCCTATTCTTTTTTGTGTA
0.6679809417219044 CAGGAACACAAGCACCCCCTTGCGGTGTCTGGAGGAAGCGGCGCGGACAGTCTCCCGCTCCACCGTGTCGGGCCTGAAGAGGCCGCTGAACGCTCGCGAT
0.008603981914857915 TGCGTGGCGCCTGCCCTGGGACCCACGTGCGGCTAGGCGGCACCTCCCCGGGCGCCCAGCAGGTGGCGGTGCGCGGCCTCGAATGGCGGCTGGCAGGGCC
0.5507997839850218 GGCTTCCGGTCCCGTCTCCGCCGGCAGCGTCCTCTGCTGGACACCTCCGGGAACGCCTCACCCGGCCTGGGCGCCTGCGCCCCTGTGTGGTCACGGGGGC
0.07390670601198265 GGGTCTCCAGGAAGGCTGGAGCGGAACCCTCGGCTCCCGCGCTGCTCTGGTGCCACCTGCAGGTTATATGCGGGAACTGCTTCTCTCCACCCTACTACCC
0.5562105881730004 CCACTCAGCCTGGGCACACGCAATACCCTGGTCGGCCACAAGGGGGCTCTCAGCGTTCCCCTTCCCCCTCCCTCCACCCATTAACGCACTGGGCCGCGGT
1 TGTCCAGCCTGTCCGGCTCGGGGCAGGCGACCTCGTCTGGTGGCAGTGGGGGAGGCAGCCGTTTGCTTCCTCACAGGGTGTGCCGGAATCAGAGGCTGGA
0.6919217097025723 AGCACATCATTCTCAGGAGTGACCAGATGGTGGCAGCAAACACCAGTGATGGAATCAGCCCAGCCAAGGTTCTGGAAGTGTGGTCTTCCCACTAGTACCG
0.09489550856800082 CCCACACAGCCACTCCAACGCCTCTCGGCAGAGCCAGCACCAACACCATGGCCAACACTGCCCCCCAGTGGACCCAGGGATGTAACACATCCCCCAACTC
1 ATGCTCACAAGTGTATCAGCTCAAACCACTGTAATTGTTCCTACAACTCCCCTTGCTGGCCAATGTGAAGAGCGACACAAGAAAAATGAACACTTCTCAG
0.3779441628703266 TTGCTAATCATTGCTCTTTGGAGCCAACCTGTTCTTCGACACTAGATGGCGTCATTCACTCACCTCAGCTCATCTCTTGGCAAGAGAAAAATTTGATTCC
0.1946662189267453 CTTAGACTCGCCCGCATCTGGGTAGAGGTTTTAGAAAACACCAGAGAGGCAGGGCTGCCACCTTGTGACTATCATCAGGAAACGCACTTAACTCTTAACC
0.6828752205681377 CTCATTCTTTTTATTGCCAAGAGTAATGGTGTTAGTGTCACCTAATGGCAAAATGGAATATTGCAGCTATACTTATAGGCTATAATGAAAAGGTAACCTA
0.4896531845828578 TGGGAGCCTGGCTGATGCAGGGTTCATGCTACCCCCTAGTGGGGGATTGGGGCAGTGCCAGCCATCAGCCTGGCTGCTCCCTGTGTGCTACTGAGCCTGG
0.679770698094213 TCCAGAGAGGATTACCAAGAATACTGTCCTATTGAGACCAGGAGGGGGAGCACGTGTAACAAAAAATTCACATTTTGCAACTTTATCCTGCTCATATTCC
0.7536012032251683 GGCTGCGACCATTGCGCGTGCGCGCAGGCCGGCGCCCCCTGGAGGTGCGAAGGGCCTTCGGGCGCTGACAGGGAGAGCCTGGGGCCGGGCCGTGTGGATG
0.2192782456627111 CTCCTCGGACCGCCTTTCTCTCTCCGGTGCCTCCTGGTGGCCGCCGAGGGCATTCCTAGCGCCGCGCTCCGCGAGAGCCGCGGGGCTGTCGAGCGAGCGC
0.5072630191487794 TGTTTAAAGCCATCGTCTGTAAGTGAGCCATGTCACAGGCCAGCCAGCAGAGGACAGTATTCTGCTTTGGGATGAGGCCATTTCTCCATCAGACCAGAGG
0.3692142037393984 TACAGGTCTCAAACAATGTGTACTGCTTTGCAAACTACTCTTGGAAGAAGGAACAGCTTGTCCTCTACTGGCACCATAGTGTATCTGCATTTACATTTTC
0.09206217489899 AGGTCCCAGTTCAGTTCTTGCAAAGGCCTCCAGGTGGCGCGATAGAGCAAATGGTGGATTCCGCTAACTTGGGTTTACAATTTCTTCCTGGGAGGCTTGC
0.697067695157938 GACCCCCATTTTCTGAGGCTTTCCAGGATGGACGCATGCTATCAGCTCCCCCTGCAGGTCTGACTCTTTCCTGACAGGGAATTCCTGGAGGTCCACTGAG
0.4620045698598172 AGGGGCTGTTGTAGTTCCAGCTGGCCTGGCAGTGTGTGGCACTCTGCCGTTTCCCTGCCGCCTAGTGGCTGGTGCATTCCTCACTGTGCAATGGCCATTG
